{
    "layers": [
        {
            "kernel": {
                "cols": 3,
                "data": [
                    0.056298691779375076,
                    0.019244419410824776,
                    0.4901747405529022,
                    0.0015958587173372507,
                    0.02482200227677822,
                    0.20826105773448944,
                    0.1045699417591095,
                    -0.28700464963912964,
                    0.026434753090143204,
                    0.05911491811275482,
                    -0.007239129394292831,
                    -0.24831527471542358,
                    -0.012497248128056526,
                    0.2745450437068939,
                    0.05407985672354698,
                    -0.14380045235157013,
                    0.1915174126625061,
                    -0.06794022768735886,
                    -0.28917646408081055,
                    0.23947297036647797,
                    -0.2829788029193878,
                    0.053726136684417725,
                    0.15112045407295227,
                    0.08983086794614792,
                    0.1608646661043167,
                    0.06013951823115349,
                    -0.17083270847797394,
                    -0.07027584314346313,
                    -0.08404728770256042,
                    -0.06142616644501686,
                    0.21243123710155487,
                    0.12515988945960999,
                    0.23543809354305267,
                    -0.1883738487958908,
                    0.09284945577383041,
                    0.04773606359958649,
                    0.09974612295627594,
                    -0.2343103140592575,
                    0.28867724537849426,
                    0.18417060375213623,
                    0.2924714684486389,
                    -0.11161138117313385,
                    -0.3380119502544403,
                    0.23418597877025604,
                    -0.40269574522972107,
                    -0.1574777066707611,
                    -0.15514101088047028,
                    0.005323386751115322,
                    0.15979664027690887,
                    -0.006171908229589462,
                    0.07841377705335617,
                    -0.04610506072640419,
                    0.34989410638809204,
                    -0.1384284347295761
                ],
                "rows": 3,
                "size3D": 6
            },
            "stride": 1,
            "type": "ConvolutionLayer"
        },
        {
            "size": 2,
            "stride": 2,
            "type": "MaxPoolingLayer"
        },
        {
            "kernel": {
                "cols": 3,
                "data": [
                    0.03980918973684311,
                    0.013607860542833805,
                    0.34660589694976807,
                    0.0011284424690529704,
                    0.017551807686686516,
                    0.1472628116607666,
                    0.07394211739301682,
                    -0.20294293761253357,
                    0.018692193552851677,
                    0.04180056229233742,
                    -0.005118837580084801,
                    -0.17558541893959045,
                    -0.008836889639496803,
                    0.19413265585899353,
                    0.038240235298871994,
                    -0.10168227553367615,
                    0.13542327284812927,
                    -0.048041000962257385,
                    -0.20447863638401031,
                    0.16933296620845795,
                    -0.2000962346792221,
                    0.03799011930823326,
                    0.10685829818248749,
                    0.06352002173662186,
                    0.11374849826097488,
                    0.04252506047487259,
                    -0.12079697102308273,
                    -0.04969252645969391,
                    -0.05943040922284126,
                    -0.043434858322143555,
                    0.15021157264709473,
                    0.08850140869617462,
                    0.16647988557815552,
                    -0.13320043683052063,
                    0.06565448641777039,
                    0.03375449404120445,
                    0.07053115963935852,
                    -0.16568242013454437,
                    0.20412564277648926,
                    0.13022828102111816,
                    0.20680855214595795,
                    -0.07892116904258728,
                    -0.2390105426311493,
                    0.16559450328350067,
                    -0.284748911857605,
                    -0.1113535612821579,
                    -0.10970126837491989,
                    0.003764202818274498,
                    0.11299329251050949,
                    -0.004364198073744774,
                    0.055446915328502655,
                    -0.03260120004415512,
                    0.24741250276565552,
                    -0.0978836789727211,
                    0.054290421307086945,
                    0.044231198728084564,
                    0.021801119670271873,
                    0.03041047789156437,
                    -0.07376663386821747,
                    0.13200896978378296,
                    -0.14393550157546997,
                    -0.14526666700839996,
                    -0.005188691429793835,
                    0.10978380590677261,
                    -0.129381000995636,
                    -0.11465343087911606,
                    -0.12521272897720337,
                    0.08763015270233154,
                    -0.09928363561630249,
                    0.09392227977514267,
                    0.011654418893158436,
                    -0.06275587528944016,
                    -0.0023365358356386423,
                    -0.23946517705917358,
                    -0.14308306574821472,
                    -0.15188124775886536,
                    0.07989504188299179,
                    -0.06425463408231735,
                    0.3026277422904968,
                    0.08203177154064178,
                    -0.15535447001457214,
                    0.20256271958351135,
                    0.08320961892604828,
                    -0.15363334119319916,
                    0.061338819563388824,
                    -0.04409349709749222,
                    0.02216559462249279,
                    0.12915900349617004,
                    -0.0479559600353241,
                    0.06360626220703125,
                    -0.26295292377471924,
                    -0.36763715744018555,
                    -0.10574228316545486,
                    0.15018223226070404,
                    0.08212628215551376,
                    0.11076875776052475,
                    -0.20505215227603912,
                    0.08853916078805923,
                    0.17880143225193024,
                    0.08191568404436111,
                    0.1404896229505539,
                    0.10975978523492813,
                    0.029622087255120277,
                    -0.1252153217792511,
                    -0.018963567912578583,
                    -0.0031953519210219383,
                    -0.13738182187080383,
                    0.08986560255289078
                ],
                "rows": 3,
                "size3D": 12
            },
            "stride": 1,
            "type": "ConvolutionLayer"
        },
        {
            "size": 2,
            "stride": 2,
            "type": "MaxPoolingLayer"
        }
    ],
    "learningRate": 0.10000000149011612
}