{
    "layers": [
        {
            "kernel": {
                "cols": 3,
                "data": [
                    0.3023589551448822,
                    0.28818368911743164,
                    0.8107556700706482,
                    0.2506100535392761,
                    0.28840166330337524,
                    0.5121506452560425,
                    0.2602676749229431,
                    -0.13606271147727966,
                    0.21374166011810303,
                    0.06373577564954758,
                    -0.0015191216953098774,
                    -0.24880430102348328,
                    -0.007025131490081549,
                    0.2842133045196533,
                    0.055922139436006546,
                    -0.1392054408788681,
                    0.2002890259027481,
                    -0.06603540480136871,
                    -0.28731098771095276,
                    0.24546290934085846,
                    -0.2835400700569153,
                    0.06131495535373688,
                    0.1617409884929657,
                    0.09305410087108612,
                    0.16973140835762024,
                    0.06842219829559326,
                    -0.16997748613357544,
                    -0.031625617295503616,
                    -0.04142175242304802,
                    -0.014096054248511791,
                    0.2919730544090271,
                    0.21181590855121613,
                    0.32653558254241943,
                    -0.15668168663978577,
                    0.1379002034664154,
                    0.09637539833784103,
                    0.1024395301938057,
                    -0.23060297966003418,
                    0.29263344407081604,
                    0.19167524576187134,
                    0.30113717913627625,
                    -0.11438918113708496,
                    -0.37517619132995605,
                    0.20201045274734497,
                    -0.44366198778152466,
                    -0.15189199149608612,
                    -0.14918497204780579,
                    0.0120476009324193,
                    0.17197315394878387,
                    0.006695506162941456,
                    0.0890830010175705,
                    -0.03278319537639618,
                    0.3679948151111603,
                    -0.12762930989265442
                ],
                "rows": 3,
                "size3D": 6
            },
            "stride": 1,
            "type": "ConvolutionLayer"
        },
        {
            "size": 2,
            "stride": 2,
            "type": "MaxPoolingLayer"
        },
        {
            "kernel": {
                "cols": 3,
                "data": [
                    3.9018192291259766,
                    3.822291135787964,
                    4.624340057373047,
                    3.2267532348632813,
                    3.060842990875244,
                    3.5995047092437744,
                    2.003880739212036,
                    1.2647757530212402,
                    1.8326090574264526,
                    0.09808149933815002,
                    0.07860767096281052,
                    -0.15498320758342743,
                    0.048456937074661255,
                    0.33274081349372864,
                    0.08666124939918518,
                    -0.06583472341299057,
                    0.2527339458465576,
                    -0.007915012538433075,
                    -0.18359746038913727,
                    0.25843244791030884,
                    -0.17999495565891266,
                    0.0937991663813591,
                    0.21327772736549377,
                    0.1076570600271225,
                    0.17775967717170715,
                    0.11943887174129486,
                    -0.09866426140069962,
                    0.16822677850723267,
                    0.16626645624637604,
                    0.1947583109140396,
                    0.7925474047660828,
                    0.7542157769203186,
                    0.8349904417991638,
                    0.05511860176920891,
                    0.2967817187309265,
                    0.26872411370277405,
                    0.28708764910697937,
                    0.03943765163421631,
                    0.4635718762874603,
                    0.5014989376068115,
                    0.6086927652359009,
                    0.23739230632781982,
                    -0.186165452003479,
                    0.27201810479164124,
                    -0.24269796907901764,
                    -0.08266441524028778,
                    -0.08221647143363953,
                    0.04228447377681732,
                    0.17591458559036255,
                    0.06171761080622673,
                    0.1205064058303833,
                    0.029548604041337967,
                    0.34033727645874023,
                    -0.04983369633555412,
                    0.8063993453979492,
                    0.7804194688796997,
                    0.8130990862846375,
                    0.6234586238861084,
                    0.48101332783699036,
                    0.8011609315872192,
                    -0.019696462899446487,
                    -0.03377915173768997,
                    0.19651764631271362,
                    0.13887640833854675,
                    -0.12365314364433289,
                    -0.11171983927488327,
                    -0.10305050760507584,
                    0.09890357404947281,
                    -0.09580349922180176,
                    0.12281224876642227,
                    0.025245418772101402,
                    -0.058117181062698364,
                    0.038480550050735474,
                    -0.22772802412509918,
                    -0.13488471508026123,
                    -0.10575464367866516,
                    0.10553638637065887,
                    -0.04902905225753784,
                    0.39828920364379883,
                    0.12926046550273895,
                    -0.13855136930942535,
                    0.994285523891449,
                    0.7131057977676392,
                    0.3766566216945648,
                    0.71126389503479,
                    0.4570518732070923,
                    0.5052219033241272,
                    0.7562052011489868,
                    0.4259181022644043,
                    0.5378805994987488,
                    -0.24290648102760315,
                    -0.3482745885848999,
                    -0.06947669386863708,
                    0.5074386596679688,
                    0.44299349188804626,
                    0.5037267208099365,
                    -0.16281388700008392,
                    0.17149250209331512,
                    0.2886885702610016,
                    0.41005560755729675,
                    0.4691217243671417,
                    0.43879538774490356,
                    0.11733484268188477,
                    -0.0726645290851593,
                    0.04641014710068703,
                    0.0874260887503624,
                    -0.0717516541481018,
                    0.1918531060218811
                ],
                "rows": 3,
                "size3D": 12
            },
            "stride": 1,
            "type": "ConvolutionLayer"
        },
        {
            "size": 2,
            "stride": 2,
            "type": "MaxPoolingLayer"
        }
    ],
    "learningRate": 0.10000000149011612
}