{
    "layers": [
        {
            "inChannel": 3,
            "kernel": {
                "cols": 3,
                "data": [
                    -0.25650718808174133,
                    0.9492349624633789,
                    -1.096089243888855,
                    -0.308463454246521,
                    1.1482083797454834,
                    -1.050214171409607,
                    0.8964152932167053,
                    2.4786269664764404,
                    0.39652302861213684,
                    0.005465152207762003,
                    0.7954668402671814,
                    -0.05689714848995209,
                    -0.018993046134710312,
                    0.33129453659057617,
                    0.30292004346847534,
                    0.27769675850868225,
                    -0.029465438798069954,
                    0.1622123420238495,
                    0.0824013501405716,
                    0.10071451961994171,
                    -0.04896854981780052,
                    0.42728331685066223,
                    -0.08912578225135803,
                    -0.079525887966156,
                    0.037101708352565765,
                    0.1466548591852188,
                    -0.07961329072713852,
                    0.014054376631975174,
                    0.3655894994735718,
                    0.43734481930732727,
                    -0.03387229144573212,
                    0.2658999264240265,
                    0.23599019646644592,
                    0.12473464012145996,
                    0.34839972853660583,
                    0.006600998807698488,
                    -0.18388503789901733,
                    0.17963698506355286,
                    -0.1919449269771576,
                    0.03865579515695572,
                    -0.1595926433801651,
                    -0.08639928698539734,
                    -0.21284815669059753,
                    0.05762745440006256,
                    -0.0778198391199112,
                    -0.14608153700828552,
                    -0.08288920670747757,
                    0.07617948204278946,
                    0.07527647167444229,
                    0.04049229249358177,
                    -0.22853964567184448,
                    -0.17535491287708282,
                    -0.10331393778324127,
                    -0.29840853810310364
                ],
                "rows": 3,
                "size3D": 6
            },
            "kernelSize": 3,
            "outChannel": 6,
            "stride": 2,
            "type": "ConvolutionLayer"
        },
        {
            "size": 2,
            "stride": 2,
            "type": "MaxPoolingLayer"
        },
        {
            "activation": "ReLU",
            "bias": null,
            "dense": 96,
            "isFirst": true,
            "type": "FClayer",
            "weight": null
        },
        {
            "activation": "ReLU",
            "bias": {
                "cols": 16,
                "data": [
                    -0.06279827654361725,
                    0.3813426196575165,
                    -0.4216177761554718,
                    0.26992201805114746,
                    -0.02834678441286087,
                    1.4447095394134521,
                    -0.2370200753211975,
                    0.9666918516159058,
                    -0.0637454241514206,
                    0.009286860935389996,
                    1.3435968160629272,
                    -0.10452673584222794,
                    1.084675669670105,
                    1.7428516149520874,
                    0.4976486563682556,
                    1.231704831123352
                ],
                "rows": 1,
                "size3D": 1
            },
            "dense": 16,
            "isFirst": false,
            "type": "FClayer",
            "weight": {
                "cols": 96,
                "data": [
                    0.42841821908950806,
                    0.41591811180114746,
                    0.30969277024269104,
                    0.5703333020210266,
                    0.12555785477161407,
                    0.13762786984443665,
                    -0.0030893099028617144,
                    0.30486950278282166,
                    0.4195592999458313,
                    0.3461354672908783,
                    0.6920844912528992,
                    0.022389747202396393,
                    0.21456538140773773,
                    0.3449958860874176,
                    0.2700144946575165,
                    0.4941787123680115,
                    -3.5695098631549627e-05,
                    -0.012026590295135975,
                    0.20971043407917023,
                    0.014780746772885323,
                    0.34262627363204956,
                    -0.07615403085947037,
                    0.38611772656440735,
                    0.17744335532188416,
                    -0.12171246111392975,
                    0.5067341923713684,
                    0.3679055869579315,
                    0.29211753606796265,
                    0.1746695339679718,
                    0.46029379963874817,
                    0.30664849281311035,
                    0.17766079306602478,
                    0.20771516859531403,
                    0.03710159286856651,
                    0.025934845209121704,
                    0.2542422115802765,
                    0.19170483946800232,
                    0.05301947519183159,
                    -0.30909624695777893,
                    -0.008940487168729305,
                    0.08046015352010727,
                    -0.017607329413294792,
                    -0.011257764883339405,
                    -0.16269159317016602,
                    0.3700900375843048,
                    0.12589487433433533,
                    0.0003199828206561506,
                    -0.25370749831199646,
                    0.3393680155277252,
                    0.15088240802288055,
                    0.01390635035932064,
                    -0.07503413408994675,
                    0.07076741755008698,
                    0.14978425204753876,
                    -0.02846723049879074,
                    0.09982634335756302,
                    0.49228808283805847,
                    0.41920530796051025,
                    0.2024940401315689,
                    0.29747703671455383,
                    -0.024279337376356125,
                    0.26769745349884033,
                    0.14452049136161804,
                    0.3610454201698303,
                    -0.048369716852903366,
                    -0.037153519690036774,
                    -0.05655292049050331,
                    -0.07707314193248749,
                    -0.040865346789360046,
                    0.002746251644566655,
                    -0.005381267983466387,
                    0.04881995916366577,
                    0.04694022983312607,
                    0.009369115345180035,
                    -0.08367171138525009,
                    0.016942407935857773,
                    0.04093442112207413,
                    0.03474254161119461,
                    -0.009963227435946465,
                    0.004792016930878162,
                    -0.012712410651147366,
                    0.027886660769581795,
                    -0.01847114972770214,
                    -0.01109909638762474,
                    -0.0024055170360952616,
                    -0.04655103385448456,
                    -0.009849010966718197,
                    -0.025102708488702774,
                    -0.03667721152305603,
                    -0.005652236752212048,
                    -0.07233191281557083,
                    0.02111303061246872,
                    0.036606691777706146,
                    0.019336674362421036,
                    -0.08373472839593887,
                    -0.010338195599615574,
                    -0.1245032548904419,
                    0.5030481815338135,
                    0.12607161700725555,
                    -0.5679529309272766,
                    0.4086078107357025,
                    0.16040043532848358,
                    -0.5237761735916138,
                    0.31811702251434326,
                    0.3156608045101166,
                    0.8247396945953369,
                    0.36558571457862854,
                    0.03523804247379303,
                    0.4325847923755646,
                    0.1489676684141159,
                    0.6737890839576721,
                    0.16213394701480865,
                    -0.1549566239118576,
                    -1.0910784006118774,
                    -0.04577045887708664,
                    0.03659864142537117,
                    -1.043724536895752,
                    -0.5982003808021545,
                    -1.6695137023925781,
                    -0.3859807252883911,
                    0.9861260652542114,
                    0.29990434646606445,
                    -1.1707955598831177,
                    -0.09916477650403976,
                    0.12648926675319672,
                    -0.17483524978160858,
                    -0.28642529249191284,
                    0.2855890691280365,
                    -0.37107983231544495,
                    -0.3673206865787506,
                    -0.36963707208633423,
                    0.09741324186325073,
                    -0.40710562467575073,
                    -0.21116037666797638,
                    -0.05856135115027428,
                    0.12291065603494644,
                    0.18301145732402802,
                    0.26014968752861023,
                    -0.034193702042102814,
                    0.08079399913549423,
                    -0.11652825772762299,
                    -0.2827637791633606,
                    0.10877043008804321,
                    0.6561239361763,
                    -0.21869567036628723,
                    -0.14780712127685547,
                    0.8788066506385803,
                    0.03160417452454567,
                    0.39371246099472046,
                    0.02089761756360531,
                    -0.7621567845344543,
                    -0.4992343783378601,
                    -0.0029540392570197582,
                    0.4646395444869995,
                    -0.7194564342498779,
                    0.2658405005931854,
                    0.27350544929504395,
                    0.15151476860046387,
                    -0.11517264693975449,
                    0.1453385055065155,
                    0.02428298071026802,
                    -0.010185589082539082,
                    0.01420057937502861,
                    0.018779242411255836,
                    0.04241948574781418,
                    0.017780546098947525,
                    -0.020853692665696144,
                    0.0047696903347969055,
                    -0.025653811171650887,
                    -0.008615058846771717,
                    -0.0787723958492279,
                    -0.001687286072410643,
                    -0.019681841135025024,
                    0.020990727469325066,
                    -0.04872257262468338,
                    0.07036319375038147,
                    0.042444951832294464,
                    -0.0392972007393837,
                    -0.05042710900306702,
                    0.039312850683927536,
                    -0.048971667885780334,
                    -0.000828346295747906,
                    0.010516706854104996,
                    -0.05541018769145012,
                    -0.006449749227613211,
                    0.020770978182554245,
                    -0.0030365120619535446,
                    0.007392850238829851,
                    0.07415453344583511,
                    0.025507111102342606,
                    0.03106553666293621,
                    0.03179046884179115,
                    -0.048512984067201614,
                    -0.05742577090859413,
                    -0.03051271289587021,
                    -0.01003508921712637,
                    0.0681714415550232,
                    -0.041984859853982925,
                    -0.014368215575814247,
                    0.017624840140342712,
                    -0.019374558702111244,
                    0.02678944729268551,
                    0.02077414095401764,
                    0.03887917473912239,
                    -0.01321631483733654,
                    0.008074446581304073,
                    -0.014476103708148003,
                    -0.037438854575157166,
                    -0.037507444620132446,
                    -0.033857617527246475,
                    -0.04011007770895958,
                    0.02457418292760849,
                    -0.03287876397371292,
                    -0.007302834652364254,
                    -0.05940960347652435,
                    -0.029766857624053955,
                    -0.030186105519533157,
                    -0.04018998518586159,
                    -0.03448523208498955,
                    0.1084287017583847,
                    0.031626518815755844,
                    -0.01909051090478897,
                    -0.08775873482227325,
                    -0.033686697483062744,
                    0.059989605098962784,
                    -0.04584144428372383,
                    -0.04096914827823639,
                    -0.04246373847126961,
                    0.029416946694254875,
                    0.05495721101760864,
                    0.017411058768630028,
                    0.00798215065151453,
                    0.03546017035841942,
                    0.01710185967385769,
                    0.024145999923348427,
                    0.03757046163082123,
                    -0.0032035030890256166,
                    -0.012299559079110622,
                    -0.024906329810619354,
                    0.0035038539208471775,
                    -0.043419286608695984,
                    0.005319687072187662,
                    0.056324586272239685,
                    -0.010417643934488297,
                    -0.050766460597515106,
                    -0.008187515661120415,
                    0.025927618145942688,
                    0.039563849568367004,
                    0.0042540947906672955,
                    0.02699402906000614,
                    -0.009587478823959827,
                    0.022884642705321312,
                    -0.03446526080369949,
                    0.05953516066074371,
                    -0.021188875660300255,
                    -0.010888354852795601,
                    0.051676247268915176,
                    -0.012416966259479523,
                    -0.024915505200624466,
                    0.014727306552231312,
                    -0.0012919289292767644,
                    0.060621973127126694,
                    0.013470967300236225,
                    -0.03828725963830948,
                    -0.00778967747464776,
                    0.0068603698164224625,
                    0.019796669483184814,
                    -0.0095081627368927,
                    -0.0011588403722271323,
                    -0.1040244773030281,
                    -0.058575890958309174,
                    -0.00769678084179759,
                    0.029769672080874443,
                    0.013560556806623936,
                    0.04262607544660568,
                    -0.008858644403517246,
                    0.023186827078461647,
                    -0.001088623539544642,
                    -0.0051446775905787945,
                    0.003353848122060299,
                    0.048610445111989975,
                    0.019809527322649956,
                    -0.008437450975179672,
                    -0.009025483392179012,
                    0.06809116899967194,
                    -0.0554673932492733,
                    -0.05495869740843773,
                    0.007519005332142115,
                    0.17187900841236115,
                    0.09528939425945282,
                    0.17394348978996277,
                    -0.35449621081352234,
                    0.0073166824877262115,
                    0.007992386817932129,
                    -0.19522733986377716,
                    0.21796339750289917,
                    0.09915565699338913,
                    0.13558876514434814,
                    0.292843222618103,
                    -0.08273997902870178,
                    0.12664487957954407,
                    -0.13520263135433197,
                    0.2312222421169281,
                    0.10006707906723022,
                    0.024848854169249535,
                    -0.3663630783557892,
                    -0.06104833260178566,
                    0.11927250772714615,
                    -0.5041700601577759,
                    -0.3748261630535126,
                    -0.4528847932815552,
                    0.11105988919734955,
                    0.5102335214614868,
                    0.27711689472198486,
                    -0.2300395667552948,
                    0.21239909529685974,
                    0.21829573810100555,
                    0.04627598449587822,
                    -0.14302867650985718,
                    0.3187624514102936,
                    -0.13134688138961792,
                    -0.17573344707489014,
                    -0.19886350631713867,
                    0.06909485906362534,
                    -0.21365463733673096,
                    -0.3308056890964508,
                    0.042894162237644196,
                    0.24325373768806458,
                    -0.04185789078474045,
                    -0.03733384981751442,
                    0.08006906509399414,
                    0.05984743312001228,
                    -0.09387935698032379,
                    -0.09334404021501541,
                    0.05653917416930199,
                    0.33199623227119446,
                    0.10598397254943848,
                    -0.08966238051652908,
                    0.2108076959848404,
                    -0.2639881670475006,
                    0.15064217150211334,
                    -0.11224976927042007,
                    -0.3330134451389313,
                    -0.21258461475372314,
                    -0.05226488038897514,
                    0.2653495967388153,
                    -0.27418947219848633,
                    -0.0448652021586895,
                    0.07470955699682236,
                    -0.02457566373050213,
                    -0.12859362363815308,
                    -0.0935608297586441,
                    0.03333219140768051,
                    -0.005101547576487064,
                    -0.001737543847411871,
                    0.01375031191855669,
                    -0.030021147802472115,
                    -0.029423518106341362,
                    0.06524407118558884,
                    -0.01007133349776268,
                    -0.011942705139517784,
                    0.00954458862543106,
                    -0.013995612040162086,
                    0.03260258957743645,
                    -0.02767544612288475,
                    -0.015727033838629723,
                    -0.02453995868563652,
                    0.013263710774481297,
                    0.03416848182678223,
                    -0.08865055441856384,
                    -0.010654718615114689,
                    0.003781653009355068,
                    -0.0986698567867279,
                    -0.02163609117269516,
                    0.024600528180599213,
                    0.03448992222547531,
                    -0.012456433847546577,
                    0.0010986118577420712,
                    0.023343762382864952,
                    -0.012944144196808338,
                    0.018355179578065872,
                    -0.023031894117593765,
                    -0.021292611956596375,
                    -0.027463242411613464,
                    -0.07121618837118149,
                    0.045054733753204346,
                    0.019808894023299217,
                    0.05042264983057976,
                    -0.018862150609493256,
                    0.01348413061350584,
                    -0.004461490083485842,
                    -0.04299752414226532,
                    0.019009646028280258,
                    -0.02649405412375927,
                    0.0035160884726792574,
                    -0.03443837910890579,
                    0.007348770275712013,
                    -0.03000260889530182,
                    0.024464832618832588,
                    0.038119591772556305,
                    0.0034280014224350452,
                    -0.0636608749628067,
                    -0.033378489315509796,
                    0.02626635879278183,
                    0.015299986116588116,
                    -0.02656756527721882,
                    0.0073737576603889465,
                    -0.049105145037174225,
                    0.05830705165863037,
                    0.0038927874993532896,
                    -0.015324680134654045,
                    0.011463145725429058,
                    -0.02459748461842537,
                    -0.06880082190036774,
                    -0.02900359034538269,
                    -0.022559866309165955,
                    0.015443331561982632,
                    0.07997724413871765,
                    -0.08676765114068985,
                    0.03176599368453026,
                    -0.07747603952884674,
                    -0.025969240814447403,
                    -0.0011691378895193338,
                    0.004840248730033636,
                    0.02604307048022747,
                    0.016031822189688683,
                    -0.06526412814855576,
                    -0.00985297467559576,
                    -0.04606783390045166,
                    -0.03350044786930084,
                    0.07711014151573181,
                    1.5166124285315163e-05,
                    0.025400690734386444,
                    -0.017909914255142212,
                    -0.0012794558424502611,
                    -0.08817240595817566,
                    0.03948734700679779,
                    0.033214688301086426,
                    -0.037026356905698776,
                    -0.04586019366979599,
                    -0.020550068467855453,
                    -0.033052511513233185,
                    -0.01594586670398712,
                    -0.033479854464530945,
                    -0.0030536071863025427,
                    -0.04969213157892227,
                    0.011924590915441513,
                    0.04651084914803505,
                    -0.05502087250351906,
                    -0.005270250141620636,
                    -0.005783894564956427,
                    0.005911870393902063,
                    -0.0033730538561940193,
                    -0.0542294904589653,
                    0.01619092933833599,
                    0.011179758235812187,
                    0.040076401084661484,
                    -0.0005650360253639519,
                    0.04590139165520668,
                    -0.036070872098207474,
                    -0.0035289842635393143,
                    0.006653341930359602,
                    0.023899244144558907,
                    -0.004148172214627266,
                    0.017035167664289474,
                    0.035173747688531876,
                    -0.07620763033628464,
                    0.07378831505775452,
                    0.022003721445798874,
                    0.0060944021679461,
                    0.040327657014131546,
                    0.05296379327774048,
                    0.03436644375324249,
                    -0.04772855341434479,
                    0.07246318459510803,
                    0.08742508292198181,
                    0.03558795154094696,
                    -0.039388615638017654,
                    -0.0029918046202510595,
                    0.01453580241650343,
                    -0.22895900905132294,
                    -0.18679724633693695,
                    0.05568459630012512,
                    -0.7093428373336792,
                    0.28865304589271545,
                    0.3347059190273285,
                    0.6408891677856445,
                    -0.0558386854827404,
                    -0.30347079038619995,
                    0.20281000435352325,
                    -0.43117228150367737,
                    0.7753682732582092,
                    0.1301409900188446,
                    0.13117051124572754,
                    0.29337552189826965,
                    -0.4188670814037323,
                    0.4645562171936035,
                    0.4505786597728729,
                    0.06438492238521576,
                    0.3064114451408386,
                    -0.37087514996528625,
                    0.707349419593811,
                    -0.5064888596534729,
                    -0.07178065925836563,
                    0.7381007075309753,
                    -0.49953246116638184,
                    -0.20074857771396637,
                    -0.19718356430530548,
                    0.16989675164222717,
                    -0.2516336739063263,
                    -0.1560506969690323,
                    0.1027093455195427,
                    -0.19632954895496368,
                    0.21029993891716003,
                    0.2510140836238861,
                    -0.43836089968681335,
                    -0.42176029086112976,
                    0.053334791213274,
                    0.8142386674880981,
                    0.1820201575756073,
                    -0.19768908619880676,
                    0.23320087790489197,
                    0.19667939841747284,
                    0.6278932690620422,
                    -0.7575095295906067,
                    -0.11746563017368317,
                    0.1427435427904129,
                    0.7070416212081909,
                    -0.03235376626253128,
                    0.13045629858970642,
                    0.4964842200279236,
                    0.49912530183792114,
                    0.3224392235279083,
                    -0.0812155231833458,
                    0.3346191346645355,
                    0.19307935237884521,
                    -0.5542886853218079,
                    -0.3254132866859436,
                    0.10370869934558868,
                    -0.11872927844524384,
                    0.6074395179748535,
                    0.1813753992319107,
                    0.1751883327960968,
                    -0.23521855473518372,
                    0.0022140545770525932,
                    0.04421206936240196,
                    0.015244842506945133,
                    -0.011716365814208984,
                    -0.010250074788928032,
                    0.023499581962823868,
                    0.01488816924393177,
                    -0.03853056952357292,
                    0.0005029480089433491,
                    0.03703206405043602,
                    0.016624873504042625,
                    -0.006335743237286806,
                    0.04845186695456505,
                    -0.0030433526262640953,
                    0.06041685864329338,
                    0.03301651403307915,
                    -0.013790641911327839,
                    0.02486583963036537,
                    0.016876811161637306,
                    -0.02920021302998066,
                    0.034421518445014954,
                    0.0034756504464894533,
                    -0.006676569115370512,
                    -0.07709304988384247,
                    -0.013621781021356583,
                    -0.021063655614852905,
                    0.013783247210085392,
                    0.030241934582591057,
                    0.06772933900356293,
                    -0.043215688318014145,
                    0.07826067507266998,
                    0.020866073668003082,
                    -0.0007436001906171441,
                    0.03027566894888878,
                    -0.031438205391168594,
                    -0.017915094271302223,
                    0.03859179466962814,
                    -0.08392764627933502,
                    0.027513831853866577,
                    0.0208801981061697,
                    0.04800191894173622,
                    -0.0816861093044281,
                    0.10778158158063889,
                    0.029951533302664757,
                    -0.04029412195086479,
                    0.05592678114771843,
                    0.030529309064149857,
                    0.02450651489198208,
                    0.007769439835101366,
                    0.005212743300944567,
                    0.0386519692838192,
                    -0.02553914673626423,
                    -0.042287833988666534,
                    0.011145859025418758,
                    0.05780204385519028,
                    -0.032869767397642136,
                    0.026716817170381546,
                    0.027235861867666245,
                    0.00917310081422329,
                    0.042813945561647415,
                    -0.010034389793872833,
                    -0.05026322230696678,
                    0.044687725603580475,
                    -0.04470398277044296,
                    -0.022767048329114914,
                    -0.005236521363258362,
                    0.002197244670242071,
                    0.06178770214319229,
                    -0.02651602029800415,
                    -0.06188807636499405,
                    0.042073313146829605,
                    -0.01304087694734335,
                    -0.010468648746609688,
                    0.004025029018521309,
                    -0.04449363052845001,
                    0.007167426869273186,
                    -0.006639805156737566,
                    -0.06437801569700241,
                    0.02352871187031269,
                    0.06977901607751846,
                    0.007154987193644047,
                    -0.026646975427865982,
                    -0.02310194820165634,
                    -0.006237912457436323,
                    -0.040604118257761,
                    0.02353912778198719,
                    0.03351876884698868,
                    -0.019391626119613647,
                    -0.031575676053762436,
                    0.004156144801527262,
                    -0.0018560085445642471,
                    -0.01735634356737137,
                    -0.02893216907978058,
                    -0.049528345465660095,
                    -0.010714823380112648,
                    -0.00034334309748373926,
                    -0.004400992766022682,
                    0.01855590008199215,
                    -0.024600066244602203,
                    -0.05057593435049057,
                    -0.027021462097764015,
                    0.042811211198568344,
                    0.023394977673888206,
                    0.03768926486372948,
                    -0.035112179815769196,
                    0.05884475260972977,
                    0.0007024759543128312,
                    -0.020784903317689896,
                    -0.019070595502853394,
                    -0.011610261164605618,
                    -0.005511553026735783,
                    0.00681866891682148,
                    0.029739592224359512,
                    -0.0586865209043026,
                    0.04932452738285065,
                    0.00539519265294075,
                    -0.0023503638803958893,
                    -0.010112694464623928,
                    -0.01946927234530449,
                    -0.022854413837194443,
                    0.048309821635484695,
                    0.03907037898898125,
                    -0.00359905231744051,
                    -0.02489033155143261,
                    0.026412883773446083,
                    0.009711082093417645,
                    -0.05018522962927818,
                    0.042638491839170456,
                    0.44646328687667847,
                    -0.8109463453292847,
                    -0.2323686182498932,
                    -0.23894475400447845,
                    0.9047831892967224,
                    0.3760543167591095,
                    -0.23808234930038452,
                    -0.5588686466217041,
                    0.5213620066642761,
                    0.5117987394332886,
                    0.20240694284439087,
                    0.8973529934883118,
                    0.31038543581962585,
                    0.824100136756897,
                    -0.19515465199947357,
                    -0.05323624983429909,
                    -0.017242295667529106,
                    -0.9554577469825745,
                    -0.4751748740673065,
                    -0.6879799365997314,
                    0.12501049041748047,
                    0.012966546230018139,
                    -0.319938600063324,
                    -1.249301552772522,
                    0.2555491030216217,
                    -0.261874794960022,
                    0.21303434669971466,
                    0.04350421577692032,
                    0.17618271708488464,
                    -0.26716387271881104,
                    -0.38865989446640015,
                    -0.35624971985816956,
                    0.16006386280059814,
                    0.0553002692759037,
                    -0.1701042652130127,
                    0.07453589141368866,
                    -0.12710312008857727,
                    -0.04750513657927513,
                    -0.28156280517578125,
                    -0.11527255177497864,
                    -0.0734710693359375,
                    0.21152465045452118,
                    -0.21215210855007172,
                    0.21386981010437012,
                    0.2748201787471771,
                    0.17737826704978943,
                    -0.37516501545906067,
                    -0.14490334689617157,
                    -0.12799222767353058,
                    -1.0568307638168335,
                    -0.21182936429977417,
                    -0.32299983501434326,
                    0.27945244312286377,
                    -0.15644904971122742,
                    -0.23497937619686127,
                    -0.7787707448005676,
                    0.7005283236503601,
                    -0.2555602192878723,
                    0.13451944291591644,
                    0.28457045555114746,
                    0.4616444408893585,
                    -0.29598376154899597,
                    -0.25269484519958496,
                    0.09514693915843964,
                    -0.00013511917495634407,
                    -0.00017735001165419817,
                    -0.033868685364723206,
                    -0.012871145270764828,
                    -0.008370802737772465,
                    -0.037405241280794144,
                    0.023627212271094322,
                    -0.022479387000203133,
                    -0.023066328838467598,
                    0.006909147836267948,
                    0.020937466993927956,
                    0.07500394433736801,
                    -0.010021674446761608,
                    0.03777559846639633,
                    -0.03547501191496849,
                    -0.011707999743521214,
                    0.015395560301840305,
                    -0.01177935115993023,
                    -0.012283305637538433,
                    -0.046972766518592834,
                    -0.004840889014303684,
                    0.04624795541167259,
                    0.01988442987203598,
                    0.07143296301364899,
                    0.03494567796587944,
                    -0.02585029974579811,
                    0.011143304407596588,
                    -0.03544263914227486,
                    -0.018746955320239067,
                    -0.03889406472444534,
                    -0.010758769698441029,
                    -0.017354492098093033,
                    0.3637794852256775,
                    0.31195253133773804,
                    0.19921338558197021,
                    0.4899801015853882,
                    0.03124225325882435,
                    0.03162834420800209,
                    -0.045538950711488724,
                    0.19295959174633026,
                    0.26507896184921265,
                    0.2804379165172577,
                    0.37683403491973877,
                    -0.13725686073303223,
                    0.1456877440214157,
                    0.17067381739616394,
                    0.13701298832893372,
                    0.37790006399154663,
                    -0.0013121824013069272,
                    -0.08198468387126923,
                    0.16601793467998505,
                    -0.033773668110370636,
                    0.3577495813369751,
                    -0.25016215443611145,
                    0.4128481149673462,
                    0.17694619297981262,
                    -0.13567234575748444,
                    0.4957342743873596,
                    0.39291131496429443,
                    0.27404680848121643,
                    0.10215519368648529,
                    0.2901066541671753,
                    0.32518744468688965,
                    0.14067445695400238,
                    0.193568155169487,
                    0.04865469038486481,
                    -0.08536504209041595,
                    0.23964431881904602,
                    0.19625148177146912,
                    0.008989857509732246,
                    -0.3313952088356018,
                    0.01252533309161663,
                    0.10382246226072311,
                    -0.07368694990873337,
                    0.009212525561451912,
                    -0.24624545872211456,
                    0.3733827471733093,
                    0.07305953651666641,
                    -0.032008856534957886,
                    -0.2881143391132355,
                    0.30475759506225586,
                    0.0997677817940712,
                    0.03286587819457054,
                    -0.10961801558732986,
                    0.04929881542921066,
                    0.2213250696659088,
                    -0.06824283301830292,
                    0.02486243285238743,
                    0.3776758313179016,
                    0.32269296050071716,
                    0.18082182109355927,
                    0.237584188580513,
                    -0.06052081286907196,
                    0.12191566079854965,
                    0.13733239471912384,
                    0.35526934266090393,
                    0.03805052489042282,
                    0.016865622252225876,
                    -0.03946078196167946,
                    0.0014909363817423582,
                    -0.017511235550045967,
                    0.040059156715869904,
                    0.005365867633372545,
                    0.0027860919944941998,
                    -0.04174184426665306,
                    -0.011711842380464077,
                    0.025931717827916145,
                    0.0371682345867157,
                    -0.005558765958994627,
                    0.08719378709793091,
                    -0.017124662175774574,
                    -0.07926856726408005,
                    -0.05479717254638672,
                    -0.035467762500047684,
                    0.018898017704486847,
                    0.020931586623191833,
                    0.0032768722157925367,
                    -0.011221285909414291,
                    -0.01821170188486576,
                    0.02551361545920372,
                    0.08682084083557129,
                    0.060869812965393066,
                    0.027452554553747177,
                    0.06255653500556946,
                    0.06626120954751968,
                    0.014413461089134216,
                    0.023713989183306694,
                    -0.015786467120051384,
                    0.045143455266952515,
                    -0.001846234779804945,
                    -0.05203818902373314,
                    0.0050006587989628315,
                    0.0341276153922081,
                    -0.024432191625237465,
                    0.07111267000436783,
                    -0.08317776769399643,
                    0.09479985386133194,
                    -0.031080307438969612,
                    0.002268887823447585,
                    0.03639209270477295,
                    0.0433628112077713,
                    0.03892027214169502,
                    -0.01979128085076809,
                    -0.026340654119849205,
                    -0.05811227858066559,
                    -0.012887592427432537,
                    -0.04569198191165924,
                    -0.0666787251830101,
                    -0.009618585929274559,
                    0.0010086324764415622,
                    -0.027449507266283035,
                    0.0020551886409521103,
                    -0.01596507988870144,
                    -0.04798217490315437,
                    0.06585023552179337,
                    -0.03237292543053627,
                    -0.048778507858514786,
                    0.08579938113689423,
                    0.020202547311782837,
                    0.021698441356420517,
                    0.03639741241931915,
                    -0.00207327026873827,
                    -0.01938200555741787,
                    -0.045304734259843826,
                    -0.03779514133930206,
                    -0.014761917293071747,
                    0.06878092139959335,
                    0.04162256792187691,
                    0.07595809549093246,
                    0.048367083072662354,
                    0.09906120598316193,
                    0.043581608682870865,
                    -0.03718581795692444,
                    -0.0030895217787474394,
                    0.07074464112520218,
                    -0.06466784328222275,
                    -0.04120181128382683,
                    -0.058690331876277924,
                    -0.053386587649583817,
                    -0.006453393027186394,
                    -0.024723105132579803,
                    -0.01902148686349392,
                    -0.004643615800887346,
                    -0.0267030019313097,
                    0.0010187012376263738,
                    0.031344935297966,
                    -0.042328763753175735,
                    -0.0047285296022892,
                    -0.038524169474840164,
                    -0.09503655880689621,
                    -0.05473119392991066,
                    0.023867787793278694,
                    -0.040726128965616226,
                    -0.016766896471381187,
                    0.0020778372418135405,
                    0.03901001065969467,
                    0.007208381779491901,
                    -0.016672944650053978,
                    0.008038979023694992,
                    0.05173369497060776,
                    0.01562632992863655,
                    -0.06392994523048401,
                    0.01993832364678383,
                    -0.005756509490311146,
                    0.019280875101685524,
                    0.009634515270590782,
                    0.02941727079451084,
                    -0.001939931302331388,
                    -0.06426431238651276,
                    -0.07266988605260849,
                    0.04497509449720383,
                    0.0037660778034478426,
                    0.025984225794672966,
                    0.03171181678771973,
                    -0.03698594495654106,
                    -0.0007369921659119427,
                    -0.008973589166998863,
                    -0.08521959185600281,
                    -0.027776900678873062,
                    0.008817805908620358,
                    -0.0276875589042902,
                    -0.018977869302034378,
                    0.006842394825071096,
                    -0.06506171077489853,
                    -0.02691333368420601,
                    -0.011362840421497822,
                    -0.07436086982488632,
                    0.01640217751264572,
                    0.02545035630464554,
                    0.014779346995055676,
                    -0.0154595160856843,
                    0.06153448671102524,
                    -0.013773227110505104,
                    -0.06417015939950943,
                    0.04805644974112511,
                    -0.0760473757982254,
                    0.034632518887519836,
                    0.01317568402737379,
                    -0.10737590491771698,
                    -0.04156113043427467,
                    -0.04053858295083046,
                    -0.09325847029685974,
                    -0.033488743007183075,
                    -0.032094258815050125,
                    -0.13552269339561462,
                    -0.12806978821754456,
                    -0.12465479969978333,
                    -0.11725660413503647,
                    -0.044420789927244186,
                    -0.09095438569784164,
                    -0.12774449586868286,
                    -0.11374739557504654,
                    -0.03639943525195122,
                    -0.06909361481666565,
                    -0.14005939662456512,
                    -0.08275557309389114,
                    -0.003920922987163067,
                    0.014849519357085228,
                    -0.0056697954423725605,
                    0.006880020257085562,
                    0.02276049368083477,
                    -0.023235566914081573,
                    -0.0005253928829915822,
                    -0.031407568603754044,
                    -0.06422817707061768,
                    0.07733650505542755,
                    -0.05301159620285034,
                    -0.03143637254834175,
                    -0.06450425088405609,
                    -0.009062728844583035,
                    -0.05302456393837929,
                    0.004158394411206245,
                    -0.04499426484107971,
                    -0.0629926547408104,
                    -0.0744001567363739,
                    -0.009963667020201683,
                    -0.052611544728279114,
                    -0.08862129598855972,
                    -0.12725161015987396,
                    -0.08369224518537521,
                    -0.05907367914915085,
                    -0.1571691632270813,
                    -0.11704327166080475,
                    -0.08214232325553894,
                    -0.048683781176805496,
                    -0.09638562053442001,
                    -0.0673738420009613,
                    -0.04160218685865402,
                    -0.07607857137918472,
                    -0.04302569851279259,
                    -0.05050871521234512,
                    -0.008020286448299885,
                    -0.015273721888661385,
                    -0.029599318280816078,
                    0.010669023729860783,
                    -0.03502679616212845,
                    0.02241511456668377,
                    0.027620190754532814,
                    0.0004030400887131691,
                    -0.03670462220907211,
                    0.023929283022880554,
                    -0.0397212877869606,
                    0.039076272398233414,
                    -0.02783779613673687,
                    0.023830987513065338,
                    0.0036200915928930044,
                    0.02282637357711792,
                    -0.01655007153749466,
                    -0.06239650398492813,
                    -0.038079917430877686,
                    -0.02808375656604767,
                    0.038610655814409256,
                    0.0012594275176525116,
                    -0.018411386758089066,
                    -0.006768529769033194,
                    -0.06416650116443634,
                    -0.02420717291533947,
                    0.016855251044034958,
                    -0.05090989172458649,
                    2.915812365245074e-05,
                    -0.0684513971209526,
                    -0.03571407496929169,
                    -0.026778830215334892,
                    -0.007214904297143221,
                    -0.0005182056338526309,
                    -0.035648975521326065,
                    0.011101865209639072,
                    0.06945798546075821,
                    -0.004478482063859701,
                    -0.012497415766119957,
                    0.00013262388529255986,
                    -0.012856187298893929,
                    0.04777400195598602,
                    -0.008310988545417786,
                    0.030659733340144157,
                    -0.058059606701135635,
                    -0.04173644259572029,
                    -0.04333828389644623,
                    -0.002867123344913125,
                    0.007544065359979868,
                    -0.013021123595535755,
                    0.04088312014937401,
                    -0.00011761349742300808,
                    0.0021011768840253353,
                    0.0013607924338430166,
                    0.01753879338502884,
                    0.013170920312404633,
                    0.01554566528648138,
                    0.047551557421684265,
                    -0.046340398490428925,
                    -0.04120736941695213,
                    -0.004400632344186306,
                    -0.0015513127436861396,
                    -0.026420973241329193,
                    -0.026999538764357567,
                    -0.009834932163357735,
                    0.04699504002928734,
                    0.05991578847169876,
                    0.016078654676675797,
                    0.033821363002061844,
                    0.07531637698411942,
                    0.044079579412937164,
                    -0.02455889992415905,
                    -0.0145108038559556,
                    0.06368003785610199,
                    -0.029923783615231514,
                    -0.02248779498040676,
                    -0.03229527920484543,
                    -0.10129313915967941,
                    -0.06865445524454117,
                    0.012759308330714703,
                    -0.02857774868607521,
                    0.018020614981651306,
                    -0.00013009434042032808,
                    -0.025315240025520325,
                    -0.03204576298594475,
                    -0.02721368335187435,
                    0.024325592443346977,
                    0.0007905309903435409,
                    -0.0155535489320755,
                    -0.03125925362110138,
                    0.055211666971445084,
                    -0.034415245056152344,
                    0.0031265586148947477,
                    -0.045328058302402496,
                    -0.03296997770667076,
                    -0.021783877164125443,
                    -0.07678195089101791,
                    0.02568848244845867,
                    -0.003119830507785082,
                    -0.057851701974868774,
                    -0.007315223570913076,
                    0.03866124153137207,
                    0.04947259649634361,
                    0.018250808119773865,
                    -0.058884527534246445,
                    -0.037295594811439514,
                    -0.01326440554112196,
                    -0.0014102878049015999,
                    0.05944018438458443,
                    0.018550964072346687,
                    0.10683981329202652,
                    -0.0054917894303798676,
                    0.04682297632098198,
                    -0.06615904718637466,
                    -0.048944052308797836,
                    -0.023323090746998787,
                    -0.02584085799753666,
                    0.07038058340549469,
                    0.035219285637140274,
                    0.0294821634888649,
                    0.0023567399475723505,
                    0.006285853683948517,
                    -0.024262048304080963,
                    0.0054237511940300465,
                    -0.039464596658945084,
                    0.1440877467393875,
                    -0.24428021907806396,
                    -0.1823054403066635,
                    -0.40331026911735535,
                    0.2772400379180908,
                    -0.6973322629928589,
                    0.07142779976129532,
                    0.47053560614585876,
                    -0.42360150814056396,
                    0.3648211359977722,
                    0.6263170838356018,
                    -1.228211760520935,
                    -0.5079672336578369,
                    -0.4306527376174927,
                    0.36304718255996704,
                    0.11925838142633438,
                    1.052731990814209,
                    -0.2626686096191406,
                    -0.819986879825592,
                    -0.24393539130687714,
                    -0.01886076293885708,
                    0.2916325032711029,
                    0.5291298031806946,
                    1.0959841012954712,
                    1.647213339805603,
                    0.13597439229488373,
                    0.037109799683094025,
                    0.701272189617157,
                    0.24297797679901123,
                    0.5495391488075256,
                    -0.3461931049823761,
                    0.6277799010276794,
                    0.2430831342935562,
                    0.17422913014888763,
                    -0.3535798490047455,
                    -0.019566960632801056,
                    0.30331385135650635,
                    -0.4010041058063507,
                    0.4970422089099884,
                    0.43665817379951477,
                    -0.4485335350036621,
                    0.014278740622103214,
                    0.6479496359825134,
                    0.19057607650756836,
                    -0.40849417448043823,
                    -0.32843413949012756,
                    0.3783649504184723,
                    0.7132096886634827,
                    0.48690396547317505,
                    -0.824082612991333,
                    -0.9545574188232422,
                    -1.3483514785766602,
                    0.2619009017944336,
                    -0.11184313148260117,
                    0.7044616937637329,
                    -0.2727139890193939,
                    -0.40923669934272766,
                    -0.02419409155845642,
                    0.06834091246128082,
                    -0.15726539492607117,
                    -0.18890558183193207,
                    0.8536236882209778,
                    -0.37511688470840454,
                    -0.4866507649421692,
                    0.028797686100006104,
                    -0.04993452504277229,
                    0.007717599160969257,
                    0.014224250800907612,
                    0.05767490342259407,
                    -0.034761056303977966,
                    -0.045104410499334335,
                    -0.009503524750471115,
                    -0.04755052924156189,
                    -0.03107530251145363,
                    -0.044852323830127716,
                    0.04325176030397415,
                    -0.0078100524842739105,
                    0.03438015282154083,
                    -0.052012741565704346,
                    -0.0012746133143082261,
                    0.04116110876202583,
                    0.019917361438274384,
                    0.046294067054986954,
                    0.029842523857951164,
                    -0.036127910017967224,
                    -0.014549954794347286,
                    0.09949372708797455,
                    0.011220154352486134,
                    0.021162381395697594,
                    -0.03335348516702652,
                    0.10554533451795578,
                    0.009133524261415005,
                    0.01852724887430668,
                    -0.021413756534457207,
                    -0.001154016936197877,
                    -0.04854796826839447,
                    -0.01675480604171753,
                    -0.3067489266395569,
                    0.13474681973457336,
                    -0.5960573554039001,
                    0.49782779812812805,
                    0.06181209534406662,
                    0.23902344703674316,
                    -0.08621512353420258,
                    -0.3347991108894348,
                    0.5042783617973328,
                    -0.7530027627944946,
                    0.9115588068962097,
                    0.39761364459991455,
                    -0.04225953668355942,
                    -0.04111533612012863,
                    -0.6032776236534119,
                    0.49021217226982117,
                    0.3530161678791046,
                    0.07511469721794128,
                    0.5282172560691833,
                    -0.3363574147224426,
                    0.5826826691627502,
                    -0.8782246112823486,
                    -0.19850286841392517,
                    0.6122087836265564,
                    -0.6812912821769714,
                    -0.21735499799251556,
                    -0.3818614184856415,
                    0.2355198711156845,
                    -0.5401376485824585,
                    -0.41440239548683167,
                    0.13960978388786316,
                    -0.2086888551712036,
                    0.21968118846416473,
                    0.235213041305542,
                    -0.3085940480232239,
                    -0.20777402818202972,
                    0.22009606659412384,
                    0.6567866206169128,
                    0.04323999956250191,
                    -0.23167622089385986,
                    0.16144466400146484,
                    0.1249309778213501,
                    0.48610520362854004,
                    -0.7705129384994507,
                    -0.20001991093158722,
                    0.10691828280687332,
                    0.715843915939331,
                    -0.0032467846758663654,
                    0.024637263268232346,
                    0.7898167967796326,
                    0.9476391077041626,
                    0.5877348184585571,
                    -0.122423455119133,
                    0.1809871345758438,
                    0.31968507170677185,
                    -0.5978696346282959,
                    -0.4964696168899536,
                    -0.10962876677513123,
                    -0.1632746011018753,
                    0.7409354448318481,
                    -0.11708153784275055,
                    -0.21508298814296722,
                    -0.009855104610323906,
                    -0.024335114285349846,
                    0.005208038724958897,
                    -0.015617268159985542,
                    0.01776871457695961,
                    0.01001154538244009,
                    -0.04261079058051109,
                    -0.02930295653641224,
                    0.01921103708446026,
                    0.023166649043560028,
                    0.02137073315680027,
                    -0.0073632048442959785,
                    -0.003384081181138754,
                    0.013860243372619152,
                    -0.020385168492794037,
                    -0.028684282675385475,
                    -0.053448233753442764,
                    0.0327993743121624,
                    0.012256721965968609,
                    -0.00821638759225607,
                    -0.034837353974580765,
                    -0.01387531217187643,
                    -0.05249302461743355,
                    0.03845440596342087,
                    0.02509870007634163,
                    0.029178589582443237,
                    0.011971781961619854,
                    -0.03789563849568367,
                    0.026479071006178856,
                    0.06491255015134811,
                    0.040216732770204544,
                    -0.0353550910949707,
                    0.025817126035690308,
                    -0.004114311188459396,
                    -0.03240427002310753,
                    -0.006790540646761656,
                    0.04433877393603325,
                    0.020285526290535927,
                    -0.020711319521069527,
                    0.020258890464901924,
                    0.052556224167346954,
                    0.0014457299839705229,
                    0.006306963041424751,
                    -0.06213885545730591,
                    -0.008394364267587662,
                    0.004087771289050579,
                    -0.003671417012810707,
                    0.024892522022128105,
                    0.04638664796948433,
                    -0.05392354726791382,
                    -0.022606467828154564,
                    -0.0664912611246109,
                    -0.08308348059654236,
                    -0.04152175039052963,
                    -0.04433559626340866,
                    -0.024647630751132965,
                    -0.025900714099407196,
                    -0.029278796166181564,
                    -0.008689649403095245,
                    -0.05049287527799606,
                    -0.08586619794368744,
                    -0.09089326858520508,
                    -0.07656922191381454,
                    -0.05972220003604889,
                    -0.02953498251736164,
                    -0.010211797431111336,
                    0.023627692833542824,
                    0.05072980746626854,
                    -0.005214930512011051,
                    0.01858368329703808,
                    0.005134897772222757,
                    -0.012145011685788631,
                    0.024007195606827736,
                    -0.02758771739900112,
                    -0.04110652208328247,
                    -0.05137154832482338,
                    -0.026288213208317757,
                    -0.0204275231808424,
                    0.016730932518839836,
                    -0.05094820633530617,
                    -0.05188246816396713,
                    0.02296440489590168,
                    -0.0051486738957464695,
                    0.007066494319587946,
                    -0.03488216921687126,
                    -0.03536795452237129,
                    -0.04714888334274292,
                    -0.061110176146030426,
                    -0.04631025344133377,
                    -0.03801329806447029,
                    -0.01037594024091959,
                    -0.0496772825717926,
                    0.0018728006398305297,
                    -0.03289496898651123,
                    -0.06597697734832764,
                    -0.051105789840221405,
                    -0.012017683126032352,
                    0.02707982435822487,
                    -0.017076566815376282,
                    0.022533023729920387,
                    -0.05611720308661461,
                    -0.06780467182397842,
                    -0.03489740565419197,
                    -0.05295660346746445,
                    0.002897256286814809,
                    -0.016000213101506233,
                    -0.05727133899927139,
                    0.020728860050439835,
                    -0.0030520509462803602,
                    -0.02821093425154686,
                    0.0043086460791528225,
                    0.07450279593467712,
                    -0.005290599539875984,
                    0.011251830495893955,
                    -0.03280838206410408,
                    -0.041562359780073166,
                    -0.021754121407866478,
                    -0.03247329592704773,
                    0.01889716275036335,
                    0.026263264939188957,
                    0.05611235648393631,
                    0.01774638332426548,
                    0.01569947600364685,
                    0.008871547877788544,
                    -0.010845483280718327,
                    0.00042462401324883103,
                    -0.03752754628658295,
                    -0.057458214461803436,
                    0.03801504522562027,
                    -0.12724126875400543,
                    -0.12836265563964844,
                    0.06044558808207512,
                    -0.4110914170742035,
                    0.2367258369922638,
                    0.1366574913263321,
                    0.4583636522293091,
                    0.008286078460514545,
                    -0.1772700399160385,
                    0.14880697429180145,
                    -0.21775928139686584,
                    0.5388209819793701,
                    0.09706804156303406,
                    0.11099768429994583,
                    0.16498017311096191,
                    -0.24056239426136017,
                    0.27833881974220276,
                    0.2686096727848053,
                    0.023739071562886238,
                    0.25990504026412964,
                    -0.2576051652431488,
                    0.48388364911079407,
                    -0.3587307035923004,
                    -0.13960213959217072,
                    0.40244153141975403,
                    -0.42125484347343445,
                    -0.05779871717095375,
                    -0.19235274195671082,
                    0.05721210688352585,
                    -0.17397069931030273,
                    -0.038791391998529434,
                    0.07167992740869522,
                    -0.10706135630607605,
                    0.16483892500400543,
                    0.105760358273983,
                    -0.20380225777626038,
                    -0.19470709562301636,
                    0.08808012306690216,
                    0.466556191444397,
                    0.12001632153987885,
                    -0.10802830755710602,
                    0.09503690898418427,
                    0.10361626744270325,
                    0.3938862383365631,
                    -0.4784805476665497,
                    -0.03405553475022316,
                    0.13184356689453125,
                    0.4647606909275055,
                    -0.07109550386667252,
                    0.054478712379932404,
                    0.26241037249565125,
                    0.42542898654937744,
                    0.2246529757976532,
                    -0.03681088611483574,
                    0.19980378448963165,
                    0.11694800853729248,
                    -0.34635141491889954,
                    -0.2222825139760971,
                    0.018600190058350563,
                    -0.06792976707220078,
                    0.3553832471370697,
                    0.03392200917005539,
                    0.07674387097358704,
                    -0.06322586536407471,
                    -0.047458499670028687,
                    0.053493622690439224,
                    -0.06563419848680496,
                    -0.0809057354927063,
                    0.04560866951942444,
                    -0.06512599438428879,
                    0.013083997182548046,
                    0.0007194262580014765,
                    0.004734853282570839,
                    -0.05312654748558998,
                    0.026472195982933044,
                    0.0502801276743412,
                    0.03686930611729622,
                    0.05312301963567734,
                    -0.0737101212143898,
                    0.016933271661400795,
                    -0.013873545452952385,
                    -0.05906838923692703,
                    0.017789706587791443,
                    0.04263686016201973,
                    -0.03078506514430046,
                    -0.030818572267889977,
                    -0.07675161957740784,
                    0.03601326048374176,
                    -0.03848347067832947,
                    0.008542641066014767,
                    0.02112480252981186,
                    -0.10191108286380768,
                    0.0174881424754858,
                    0.022447150200605392,
                    -0.06748128682374954,
                    -0.03587045893073082
                ],
                "rows": 16,
                "size3D": 1
            }
        },
        {
            "activation": "softMax",
            "bias": {
                "cols": 2,
                "data": [
                    -0.04597054049372673,
                    0.9649352431297302
                ],
                "rows": 1,
                "size3D": 1
            },
            "dense": 2,
            "isFirst": false,
            "type": "FClayer",
            "weight": {
                "cols": 16,
                "data": [
                    0.6367778778076172,
                    -1.9181329011917114,
                    -0.29812878370285034,
                    -0.7791402339935303,
                    -0.020044203847646713,
                    -1.155836820602417,
                    -0.24104097485542297,
                    2.4954378604888916,
                    0.6856330633163452,
                    -0.0034508230164647102,
                    0.990509033203125,
                    -0.07391156256198883,
                    -2.291778802871704,
                    -1.2912712097167969,
                    0.3735911548137665,
                    -0.6577028036117554,
                    -0.4919049143791199,
                    2.175560712814331,
                    0.10704249143600464,
                    0.9550499320030212,
                    -0.06361201405525208,
                    1.8261783123016357,
                    -0.04338022693991661,
                    -2.324589967727661,
                    -0.4221525192260742,
                    0.20106828212738037,
                    -0.06058824434876442,
                    0.018257170915603638,
                    2.7419869899749756,
                    2.289844274520874,
                    -0.024083541706204414,
                    1.3638957738876343
                ],
                "rows": 2,
                "size3D": 1
            }
        }
    ],
    "learningRate": 0.0010000000474974513
}