{
    "layers": [
        {
            "activation": "ReLU",
            "bias": null,
            "dense": 768,
            "isFirst": true,
            "type": "FClayer",
            "weight": null
        },
        {
            "activation": "ReLU",
            "bias": {
                "cols": 16,
                "data": [
                    0.3099365830421448,
                    0.355542927980423,
                    -0.4216177761554718,
                    3.421473229536787e-05,
                    -0.028490716591477394,
                    1.081207513809204,
                    -0.33767616748809814,
                    0.378816694021225,
                    0.30517977476119995,
                    0.010040124878287315,
                    1.4311927556991577,
                    -0.10473474860191345,
                    -0.034892454743385315,
                    0.7810767292976379,
                    0.5421830415725708,
                    0.8208433389663696
                ],
                "rows": 1,
                "size3D": 1
            },
            "dense": 16,
            "isFirst": false,
            "type": "FClayer",
            "weight": {
                "cols": 768,
                "data": [
                    0.06555977463722229,
                    0.0603976845741272,
                    0.06823773682117462,
                    0.10563615709543228,
                    0.1654975414276123,
                    0.15234249830245972,
                    0.14122621715068817,
                    0.13662973046302795,
                    0.11423474550247192,
                    0.10857123136520386,
                    0.15139149129390717,
                    0.09135852009057999,
                    0.07399642467498779,
                    0.08446066826581955,
                    0.08530962467193604,
                    0.10219945013523102,
                    0.015053512528538704,
                    0.03502994030714035,
                    0.07343146204948425,
                    0.08886723965406418,
                    0.11814390122890472,
                    0.1630338430404663,
                    0.11129310727119446,
                    0.08053101599216461,
                    0.08672800660133362,
                    0.09600499272346497,
                    0.08109156042337418,
                    0.07273638993501663,
                    0.08668235689401627,
                    0.08121654391288757,
                    0.04621722549200058,
                    0.09194778650999069,
                    0.021569645032286644,
                    0.024733135476708412,
                    0.07121722400188446,
                    0.07987218350172043,
                    0.058702051639556885,
                    0.09213908761739731,
                    0.03465542942285538,
                    0.05070556700229645,
                    0.004510132130235434,
                    0.0007234327495098114,
                    0.00029710965463891625,
                    0.0562715046107769,
                    0.0840475857257843,
                    0.04808727651834488,
                    0.035469185560941696,
                    0.05521375685930252,
                    0.03655656427145004,
                    0.009442996233701706,
                    0.055422596633434296,
                    0.08485536277294159,
                    0.08104661852121353,
                    0.015798257663846016,
                    -0.022064154967665672,
                    -0.0015625529922544956,
                    -0.006493719760328531,
                    0.007861320860683918,
                    0.04662618413567543,
                    0.03715072199702263,
                    0.08027684688568115,
                    0.05146832764148712,
                    0.005462117027491331,
                    0.040424540638923645,
                    0.007348351646214724,
                    0.0018926890334114432,
                    0.014400484971702099,
                    0.0008900230750441551,
                    0.009388642385601997,
                    -0.043940287083387375,
                    -0.07647924870252609,
                    -0.03594714030623436,
                    0.04329332709312439,
                    0.049981724470853806,
                    0.04699080064892769,
                    0.01918979547917843,
                    0.06881976872682571,
                    0.05868235602974892,
                    0.0062568006105721,
                    0.005182512104511261,
                    -0.02514001727104187,
                    0.008832549676299095,
                    -0.004231396596878767,
                    0.0034018198493868113,
                    -0.01076920423656702,
                    -0.07062902301549911,
                    -0.08356668055057526,
                    -0.11208479851484299,
                    -0.050331827253103256,
                    0.02426060102880001,
                    0.05142047628760338,
                    0.03035460039973259,
                    0.04805588722229004,
                    0.017908891662955284,
                    -0.028921470046043396,
                    -0.009532484225928783,
                    -0.0603664331138134,
                    -0.0308005902916193,
                    -0.007194026838988066,
                    -0.024885565042495728,
                    -0.03779509291052818,
                    -0.09098190069198608,
                    -0.007212304510176182,
                    -0.06602900475263596,
                    -0.08696743100881577,
                    0.010360418818891048,
                    0.05145399644970894,
                    0.025631731376051903,
                    -0.031009064987301826,
                    0.012609463185071945,
                    0.0016780545702204108,
                    -0.021012037992477417,
                    -0.05144372209906578,
                    -0.03713524714112282,
                    -0.0006130552501417696,
                    -0.026265591382980347,
                    -0.08886633068323135,
                    -0.08744122087955475,
                    -0.029508430510759354,
                    0.0071885050274431705,
                    -0.018639832735061646,
                    -0.023382922634482384,
                    0.015228459611535072,
                    -0.025587761774659157,
                    -0.08869151771068573,
                    -0.039500828832387924,
                    0.01128010731190443,
                    0.02812160737812519,
                    -0.08175753802061081,
                    -0.07577715069055557,
                    -0.02438492886722088,
                    -0.013636093586683273,
                    -0.10726834088563919,
                    -0.07708477973937988,
                    -0.05326129496097565,
                    -0.02108234539628029,
                    -0.033127788454294205,
                    -0.02336220256984234,
                    -0.0013791857054457068,
                    -0.03360491245985031,
                    -0.06358093023300171,
                    -0.06783799827098846,
                    -0.06255968660116196,
                    -0.0048979357816278934,
                    -0.0774935930967331,
                    -0.05997856333851814,
                    -0.034085579216480255,
                    -0.06385400146245956,
                    -0.13010011613368988,
                    -0.08535978198051453,
                    -0.08105578273534775,
                    -0.0094188516959548,
                    -0.042308684438467026,
                    0.02837984822690487,
                    -0.008870863355696201,
                    -0.024068672209978104,
                    -0.053513213992118835,
                    -0.03599061816930771,
                    -0.06615367531776428,
                    -0.03498284891247749,
                    -0.04181412234902382,
                    -0.04902198910713196,
                    -0.04188909754157066,
                    -0.0581246092915535,
                    -0.0882268100976944,
                    -0.06437313556671143,
                    -0.043164175003767014,
                    0.013317575678229332,
                    0.013019276782870293,
                    0.06052590534090996,
                    0.0024757746141403913,
                    0.0011275234865024686,
                    -0.036753468215465546,
                    -0.036293789744377136,
                    -0.026898177340626717,
                    -0.0019631790928542614,
                    -0.01304844580590725,
                    -0.03650866448879242,
                    -0.056955792009830475,
                    -0.02159997634589672,
                    -0.09131413698196411,
                    -0.03950873762369156,
                    -0.015157967805862427,
                    -0.007593522779643536,
                    -0.0034343015868216753,
                    0.0028975356835871935,
                    0.0038526803255081177,
                    0.00486751226708293,
                    -0.011619146913290024,
                    -0.008408199064433575,
                    -0.00830409862101078,
                    0.019065624102950096,
                    -0.07081182301044464,
                    -0.015016741119325161,
                    -0.003527045249938965,
                    0.02285069227218628,
                    0.0020549995824694633,
                    -0.0008866076241247356,
                    0.00035197287797927856,
                    0.020075621083378792,
                    0.008963373489677906,
                    0.031597115099430084,
                    0.030308274552226067,
                    0.013439198955893517,
                    -0.011488255113363266,
                    -0.01694032922387123,
                    -0.028226958587765694,
                    0.00424187071621418,
                    -0.06248268857598305,
                    -0.028056854382157326,
                    -0.0002918272512033582,
                    0.03482840210199356,
                    0.009515931829810143,
                    0.03680907189846039,
                    -0.002698053838685155,
                    0.02668425627052784,
                    0.010114002041518688,
                    0.022244594991207123,
                    0.020088907331228256,
                    0.05520289018750191,
                    0.016099929809570313,
                    -0.013675057329237461,
                    -0.04973354935646057,
                    -0.010846308432519436,
                    -0.03479919210076332,
                    -0.04128630459308624,
                    -0.02090984582901001,
                    -0.00624050572514534,
                    0.026776151731610298,
                    0.06679782271385193,
                    -0.012676230631768703,
                    0.007261297199875116,
                    0.013735475949943066,
                    0.05174281820654869,
                    0.029325565323233604,
                    -0.001844271901063621,
                    -0.040621016174554825,
                    -0.0322461761534214,
                    -0.0396985188126564,
                    -0.022780023515224457,
                    -0.025049636140465736,
                    0.0006273040780797601,
                    0.007697068154811859,
                    0.027255799621343613,
                    -0.001552244066260755,
                    0.012123324908316135,
                    0.03057309053838253,
                    0.014114843681454659,
                    0.015953823924064636,
                    0.027779432013630867,
                    -0.02201857790350914,
                    0.0017904768465086818,
                    -0.0265196580439806,
                    0.029072828590869904,
                    -0.003430271754041314,
                    -0.010860644280910492,
                    0.04226275905966759,
                    0.019732967019081116,
                    0.033950116485357285,
                    0.07036811113357544,
                    0.12217535823583603,
                    0.1266322284936905,
                    0.12465775012969971,
                    0.07627660781145096,
                    0.07985050231218338,
                    0.10781729221343994,
                    0.12031209468841553,
                    0.10482847690582275,
                    0.09621629863977432,
                    0.03997133672237396,
                    0.04791778698563576,
                    0.07787838578224182,
                    0.004446376580744982,
                    0.003194571705535054,
                    0.04633793979883194,
                    0.04014800861477852,
                    0.08553127199411392,
                    0.09912680089473724,
                    0.08628450334072113,
                    0.05883032828569412,
                    0.08587867021560669,
                    0.105466827750206,
                    0.09660697728395462,
                    0.08152837306261063,
                    0.096452496945858,
                    0.031592756509780884,
                    0.02818644978106022,
                    0.0700492262840271,
                    -0.019354242831468582,
                    0.01607634499669075,
                    0.02771642617881298,
                    0.07670345902442932,
                    0.05299689620733261,
                    0.0832711011171341,
                    0.03553016483783722,
                    0.023875536397099495,
                    0.01620766893029213,
                    0.030480092391371727,
                    0.04048385098576546,
                    0.04991522431373596,
                    0.12042254954576492,
                    0.0593077577650547,
                    0.04523839056491852,
                    0.011546540074050426,
                    0.00080239272210747,
                    -0.01036673504859209,
                    0.035698965191841125,
                    0.07758376747369766,
                    0.031446803361177444,
                    0.029759658500552177,
                    0.0009217551560141146,
                    0.006314069032669067,
                    0.029072169214487076,
                    0.04174504056572914,
                    0.07464098185300827,
                    0.07602264732122421,
                    0.10220064967870712,
                    0.035104673355817795,
                    -0.0004885060479864478,
                    0.029750844463706017,
                    0.000374877592548728,
                    -0.03985586389899254,
                    0.00600431626662612,
                    0.014926775358617306,
                    -0.011956128291785717,
                    -0.08812351524829865,
                    -0.08983399718999863,
                    -0.020582711324095726,
                    0.043436646461486816,
                    0.07633604109287262,
                    0.09391174465417862,
                    0.026089657098054886,
                    0.05589267611503601,
                    0.08220277726650238,
                    0.0064290487207472324,
                    0.008305941708385944,
                    -0.054844193160533905,
                    -0.020361285656690598,
                    -0.03171119466423988,
                    -0.006390356924384832,
                    -0.026434235274791718,
                    -0.05341195687651634,
                    -0.09566189348697662,
                    -0.06853581219911575,
                    -0.008986764587461948,
                    0.06858117878437042,
                    0.09082060307264328,
                    0.024226021021604538,
                    0.05492517352104187,
                    0.03197300806641579,
                    0.024740738794207573,
                    -0.0029211046639829874,
                    -0.0809943899512291,
                    -0.05810227990150452,
                    -0.034235503524541855,
                    -0.04637095332145691,
                    -0.04181549325585365,
                    -0.07420084625482559,
                    0.01545577310025692,
                    -0.06725618988275528,
                    -0.05515307933092117,
                    0.04222093150019646,
                    0.05747947096824646,
                    0.05559943616390228,
                    -0.00436061667278409,
                    0.013613346964120865,
                    0.00930223148316145,
                    0.023297922685742378,
                    -0.06342591345310211,
                    -0.08581732958555222,
                    -0.04234378784894943,
                    -0.037759698927402496,
                    -0.1405758410692215,
                    -0.08606849610805511,
                    -0.012907843105494976,
                    0.016747573390603065,
                    -0.01679518073797226,
                    -0.004308107774704695,
                    0.02133721485733986,
                    0.005948178935796022,
                    -0.0353221595287323,
                    -0.013079208321869373,
                    0.025787992402911186,
                    0.03053838387131691,
                    -0.11117510497570038,
                    -0.04734477028250694,
                    -0.005790975876152515,
                    0.010908897034823895,
                    -0.12024971842765808,
                    -0.06125519424676895,
                    -0.047195594757795334,
                    -0.018529096618294716,
                    -0.006424459163099527,
                    -0.06176336109638214,
                    -0.027570677921175957,
                    -0.052070338279008865,
                    -0.041289426386356354,
                    -0.06377947330474854,
                    -0.03250209242105484,
                    0.004196413792669773,
                    -0.06103618070483208,
                    -0.07811811566352844,
                    -0.04245829954743385,
                    -0.057048264890909195,
                    -0.10875289887189865,
                    -0.0904187336564064,
                    -0.08348503708839417,
                    -0.040601976215839386,
                    -0.010088557377457619,
                    0.022309791296720505,
                    -0.01873728819191456,
                    -0.020389938727021217,
                    -0.03572188317775726,
                    -0.07933329045772552,
                    -0.08913099765777588,
                    -0.0486936941742897,
                    -0.05514293909072876,
                    -0.023990871384739876,
                    -0.08000015467405319,
                    -0.04163418337702751,
                    -0.12663990259170532,
                    -0.09544837474822998,
                    -0.04453011602163315,
                    -0.0010318536078557372,
                    0.01384011097252369,
                    0.04618494212627411,
                    -0.012894726358354092,
                    -0.009252904914319515,
                    -0.04315081983804703,
                    -0.06999644637107849,
                    -0.004417065996676683,
                    -0.034196339547634125,
                    -0.044015299528837204,
                    -0.04314562305808067,
                    -0.04599723964929581,
                    -0.06328968703746796,
                    -0.06471159309148788,
                    -0.05354022979736328,
                    -0.05510645732283592,
                    -0.01610950194299221,
                    -0.016480792313814163,
                    -0.03853257745504379,
                    -0.010153671726584435,
                    -0.019372515380382538,
                    -0.04862251505255699,
                    -0.06003502383828163,
                    -0.03964971750974655,
                    -0.0017978489631786942,
                    -0.07619170099496841,
                    0.0030970145016908646,
                    -0.018804451450705528,
                    0.018169613555073738,
                    -0.027843311429023743,
                    -0.02564835175871849,
                    -0.004433125723153353,
                    0.006413372699171305,
                    0.019965123385190964,
                    0.002282945904880762,
                    0.028086546808481216,
                    -0.02017190307378769,
                    -0.00884057953953743,
                    -0.02208692394196987,
                    -0.027860723435878754,
                    -0.007286292966455221,
                    -0.04256852716207504,
                    -0.022671816870570183,
                    -0.033233705908060074,
                    0.03425092250108719,
                    0.01859235018491745,
                    0.03567732125520706,
                    0.03810190036892891,
                    0.05914315953850746,
                    0.028273986652493477,
                    0.004573587328195572,
                    0.0437733493745327,
                    0.038870807737112045,
                    0.008732011541724205,
                    -0.026514455676078796,
                    -0.02837252989411354,
                    -0.0012929209042340517,
                    -0.07282648980617523,
                    -0.049643196165561676,
                    -0.017970383167266846,
                    -0.018272776156663895,
                    0.01595211587846279,
                    0.05173628404736519,
                    -0.01488255150616169,
                    -0.0139353321865201,
                    0.005818541161715984,
                    0.0537617951631546,
                    -0.002139319898560643,
                    -0.04257373884320259,
                    -0.047538045793771744,
                    -0.04501695930957794,
                    -0.0449674017727375,
                    -0.030346091836690903,
                    -0.04132657125592232,
                    -0.011665510013699532,
                    -0.025034312158823013,
                    0.010699635371565819,
                    0.013275358825922012,
                    0.007676060311496258,
                    -0.0005763698718510568,
                    -0.004240491893142462,
                    0.01029061246663332,
                    -0.014208994805812836,
                    -0.02728191763162613,
                    -0.028549302369356155,
                    -0.029088106006383896,
                    -0.022010769695043564,
                    -0.01880195364356041,
                    -0.028068749234080315,
                    0.026770787313580513,
                    0.03429920971393585,
                    0.02734537236392498,
                    0.01963057927787304,
                    0.08514222502708435,
                    0.06874160468578339,
                    0.11302497237920761,
                    0.06753294914960861,
                    0.055290188640356064,
                    0.11264335364103317,
                    0.10437510162591934,
                    0.11888813227415085,
                    0.08457913249731064,
                    0.06717975437641144,
                    0.04093460366129875,
                    0.03895602747797966,
                    -0.01285256166011095,
                    -0.015554285608232021,
                    0.01818852126598358,
                    0.010165117681026459,
                    0.035047389566898346,
                    0.058823633939027786,
                    0.06648501753807068,
                    0.024779124185442924,
                    0.05702965706586838,
                    0.0619688481092453,
                    0.09959765523672104,
                    0.07862313091754913,
                    0.061390213668346405,
                    0.029211800545454025,
                    0.03059440478682518,
                    0.027803337201476097,
                    -0.018347937613725662,
                    0.004346679896116257,
                    0.0064383940771222115,
                    0.038682449609041214,
                    0.025010311976075172,
                    0.05008772760629654,
                    0.0014782745856791735,
                    -0.006641888990998268,
                    -0.0031268037855625153,
                    0.04094588756561279,
                    0.02978668361902237,
                    0.04594844579696655,
                    0.08893048018217087,
                    0.023199476301670074,
                    0.03655780106782913,
                    0.020133741199970245,
                    -0.002558020642027259,
                    -0.004524923395365477,
                    0.050321705639362335,
                    0.0662698745727539,
                    0.08054593950510025,
                    0.017020422965288162,
                    -0.03260774910449982,
                    -0.03934179246425629,
                    -0.009111509658396244,
                    0.039024803787469864,
                    0.07287036627531052,
                    0.04836572706699371,
                    0.08584116399288177,
                    -0.0033104419708251953,
                    0.03035777062177658,
                    0.004704284016042948,
                    -0.005598783493041992,
                    -0.010736226104199886,
                    -0.002348929876461625,
                    0.009612107649445534,
                    -0.0011389112332835793,
                    -0.08574798703193665,
                    -0.09376496076583862,
                    -0.03713957592844963,
                    0.055453378707170486,
                    0.07168193906545639,
                    0.12840285897254944,
                    -0.0013121792580932379,
                    0.023854626342654228,
                    0.04960332438349724,
                    0.025021148845553398,
                    -0.01592521369457245,
                    -0.033789779990911484,
                    -0.020158717408776283,
                    -0.002921602688729763,
                    -0.012794720008969307,
                    -0.059196844696998596,
                    -0.06325788795948029,
                    -0.06478715687990189,
                    -0.0887901782989502,
                    0.0234946571290493,
                    0.07643851637840271,
                    0.09642350673675537,
                    0.03160548582673073,
                    0.05038982257246971,
                    -0.01477114949375391,
                    0.022469842806458473,
                    -0.03422238677740097,
                    -0.08152667433023453,
                    -0.05664872005581856,
                    -0.04544804245233536,
                    -0.03111044503748417,
                    -0.0452539324760437,
                    -0.09182830154895782,
                    -0.009624356403946877,
                    -0.06597944349050522,
                    -0.04026813060045242,
                    0.026328671723604202,
                    0.028848309069871902,
                    0.02558942511677742,
                    0.0019263402791693807,
                    -0.019500402733683586,
                    0.019213536754250526,
                    0.025144152343273163,
                    -0.0764775425195694,
                    -0.076564721763134,
                    -0.06789402663707733,
                    -0.03355184942483902,
                    -0.11773873120546341,
                    -0.06346932053565979,
                    -0.019526932388544083,
                    -0.011850819922983646,
                    -0.04662718251347542,
                    -0.02506367675960064,
                    -0.00829395093023777,
                    -0.009679319337010384,
                    -0.052370332181453705,
                    -0.038494519889354706,
                    0.0062890066765248775,
                    0.031226951628923416,
                    -0.07629583030939102,
                    -0.06207308918237686,
                    -0.0397602841258049,
                    -0.03900761157274246,
                    -0.1156805083155632,
                    -0.043313633650541306,
                    -0.051801614463329315,
                    -0.03179371729493141,
                    -0.059329841285943985,
                    -0.06715170294046402,
                    -0.049465566873550415,
                    -0.04194207862019539,
                    -0.045416511595249176,
                    -0.05890900641679764,
                    -0.05577138811349869,
                    -0.009965280070900917,
                    -0.05249415338039398,
                    -0.0725882276892662,
                    -0.024097030982375145,
                    -0.06978622078895569,
                    -0.10914971679449081,
                    -0.08276435732841492,
                    -0.10172862559556961,
                    -0.05511871725320816,
                    -0.03873620182275772,
                    0.0035485851112753153,
                    -0.03194103762507439,
                    -0.042895637452602386,
                    -0.021781686693429947,
                    -0.06652737408876419,
                    -0.10227879136800766,
                    -0.04127427935600281,
                    -0.03468828648328781,
                    -0.0165695957839489,
                    -0.03736376762390137,
                    -0.06910862028598785,
                    -0.06829246133565903,
                    -0.06369952112436295,
                    -0.059023864567279816,
                    -0.024106083437800407,
                    -0.03089264966547489,
                    0.027085531502962112,
                    -0.010667502880096436,
                    -0.03487398475408554,
                    -0.04796707257628441,
                    -0.0665864646434784,
                    -0.035934723913669586,
                    -0.056856341660022736,
                    -0.038837186992168427,
                    -0.038240786641836166,
                    -0.03961721435189247,
                    -0.0555904246866703,
                    -0.08169379830360413,
                    -0.04688624292612076,
                    -0.05456620827317238,
                    -0.052117787301540375,
                    -0.024577466771006584,
                    -0.02907174825668335,
                    -0.010652647353708744,
                    -0.029617367312312126,
                    -0.053357236087322235,
                    -0.028755098581314087,
                    -0.07366592437028885,
                    -0.02808764949440956,
                    -0.04709519073367119,
                    0.035289593040943146,
                    -0.019079705700278282,
                    -0.005707086995244026,
                    -0.051827508956193924,
                    -0.008712719194591045,
                    -0.01685635931789875,
                    0.007567493245005608,
                    -0.025747884064912796,
                    -0.031297240406274796,
                    -0.009613974019885063,
                    0.002901411848142743,
                    0.007761197164654732,
                    -0.018533628433942795,
                    -0.04532608389854431,
                    -0.00856250524520874,
                    -0.06202176585793495,
                    -0.014029087498784065,
                    -0.020338160917162895,
                    -0.0032706307247281075,
                    -0.016707492992281914,
                    0.021568171679973602,
                    0.011627315543591976,
                    0.02029970847070217,
                    0.011779923923313618,
                    0.010605106130242348,
                    0.017956098541617393,
                    0.03233535960316658,
                    -0.005947032943367958,
                    -0.039355114102363586,
                    -0.020755762234330177,
                    0.005984161049127579,
                    -0.059727150946855545,
                    -0.0455624982714653,
                    -0.027772510424256325,
                    -0.014532966539263725,
                    0.0019441400654613972,
                    0.03239205479621887,
                    0.002001510700210929,
                    -0.013389076106250286,
                    -0.017542267218232155,
                    0.02981809340417385,
                    0.01284822914749384,
                    0.0032949955202639103,
                    -0.05820726975798607,
                    -0.023616885766386986,
                    -0.04264454171061516,
                    -0.021047405898571014,
                    -0.019036507233977318,
                    -0.01841391623020172,
                    -0.015085827559232712,
                    0.010478395968675613,
                    0.012218431569635868,
                    0.031452033668756485,
                    0.014456858858466148,
                    0.013854555785655975,
                    0.00483649643138051,
                    -0.008284294977784157,
                    -0.02520659938454628,
                    -0.046935923397541046,
                    -0.03426044061779976,
                    -0.030139293521642685,
                    -0.027936432510614395,
                    -0.03549472242593765,
                    -0.007094514090567827,
                    -0.06945949792861938,
                    -0.06857562810182571,
                    -0.05964914709329605,
                    -0.0313384011387825,
                    -0.023388566449284554,
                    -0.0209957305341959,
                    -0.0390348955988884,
                    -0.1389138102531433,
                    -0.07119900733232498,
                    -0.08822215348482132,
                    -0.08281323313713074,
                    -0.0533391498029232,
                    -0.07168389111757278,
                    -0.0690859705209732,
                    -0.09821586310863495,
                    0.047648973762989044,
                    0.050208959728479385,
                    0.004838014952838421,
                    -0.025780241936445236,
                    0.005157841835170984,
                    -0.028039323166012764,
                    -0.010986149311065674,
                    -0.03491462767124176,
                    -0.03822620213031769,
                    -0.014117460697889328,
                    -0.047876790165901184,
                    -0.10004127770662308,
                    -0.07023243606090546,
                    -0.1413896381855011,
                    -0.07752633094787598,
                    -0.07179159671068192,
                    0.04580244794487953,
                    0.08995155245065689,
                    -0.02188766747713089,
                    -0.031225619837641716,
                    -0.03860948234796524,
                    -0.03147932514548302,
                    0.00803857110440731,
                    -0.01412260439246893,
                    0.022797664627432823,
                    0.034393247216939926,
                    -0.006664466578513384,
                    -0.11332804709672928,
                    -0.13056012988090515,
                    -0.10833831131458282,
                    -0.10646338760852814,
                    -0.13723577558994293,
                    0.004796516615897417,
                    0.12636247277259827,
                    0.05647895485162735,
                    -0.012973367236554623,
                    -0.01830041967332363,
                    0.02071342058479786,
                    0.079803965985775,
                    -0.02590651996433735,
                    -0.043879956007003784,
                    -0.004949144087731838,
                    0.004216320812702179,
                    -0.054071228951215744,
                    -0.03397407755255699,
                    -0.04183198884129524,
                    0.014892193488776684,
                    -0.07587499916553497,
                    -0.009842412546277046,
                    0.046584006398916245,
                    -0.02435125783085823,
                    -0.1214541345834732,
                    -0.06880046427249908,
                    0.00017310665862169117,
                    0.07823161780834198,
                    -0.004291071556508541,
                    0.007204232271760702,
                    0.11431804299354553,
                    0.13016203045845032,
                    0.06528065353631973,
                    0.04868254438042641,
                    0.07048152387142181,
                    0.04186512902379036,
                    -0.06400999426841736,
                    -0.012150377035140991,
                    0.00036413726047612727,
                    0.007370290346443653,
                    -0.12856127321720123,
                    -0.11167158931493759,
                    -0.06331273168325424,
                    -0.016515960916876793,
                    -0.02620661072432995,
                    0.07316424697637558,
                    0.07370709627866745,
                    0.10287399590015411,
                    0.07210773974657059,
                    0.133772611618042,
                    0.08271972090005875,
                    0.027090176939964294,
                    -0.029582325369119644,
                    0.05770370364189148,
                    0.01573742926120758,
                    -0.08703792840242386,
                    -0.12653712928295135,
                    -0.07850661873817444,
                    -0.06432715058326721,
                    -0.059938207268714905,
                    0.000622923078481108,
                    0.09401755034923553,
                    -0.024450847879052162,
                    0.05932522937655449,
                    0.009190274402499199,
                    0.08339067548513412,
                    0.08468198776245117,
                    0.011875628493726254,
                    -0.0899343341588974,
                    -0.053559381514787674,
                    0.02114652283489704,
                    -0.09993401914834976,
                    -0.12570291757583618,
                    0.0017593583324924111,
                    -0.039020244032144547,
                    -0.02179240621626377,
                    -0.0011422461830079556,
                    -0.06529500335454941,
                    -0.029787462204694748,
                    0.05086453631520271,
                    0.006090898532420397,
                    0.06351938843727112,
                    0.07253699004650116,
                    0.03745618462562561,
                    0.00635775551199913,
                    0.06488064676523209,
                    0.10741561651229858,
                    0.04146045073866844,
                    -0.033440135419368744,
                    0.035939641296863556,
                    0.04521362856030464,
                    0.0017939168028533459,
                    0.02015426941215992,
                    -0.027099566534161568,
                    0.09358599036931992,
                    0.09514876455068588,
                    -0.02927200309932232,
                    0.0752282664179802,
                    0.13018777966499329,
                    0.06895814090967178,
                    -0.0389825664460659,
                    0.047485847026109695,
                    0.06429894268512726,
                    0.02444947138428688,
                    0.05976228788495064,
                    0.12056775391101837,
                    0.09578194469213486,
                    -0.01270985510200262,
                    0.0935106948018074,
                    0.0760028064250946,
                    0.11239548027515411,
                    -0.0011679051676765084,
                    0.02321149967610836,
                    -0.00524969631806016,
                    0.02577633038163185,
                    -0.02391587197780609,
                    -0.04691404104232788,
                    0.026217734441161156,
                    0.04638608172535896,
                    0.030027756467461586,
                    -0.000760562892537564,
                    -0.018127109855413437,
                    -0.04090198501944542,
                    -0.00022970240388531238,
                    0.06148170679807663,
                    0.07277920097112656,
                    0.007013562601059675,
                    -0.0044707320630550385,
                    0.028668010607361794,
                    -0.07987412810325623,
                    -0.05042199045419693,
                    -0.04014097899198532,
                    -0.015091883018612862,
                    -0.01852243021130562,
                    -0.020543424412608147,
                    -0.023826254531741142,
                    -0.02990962378680706,
                    -0.049723174422979355,
                    -0.07636868953704834,
                    -0.03536340221762657,
                    -0.055238548666238785,
                    0.032927148044109344,
                    -0.05981884524226189,
                    -0.06353455781936646,
                    -0.028231577947735786,
                    -0.06773802638053894,
                    -0.08810623735189438,
                    -0.06099863350391388,
                    -0.10829312354326248,
                    0.012764804065227509,
                    0.01814335398375988,
                    0.010878120549023151,
                    0.03463142365217209,
                    0.08627614378929138,
                    0.09588560461997986,
                    -0.00766357546672225,
                    0.03200763836503029,
                    0.021710209548473358,
                    -0.038108281791210175,
                    0.003803901607170701,
                    -0.0031570724677294493,
                    -0.07706943899393082,
                    -0.01646418124437332,
                    -0.09283199906349182,
                    -0.13501594960689545,
                    -0.07436109334230423,
                    -0.024940477684140205,
                    -0.0032156608067452908,
                    0.06372373551130295,
                    0.03340589627623558,
                    0.02889290079474449,
                    0.0016735170502215624,
                    0.016649693250656128,
                    -0.012271768413484097,
                    -0.0293003860861063,
                    0.014199739322066307,
                    -0.021788276731967926,
                    0.00834727380424738,
                    -0.023476138710975647,
                    -0.059057120233774185,
                    -0.059908777475357056,
                    -0.06780524551868439,
                    -0.007931004278361797,
                    -0.000779584632255137,
                    0.04457661882042885,
                    0.1146797314286232,
                    0.022951839491724968,
                    0.085365891456604,
                    -0.00803156103938818,
                    -0.06720363348722458,
                    0.04417512193322182,
                    -0.017955705523490906,
                    -0.053344253450632095,
                    -0.05469679459929466,
                    -0.030141958966851234,
                    -0.06214023754000664,
                    -0.0660608783364296,
                    -0.08361873775720596,
                    -0.047182682901620865,
                    0.04200013726949692,
                    -0.013727129437029362,
                    -0.03296615928411484,
                    -0.028670690953731537,
                    -0.022282730787992477,
                    -0.006339411251246929,
                    -0.07922247052192688,
                    -0.10343900322914124,
                    -0.029449841007590294,
                    -0.07448612153530121,
                    -0.055166903883218765,
                    -0.10088135302066803,
                    -0.08885478228330612,
                    -0.09263353049755096,
                    0.02238154225051403,
                    0.005893579684197903,
                    0.013614869676530361,
                    0.013560046441853046,
                    0.055455803871154785,
                    0.04612736031413078,
                    0.06540030241012573,
                    0.03751801699399948,
                    -0.04497743025422096,
                    -0.0069181546568870544,
                    0.007542719133198261,
                    -0.003580287331715226,
                    0.014693191275000572,
                    0.0031164062675088644,
                    0.01573961228132248,
                    -0.01830088347196579,
                    0.09511112421751022,
                    0.11368128657341003,
                    0.06616154313087463,
                    0.018802927806973457,
                    0.03049004077911377,
                    0.058689266443252563,
                    0.047302089631557465,
                    0.05719120055437088,
                    0.018033772706985474,
                    0.03168892860412598,
                    -3.016773916897364e-05,
                    -0.05512557923793793,
                    -0.012622619047760963,
                    -0.050128284841775894,
                    -0.03948676586151123,
                    -0.0056937807239592075,
                    0.06414306908845901,
                    0.10026051104068756,
                    0.022160543128848076,
                    0.002579329302534461,
                    0.042439043521881104,
                    0.05124836042523384,
                    0.10305596143007278,
                    0.05040494352579117,
                    0.08154519647359848,
                    0.12610946595668793,
                    0.05843992531299591,
                    -0.02241920307278633,
                    -0.01737884059548378,
                    0.018922023475170135,
                    0.015119346790015697,
                    -0.06806135177612305,
                    0.0696689635515213,
                    0.1590849608182907,
                    0.08232396095991135,
                    0.04391501471400261,
                    0.05545482411980629,
                    0.09628334641456604,
                    0.12747859954833984,
                    -0.011531952768564224,
                    0.008595187216997147,
                    0.051705338060855865,
                    0.057893406599760056,
                    0.01553907711058855,
                    0.03251967579126358,
                    0.015469443053007126,
                    0.05057806149125099,
                    -0.001820154138840735,
                    0.06626380980014801,
                    0.08834390342235565,
                    0.02229180745780468,
                    -0.07116673141717911,
                    0.019531909376382828,
                    0.0472194142639637,
                    0.09296553581953049,
                    0.007412467151880264,
                    0.06393345445394516,
                    0.1315978318452835,
                    0.12408788502216339,
                    0.10052882879972458,
                    0.12791673839092255,
                    0.08503682166337967,
                    0.10828987509012222,
                    0.04011163488030434,
                    0.050461295992136,
                    0.03510396182537079,
                    0.03518388792872429,
                    -0.1374964565038681,
                    -0.08723147213459015,
                    -0.05171045660972595,
                    -0.012766572646796703,
                    -0.02483745850622654,
                    0.04301289841532707,
                    0.06663081794977188,
                    0.09119552373886108,
                    0.0763644203543663,
                    0.15772995352745056,
                    0.12989503145217896,
                    0.040446192026138306,
                    0.01658281311392784,
                    0.07465612143278122,
                    0.02765784226357937,
                    -0.05446324124932289,
                    -0.14160104095935822,
                    -0.08879207074642181,
                    -0.04867212846875191,
                    -0.10426343232393265,
                    0.029065096750855446,
                    0.05727490410208702,
                    -0.024060484021902084,
                    0.04864765703678131,
                    -0.02763054333627224,
                    0.08637697994709015,
                    0.07067997753620148,
                    0.02118886634707451,
                    -0.05122142657637596,
                    0.03204109147191048,
                    0.08257914334535599,
                    -0.07361271232366562,
                    -0.07510008662939072,
                    -0.010102204978466034,
                    -0.050064053386449814,
                    -0.045649971812963486,
                    -0.02885468862950802,
                    -0.05881289020180702,
                    -0.031476039439439774,
                    0.007969777099788189,
                    -0.004062829539179802,
                    0.09810794144868851,
                    0.04918048530817032,
                    0.020505057647824287,
                    -0.03717608004808426,
                    0.05141563341021538,
                    0.12671241164207458,
                    0.034130606800317764,
                    -0.0380949042737484,
                    0.05127721279859543,
                    0.02207913249731064,
                    -0.03444073349237442,
                    -0.028632091358304024,
                    -0.04921777918934822,
                    0.06539053469896317,
                    0.06536968797445297,
                    -0.04553662985563278,
                    0.12415951490402222,
                    0.16914544999599457,
                    0.0797189325094223,
                    0.024929644539952278,
                    0.05798640847206116,
                    0.11086172610521317,
                    0.04891688749194145,
                    0.04483136907219887,
                    0.09678094834089279,
                    0.09339126199483871,
                    -0.04889729619026184,
                    0.09619922935962677,
                    0.0798991397023201,
                    0.11233840137720108,
                    0.036500293761491776,
                    0.04793145880103111,
                    0.03825763240456581,
                    0.09257595241069794,
                    0.06297352910041809,
                    0.042570535093545914,
                    0.05522406846284866,
                    0.11439618468284607,
                    0.06005389988422394,
                    -0.049848899245262146,
                    -0.027990015223622322,
                    -0.025889411568641663,
                    -0.036653902381658554,
                    -0.011369984596967697,
                    0.04517871513962746,
                    0.03288373351097107,
                    6.369828770402819e-05,
                    0.07624240219593048,
                    -0.00619871262460947,
                    0.018222598358988762,
                    0.05346371605992317,
                    0.0436258390545845,
                    0.051827747374773026,
                    0.05676739662885666,
                    -0.00804920680820942,
                    -0.014178319834172726,
                    -0.05039039999246597,
                    -0.07096103578805923,
                    -0.00815490074455738,
                    -0.08441402018070221,
                    0.02720486931502819,
                    -0.03563033416867256,
                    -0.011501052416861057,
                    -0.007915209978818893,
                    0.009305182844400406,
                    0.0495523102581501,
                    0.024351540952920914,
                    0.01180847268551588,
                    0.024903425946831703,
                    0.018756236881017685,
                    0.06874942034482956,
                    0.05713217705488205,
                    0.11976086348295212,
                    0.09795880317687988,
                    -0.006340695079416037,
                    0.039742738008499146,
                    0.022046266123652458,
                    -0.010043692775070667,
                    -0.010171916335821152,
                    0.07402045279741287,
                    -0.03284863010048866,
                    0.06777429580688477,
                    0.024786436930298805,
                    -0.024043835699558258,
                    -0.04687829688191414,
                    0.02949453890323639,
                    0.06305277347564697,
                    0.11778849363327026,
                    0.07317790389060974,
                    0.06254641711711884,
                    0.0499088354408741,
                    0.06417704373598099,
                    0.017407460138201714,
                    -0.004592138342559338,
                    0.08936993777751923,
                    0.0255191158503294,
                    0.07948104292154312,
                    0.058934107422828674,
                    0.0556916706264019,
                    0.010774539783596992,
                    -0.07234182953834534,
                    0.0001369956007692963,
                    0.014530612155795097,
                    0.04983850568532944,
                    0.11260780692100525,
                    0.028287088498473167,
                    0.0591418594121933,
                    0.047813188284635544,
                    -0.019515961408615112,
                    0.026823004707694054,
                    0.0074926516972482204,
                    -0.03543859347701073,
                    0.06342915445566177,
                    0.0757426917552948,
                    0.043935950845479965,
                    0.012390336021780968,
                    -0.05516232177615166,
                    -0.026491215452551842,
                    0.038628678768873215,
                    -0.011946652084589005,
                    -0.03883883357048035,
                    -0.037152063101530075,
                    -0.041081175208091736,
                    -0.005586279556155205,
                    -0.056625187397003174,
                    -0.09196725487709045,
                    -0.004547593183815479,
                    -0.0274693351238966,
                    0.011423531919717789,
                    0.023133743554353714,
                    0.005438148509711027,
                    0.029053078964352608,
                    -0.008227046579122543,
                    -0.01329535897821188,
                    -0.04690297320485115,
                    -0.04309583082795143,
                    0.03593669831752777,
                    0.0003061884199269116,
                    -0.02802642248570919,
                    -0.08253823220729828,
                    -0.17264880239963531,
                    -0.10568926483392715,
                    -0.08000888675451279,
                    -0.09751530736684799,
                    -0.09297443926334381,
                    -0.04387988895177841,
                    -0.07665804773569107,
                    -0.05095890164375305,
                    0.05763470008969307,
                    0.05877567455172539,
                    0.013592958450317383,
                    -0.03510375693440437,
                    0.010173201560974121,
                    0.002035651821643114,
                    -0.0023852570448070765,
                    0.0024527693167328835,
                    -0.08131955564022064,
                    -0.07264353334903717,
                    -0.09484343230724335,
                    -0.11278711259365082,
                    -0.09720536321401596,
                    -0.098885677754879,
                    -0.1079220101237297,
                    -0.04656362161040306,
                    0.02175033837556839,
                    0.038216009736061096,
                    -0.036128442734479904,
                    -0.04487096145749092,
                    0.02778558060526848,
                    0.01093667559325695,
                    0.05790909379720688,
                    0.01906849443912506,
                    0.05334043502807617,
                    0.05077630281448364,
                    -0.014535030350089073,
                    -0.0683562159538269,
                    -0.08571755141019821,
                    -0.022792678326368332,
                    -0.09260733425617218,
                    -0.1476142853498459,
                    -0.001954825595021248,
                    0.0671645849943161,
                    -0.017413968220353127,
                    -0.04482560604810715,
                    0.011119440197944641,
                    0.045982133597135544,
                    0.12360598146915436,
                    -0.03366212174296379,
                    -0.012158595956861973,
                    -0.01558634452521801,
                    -0.013671661727130413,
                    -0.0025475616566836834,
                    -0.012011869810521603,
                    -0.027726002037525177,
                    -0.047391075640916824,
                    -0.07008449733257294,
                    -0.0416845865547657,
                    -0.02458689548075199,
                    -0.07602234929800034,
                    -0.1018819734454155,
                    -0.0006613432196900249,
                    0.02285378985106945,
                    0.10820086300373077,
                    0.014820472337305546,
                    0.018254637718200684,
                    0.08023413270711899,
                    0.09442337602376938,
                    0.0962018221616745,
                    0.05881135165691376,
                    0.014950060285627842,
                    -0.006258054170757532,
                    -0.007088399957865477,
                    -0.0029692708048969507,
                    -0.01539968978613615,
                    -0.06657887995243073,
                    -0.1743001788854599,
                    -0.09749729186296463,
                    -0.02274715155363083,
                    0.06945653259754181,
                    0.05224592611193657,
                    0.07065922021865845,
                    0.08607283234596252,
                    0.061179302632808685,
                    0.047850001603364944,
                    0.08448679745197296,
                    0.013108067214488983,
                    -0.06040410324931145,
                    -0.06380030512809753,
                    0.015798257663846016,
                    -0.03191165253520012,
                    -0.10044490545988083,
                    -0.16551487147808075,
                    -0.09392891079187393,
                    -0.05424494668841362,
                    -0.031566210091114044,
                    0.11254780739545822,
                    0.06804926693439484,
                    -0.024253858253359795,
                    0.026932107284665108,
                    -0.0024379955139011145,
                    0.05452081188559532,
                    0.026805434376001358,
                    -0.07338768243789673,
                    -0.15368035435676575,
                    -0.03253106772899628,
                    -0.030780242756009102,
                    -0.13280822336673737,
                    -0.1553320735692978,
                    -0.027960335835814476,
                    -0.07596015930175781,
                    -0.028177982196211815,
                    0.011142945848405361,
                    -0.0500418022274971,
                    0.0005177919520065188,
                    0.004796854220330715,
                    0.019667547196149826,
                    0.04863091558218002,
                    -0.005700916983187199,
                    -0.040849555283784866,
                    -0.08843100070953369,
                    -0.011801298707723618,
                    0.04481217637658119,
                    -0.01733861304819584,
                    -0.11928023397922516,
                    -0.03875218704342842,
                    -0.042659010738134384,
                    -0.0491945706307888,
                    0.021368982270359993,
                    -0.021659214049577713,
                    0.06709623336791992,
                    0.08999550342559814,
                    -0.06192893534898758,
                    0.0497591570019722,
                    0.09571434557437897,
                    0.02499230206012726,
                    -0.08027259260416031,
                    0.02910555712878704,
                    0.04063369706273079,
                    -0.005296327639371157,
                    -0.029568038880825043,
                    0.027751972898840904,
                    0.030588388442993164,
                    -0.02535475790500641,
                    0.10372795909643173,
                    0.09437020123004913,
                    0.11614247411489487,
                    0.04100320115685463,
                    0.028420336544513702,
                    0.00674491235986352,
                    0.059186775237321854,
                    -0.02065466344356537,
                    -0.024486934766173363,
                    -0.007935790345072746,
                    0.005401718430221081,
                    0.034615594893693924,
                    -0.07032696157693863,
                    -0.055951833724975586,
                    -0.08544940501451492,
                    -0.035229459404945374,
                    0.01879085972905159,
                    0.035334162414073944,
                    0.04246784746646881,
                    0.01008949987590313,
                    0.07232078164815903,
                    -0.021707942709326744,
                    0.03598354011774063,
                    -0.011098101735115051,
                    0.024815641343593597,
                    -0.03314223513007164,
                    -0.03962624818086624,
                    -0.08474723994731903,
                    -0.061609797179698944,
                    -0.11800837516784668,
                    -0.07662507891654968,
                    -0.07025787234306335,
                    -0.06398048996925354,
                    -0.012005372904241085,
                    -0.07532908767461777,
                    -0.025565389543771744,
                    0.017288943752646446,
                    0.020661570131778717,
                    0.04699777066707611,
                    0.04511120170354843,
                    -0.0065567088313400745,
                    -0.06327055394649506,
                    -0.03956776112318039,
                    -0.018364116549491882,
                    0.0026821154169738293,
                    0.035669464617967606,
                    0.09534809738397598,
                    0.004627435002475977,
                    0.04880637675523758,
                    0.006804078351706266,
                    -0.01737915351986885,
                    -0.033967986702919006,
                    0.04808975011110306,
                    -0.028576727956533432,
                    0.06690826267004013,
                    0.03733589127659798,
                    -0.06478184461593628,
                    -0.16545730829238892,
                    -0.05856296420097351,
                    -0.034304726868867874,
                    0.03199467435479164,
                    0.0018438241677358747,
                    0.003001210279762745,
                    -0.035964932292699814,
                    0.04244479164481163,
                    -0.023502839729189873,
                    -0.04578239470720291,
                    -0.017645126208662987,
                    0.0048278700560331345,
                    0.037041306495666504,
                    0.010926707647740841,
                    0.005050953943282366,
                    -0.022651370614767075,
                    -0.17137321829795837,
                    -0.05634451285004616,
                    -0.09788786619901657,
                    -0.05126393586397171,
                    0.024405090138316154,
                    -0.08061625063419342,
                    -0.01382461842149496,
                    -0.0394958034157753,
                    -0.0734425038099289,
                    -0.09776879101991653,
                    -0.04941853508353233,
                    -0.04666870832443237,
                    -0.0054108803160488605,
                    0.018932433798909187,
                    -0.0423755869269371,
                    -0.031067771837115288,
                    -0.15005075931549072,
                    -0.1430095136165619,
                    -0.049221985042095184,
                    -0.14876380562782288,
                    -0.1617756187915802,
                    -0.15021644532680511,
                    -0.14419521391391754,
                    -0.05732763186097145,
                    -0.15109868347644806,
                    -0.13996319472789764,
                    -0.06967461109161377,
                    -0.12031520903110504,
                    -0.05814338102936745,
                    -0.04168570041656494,
                    -0.07179554551839828,
                    -0.06518934667110443,
                    -0.0007390949176624417,
                    -0.0034652752801775932,
                    -0.02714703045785427,
                    0.00801458302885294,
                    -0.018056213855743408,
                    -0.01524401642382145,
                    0.0029616900719702244,
                    8.863422408467159e-05,
                    0.014930931851267815,
                    -0.0037384857423603535,
                    0.010785265825688839,
                    0.016725074499845505,
                    0.003475899575278163,
                    0.0025881219189614058,
                    -0.008639437146484852,
                    0.005666925106197596,
                    0.0030605255160480738,
                    -0.008144102990627289,
                    -0.007949892431497574,
                    -0.0003802855790127069,
                    -0.011731133796274662,
                    0.0005048250895924866,
                    0.0068877036683261395,
                    -0.01202469039708376,
                    0.026464179158210754,
                    0.010254149325191975,
                    0.003157622879371047,
                    -0.013202386908233166,
                    0.0059670875780284405,
                    -0.009397937916219234,
                    0.0032833870500326157,
                    -0.010595891624689102,
                    0.0072496142238378525,
                    -0.01213583629578352,
                    -0.007637526839971542,
                    -0.01358019094914198,
                    0.018372878432273865,
                    0.004174488130956888,
                    -0.00848388858139515,
                    0.02364456094801426,
                    -0.004600442014634609,
                    -0.005945696961134672,
                    0.020174534991383553,
                    0.01430073007941246,
                    0.01111497264355421,
                    0.02016950584948063,
                    -0.004457090515643358,
                    -0.011591654270887375,
                    -0.002187547041103244,
                    0.0008474886999465525,
                    0.009127252735197544,
                    0.018835673108696938,
                    0.014242803677916527,
                    0.013380920514464378,
                    -0.008784360252320766,
                    -0.02588210254907608,
                    -0.001160964136943221,
                    -0.0009458439308218658,
                    0.008912680670619011,
                    0.02140847221016884,
                    0.007199946790933609,
                    -0.005276132375001907,
                    0.02533671259880066,
                    0.007226116023957729,
                    0.021961912512779236,
                    0.025625208392739296,
                    -0.012484836392104626,
                    -0.006968741305172443,
                    0.001067852950654924,
                    0.001955782063305378,
                    -0.003623918630182743,
                    -0.007261880673468113,
                    -0.0021649859845638275,
                    0.005667896941304207,
                    0.004678715486079454,
                    -0.004909407813102007,
                    0.013140653260052204,
                    -0.028695158660411835,
                    -0.025704560801386833,
                    0.005660810507833958,
                    0.015895672142505646,
                    0.02007927931845188,
                    0.018317507579922676,
                    0.022235145792365074,
                    0.002597811399027705,
                    0.00396726792678237,
                    -0.00902760773897171,
                    0.009968727827072144,
                    0.01399958785623312,
                    0.00013222738925833255,
                    0.00779055617749691,
                    -0.006933816708624363,
                    -0.007025782484561205,
                    -0.016664953902363777,
                    -0.00658761989325285,
                    -0.01309023704379797,
                    0.004009949509054422,
                    -0.004307149443775415,
                    -0.0247034914791584,
                    -0.006597973871976137,
                    0.01988254301249981,
                    0.022341441363096237,
                    0.002761369338259101,
                    0.007558395620435476,
                    -0.025889823213219643,
                    0.0029396989848464727,
                    0.008356856182217598,
                    0.012087520211935043,
                    0.005253767594695091,
                    0.01905992440879345,
                    0.010452371090650558,
                    0.02654794417321682,
                    -0.007915247231721878,
                    -0.0033236618619412184,
                    0.011286715045571327,
                    0.011480129323899746,
                    -0.0016740674618631601,
                    -0.030085628852248192,
                    -0.0027462339494377375,
                    0.0022550986614078283,
                    -0.012516207993030548,
                    0.007108444347977638,
                    -0.019933531060814857,
                    0.0005841736565344036,
                    -0.004767316393554211,
                    0.013004595413804054,
                    0.002305339789018035,
                    0.004916849546134472,
                    0.0004909347044304013,
                    0.004426751285791397,
                    -0.015526474453508854,
                    0.03356490284204483,
                    0.013889641501009464,
                    -0.003929126542061567,
                    0.002992762252688408,
                    0.007635857444256544,
                    -0.011668997816741467,
                    -0.005650615319609642,
                    0.022243252024054527,
                    -0.010886446572840214,
                    0.0014100526459515095,
                    -0.009473261423408985,
                    0.008771178312599659,
                    -0.005052544642239809,
                    0.015338518656790257,
                    0.016897404566407204,
                    -0.014864674769341946,
                    3.2766140066087246e-05,
                    -0.020021067932248116,
                    -0.004088871646672487,
                    0.0003769799368456006,
                    0.02123039774596691,
                    0.005824605468660593,
                    0.016808390617370605,
                    -0.003829691791906953,
                    -0.0012790800537914038,
                    0.023809855803847313,
                    -0.0007865212392061949,
                    0.015950147062540054,
                    0.019123109057545662,
                    -0.009144090116024017,
                    -0.002320476807653904,
                    0.0004920247010886669,
                    -0.005557994358241558,
                    0.024947939440608025,
                    -0.005671363789588213,
                    -0.013877777382731438,
                    -0.012907464057207108,
                    0.000140247298986651,
                    -0.0005007618456147611,
                    -0.012852492742240429,
                    -0.007234284188598394,
                    0.024599412456154823,
                    0.004302220419049263,
                    0.004975226242095232,
                    -0.006351097486913204,
                    0.004232110921293497,
                    0.014548167586326599,
                    0.02397255413234234,
                    0.010177974589169025,
                    0.017390051856637,
                    -0.0041967229917645454,
                    -0.0035328418016433716,
                    0.0035824524238705635,
                    0.0037224001716822386,
                    0.00658944109454751,
                    0.002245168900117278,
                    0.005164113827049732,
                    -0.02508643828332424,
                    -0.009651800617575645,
                    0.01805722527205944,
                    -0.017745308578014374,
                    -0.011231726966798306,
                    -0.012680929154157639,
                    -0.011219155043363571,
                    0.0073044742457568645,
                    0.005719656124711037,
                    -0.00868114735931158,
                    0.016642697155475616,
                    0.005567094311118126,
                    0.02814590558409691,
                    -0.003600470954552293,
                    0.00825165119022131,
                    -0.0037229584995657206,
                    0.004693082068115473,
                    -0.007909270003437996,
                    0.0010510061401873827,
                    0.009375792928040028,
                    0.0035237555857747793,
                    -0.003813317511230707,
                    -0.0008007378783077002,
                    0.008708793669939041,
                    -0.0020615258254110813,
                    0.02447991445660591,
                    -0.015676800161600113,
                    0.0035018869675695896,
                    -0.002192109590396285,
                    0.01318392250686884,
                    0.0038224111776798964,
                    -0.003633341286331415,
                    -0.010786496102809906,
                    -0.00693132821470499,
                    0.0035680162254720926,
                    -0.006309489719569683,
                    -0.015850231051445007,
                    0.009490139782428741,
                    -0.007358144968748093,
                    0.01609966903924942,
                    -0.003495901357382536,
                    -0.015825996175408363,
                    0.022386718541383743,
                    0.009939076378941536,
                    -0.004364030435681343,
                    -0.01406871434301138,
                    -0.016807831823825836,
                    -0.006159081589430571,
                    -0.01276592630892992,
                    -0.013609658926725388,
                    0.02746010571718216,
                    -0.014360138215124607,
                    -0.007563394028693438,
                    0.021485168486833572,
                    -0.013219654560089111,
                    -0.008225490339100361,
                    -0.003412015037611127,
                    -0.015614570118486881,
                    -0.005484928842633963,
                    0.011283847503364086,
                    0.007013773545622826,
                    -0.012712539173662663,
                    0.0018206876702606678,
                    0.006016735918819904,
                    -0.009973373264074326,
                    -0.004025154747068882,
                    -0.006585786584764719,
                    -0.010829762555658817,
                    0.00633313599973917,
                    -0.0070800334215164185,
                    0.003299660049378872,
                    -0.01566198281943798,
                    -0.01205526851117611,
                    0.011744738556444645,
                    -0.0036112747620791197,
                    -0.006408064626157284,
                    0.005658882204443216,
                    -0.0014594009844586253,
                    -0.0003368347533978522,
                    0.002338964259251952,
                    -0.003083747113123536,
                    -0.031797513365745544,
                    -0.020997770130634308,
                    0.016379039734601974,
                    0.014911404810845852,
                    -0.0005259651807136834,
                    0.01079591829329729,
                    0.019828004762530327,
                    0.01400342769920826,
                    -0.005344902165234089,
                    0.0011495330836623907,
                    0.01665410026907921,
                    0.009859293699264526,
                    0.012447476387023926,
                    -0.015002296306192875,
                    0.004503730684518814,
                    -0.001676849089562893,
                    -0.014542621560394764,
                    -0.0069762663915753365,
                    0.011096085421741009,
                    -0.003362884745001793,
                    0.015341482125222683,
                    -0.013948768377304077,
                    0.010403212159872055,
                    0.010572035796940327,
                    0.02272425964474678,
                    0.006212139967828989,
                    -0.0043684616684913635,
                    -0.019228920340538025,
                    -0.01597033068537712,
                    0.013906852342188358,
                    0.022609643638134003,
                    -0.028597021475434303,
                    0.006418413482606411,
                    -0.012284881435334682,
                    0.007125061005353928,
                    -0.00021945696789771318,
                    0.007486897986382246,
                    -0.00594406807795167,
                    -0.002201995113864541,
                    0.01208803802728653,
                    -0.002336465986445546,
                    -0.016911916434764862,
                    0.019626477733254433,
                    -0.003518082667142153,
                    -0.007649046368896961,
                    0.0031030995305627584,
                    0.013363909907639027,
                    0.013267602771520615,
                    -0.007399091962724924,
                    0.0030792115721851587,
                    -0.0013004009379073977,
                    -0.01860181801021099,
                    -0.0005935548106208444,
                    0.00461240578442812,
                    0.006293372716754675,
                    0.019281748682260513,
                    -0.0022756410762667656,
                    -0.002603909233585,
                    0.01252648513764143,
                    -0.003699636785313487,
                    -0.002770358929410577,
                    0.028644675388932228,
                    -0.006846029777079821,
                    -0.027946962043642998,
                    0.019896812736988068,
                    -0.021151326596736908,
                    -0.005336596164852381,
                    -0.004564634524285793,
                    0.014014452695846558,
                    -0.01662260666489601,
                    -0.012356245890259743,
                    0.003940291702747345,
                    -0.020699426531791687,
                    0.010786042548716068,
                    -0.00807015411555767,
                    -0.006768487393856049,
                    -0.00846457201987505,
                    0.03827982768416405,
                    -0.003289861837401986,
                    -0.02359865792095661,
                    -0.0038844007067382336,
                    0.0031411389354616404,
                    -0.014386504888534546,
                    -0.005019920412451029,
                    0.014603857882320881,
                    -0.009027233347296715,
                    -0.010114502161741257,
                    0.0009416557149961591,
                    0.001267646555788815,
                    0.004130322486162186,
                    -0.006403328850865364,
                    0.010464048013091087,
                    -0.008826641365885735,
                    -0.007912660017609596,
                    -0.0005196540732868016,
                    0.019300302490592003,
                    -0.015939585864543915,
                    0.010091545060276985,
                    -0.0015292791649699211,
                    0.002154717920348048,
                    -0.0012211604043841362,
                    0.016707416623830795,
                    0.012372864410281181,
                    -0.005324231926351786,
                    0.017927786335349083,
                    0.007362016011029482,
                    -0.01464319322258234,
                    -0.00852911826223135,
                    -0.019057555124163628,
                    -0.004434704314917326,
                    -0.002129877684637904,
                    0.0140826515853405,
                    0.005819246638566256,
                    0.006461785640567541,
                    -0.014992126263678074,
                    0.02268497459590435,
                    -0.01472865417599678,
                    0.013149936683475971,
                    -0.0031673654448240995,
                    -0.0008240084862336516,
                    -0.017533179372549057,
                    0.0037763735745102167,
                    -0.0018269869033247232,
                    -0.0059716054238379,
                    -0.00012054836406605318,
                    0.002994242822751403,
                    0.003449107985943556,
                    0.00795127172023058,
                    -0.013975384645164013,
                    -0.004467621445655823,
                    -0.0014521194389089942,
                    0.0023807943798601627,
                    0.004490804858505726,
                    0.016785869374871254,
                    0.008131821639835835,
                    0.003020421601831913,
                    0.003341697622090578,
                    0.011507243849337101,
                    -0.015796281397342682,
                    -0.009079784154891968,
                    -0.006310733966529369,
                    -0.0037681448739022017,
                    -0.01085143443197012,
                    0.023954685777425766,
                    0.009253479540348053,
                    -0.007084488868713379,
                    -0.0053987810388207436,
                    -0.012985427863895893,
                    0.004300219938158989,
                    0.0038353493437170982,
                    0.002243507420644164,
                    0.012646932154893875,
                    -0.01496993750333786,
                    -0.004341885447502136,
                    0.002171959960833192,
                    0.026805713772773743,
                    -0.010565624572336674,
                    -0.005624760873615742,
                    0.005187665577977896,
                    0.0036347429268062115,
                    0.012756388634443283,
                    -0.014917203225195408,
                    -0.005133061204105616,
                    0.007514116354286671,
                    -0.0070680188946425915,
                    0.013101950287818909,
                    -0.016016731038689613,
                    0.007736491970717907,
                    -0.017723675817251205,
                    0.0010098065249621868,
                    0.006262468174099922,
                    0.005912739783525467,
                    -0.01656467467546463,
                    0.00551711255684495,
                    -0.006540657952427864,
                    0.0029714759439229965,
                    -0.002455590758472681,
                    0.005313752684742212,
                    0.006202242337167263,
                    0.002997081493958831,
                    -0.01857142150402069,
                    -0.019389497116208076,
                    0.008826030418276787,
                    -0.00884556956589222,
                    -0.006822395138442516,
                    0.010295934975147247,
                    0.012318171560764313,
                    0.0030511037912219763,
                    -0.013985694386065006,
                    0.019976483657956123,
                    -0.014851116575300694,
                    0.003861024510115385,
                    0.002726627979427576,
                    0.002879136009141803,
                    0.014277028851211071,
                    -0.0153649365529418,
                    0.006561379414051771,
                    -0.0001942485832842067,
                    0.020057104527950287,
                    0.006597745232284069,
                    -0.0009270395385101438,
                    -0.002352916169911623,
                    0.00935111753642559,
                    0.01859932206571102,
                    -0.0008236434659920633,
                    -0.026071697473526,
                    0.016112912446260452,
                    -0.014469587244093418,
                    -0.009329007938504219,
                    -0.0014017489738762379,
                    0.011549640446901321,
                    -0.008257826790213585,
                    0.0010780326556414366,
                    0.0055716633796691895,
                    0.014471215195953846,
                    -0.00168741459492594,
                    -0.000941808451898396,
                    0.005109204910695553,
                    -0.013264630921185017,
                    -0.00010813794506248087,
                    0.00040824871393851936,
                    0.00970643013715744,
                    0.0062132845632731915,
                    0.0063463905826210976,
                    0.004840411711484194,
                    -0.019016707316040993,
                    0.000930812384467572,
                    0.0019666452426463366,
                    0.0017171140061691403,
                    0.008578258566558361,
                    -0.00039719679625704885,
                    -0.01871214434504509,
                    -0.00999709777534008,
                    0.017384687438607216,
                    0.020594928413629532,
                    -0.01117838267236948,
                    0.004324232693761587,
                    -0.001630950951948762,
                    -0.006413265131413937,
                    0.0003479624865576625,
                    0.004274485632777214,
                    -0.006573060993105173,
                    -0.001449413481168449,
                    -0.01709248311817646,
                    0.004970281384885311,
                    -0.006611005403101444,
                    -0.002166381338611245,
                    -0.009228624403476715,
                    0.012426325120031834,
                    0.0045438846573233604,
                    0.0022933571599423885,
                    -0.004734866786748171,
                    -0.014250006526708603,
                    -0.012591619975864887,
                    0.00843784213066101,
                    -0.012573440559208393,
                    -0.016923297196626663,
                    -0.03098377212882042,
                    0.007270407862961292,
                    0.010185071267187595,
                    -0.022874966263771057,
                    0.006570236757397652,
                    -0.017772981896996498,
                    0.00662234565243125,
                    0.00074968725675717,
                    0.0015049633802846074,
                    0.000864521658513695,
                    -0.015375634655356407,
                    -0.008432742208242416,
                    -0.0152620580047369,
                    -0.006390013266354799,
                    -0.024638323113322258,
                    0.00962818507105112,
                    -0.03453594446182251,
                    -0.0039718844927847385,
                    0.024657011032104492,
                    0.004736518952995539,
                    0.010998968034982681,
                    0.008391883224248886,
                    -0.0020453608594834805,
                    -0.016172632575035095,
                    -0.016232432797551155,
                    -0.0019278915133327246,
                    -0.04012815281748772,
                    -0.0017492965562269092,
                    0.0064044976606965065,
                    -0.015158594585955143,
                    -0.007143987808376551,
                    0.0003910198574885726,
                    0.006319153122603893,
                    -0.006448752712458372,
                    -0.00046212467714212835,
                    -0.01967730186879635,
                    0.019961116835474968,
                    0.008103328756988049,
                    0.019114796072244644,
                    0.007246006280183792,
                    -0.013323253020644188,
                    -0.0012201666831970215,
                    -0.0008113512303680182,
                    0.007258219178766012,
                    0.014924158342182636,
                    0.0038330566603690386,
                    -0.0036328486166894436,
                    -0.011749480850994587,
                    -0.013854256831109524,
                    0.016030924394726753,
                    0.0021497271955013275,
                    -0.016838330775499344,
                    -0.012469966895878315,
                    -0.0016197636723518372,
                    -0.008092009462416172,
                    -0.0005372086889110506,
                    -0.008612019009888172,
                    -0.022388752549886703,
                    -0.028430111706256866,
                    0.003671532031148672,
                    0.00668742461130023,
                    -0.013680854812264442,
                    0.014997411519289017,
                    0.0020136551465839148,
                    -0.0010185192804783583,
                    -0.022870071232318878,
                    -0.017619309946894646,
                    0.009394406341016293,
                    0.01519092172384262,
                    -0.020665567368268967,
                    0.01159868948161602,
                    0.0009432842489331961,
                    0.003798876190558076,
                    -0.01356392540037632,
                    -0.007786167785525322,
                    -0.003535147290676832,
                    0.026533259078860283,
                    -0.009988304227590561,
                    -0.014917165972292423,
                    0.0018144953064620495,
                    -0.012870634905993938,
                    0.02553781494498253,
                    -0.012440952472388744,
                    -0.021154947578907013,
                    -0.02608882449567318,
                    0.028892116621136665,
                    0.02207479625940323,
                    -0.012614113278687,
                    0.0014153592055663466,
                    0.00019414437701925635,
                    0.012941858731210232,
                    -0.009092429652810097,
                    0.011696686036884785,
                    0.019544564187526703,
                    0.007440723478794098,
                    -0.013423949480056763,
                    0.006435002665966749,
                    0.005588850472122431,
                    -0.013219536282122135,
                    0.0038069088477641344,
                    -0.02522457204759121,
                    -0.0061901467852294445,
                    0.00014469263260252774,
                    -0.0019654787611216307,
                    0.006754608824849129,
                    0.0003339694521855563,
                    -0.0038253567181527615,
                    -0.0021987822838127613,
                    -0.006027929950505495,
                    0.014546492137014866,
                    0.003335776971653104,
                    -0.014601455070078373,
                    -0.007761824410408735,
                    -0.005183072295039892,
                    0.003928417339920998,
                    0.0018231801223009825,
                    -0.007201554253697395,
                    0.009811997413635254,
                    0.010518130846321583,
                    -0.009628384374082088,
                    -0.05374455079436302,
                    -0.01307083573192358,
                    0.009500293992459774,
                    -0.018928339704871178,
                    0.010540072806179523,
                    -0.00488913431763649,
                    -0.01509804092347622,
                    -0.00022133362654130906,
                    -0.0067673539742827415,
                    -0.0009388314210809767,
                    0.0002064345608232543,
                    0.01850254461169243,
                    0.023029325529932976,
                    -0.004020976833999157,
                    -0.007470269687473774,
                    -0.013860560953617096,
                    -0.01008995808660984,
                    0.016609085723757744,
                    0.01934957318007946,
                    -0.0031836729031056166,
                    0.008460788056254387,
                    -0.0031883723568171263,
                    -0.0006656651385128498,
                    -0.01556088961660862,
                    -0.008844798430800438,
                    -0.010515729896724224,
                    0.00010965963156195357,
                    0.009051325730979443,
                    0.014003103598952293,
                    0.0027506861370056868,
                    -0.012990004383027554,
                    -0.005781542044132948,
                    -0.022107644006609917,
                    -0.0015810529002919793,
                    0.01937212608754635,
                    0.012844174169003963,
                    -0.006902786903083324,
                    0.004396976437419653,
                    0.016420850530266762,
                    0.002797307213768363,
                    -0.01568828523159027,
                    0.017010211944580078,
                    -0.0010733861709013581,
                    -0.0005621783784590662,
                    -0.01615068130195141,
                    -0.011184684000909328,
                    -0.018656060099601746,
                    -0.011613938957452774,
                    -0.00914854183793068,
                    -0.012480630539357662,
                    0.0013771954691037536,
                    -0.016700992360711098,
                    0.004793184343725443,
                    -0.005374771077185869,
                    -0.013077236711978912,
                    0.029963655397295952,
                    0.00042289833072572947,
                    0.0004433059657458216,
                    -0.004772604443132877,
                    -0.0046064783819019794,
                    0.01692337729036808,
                    -0.01486171130090952,
                    -0.0006378763937391341,
                    -0.017034310847520828,
                    -0.013960212469100952,
                    0.021749181672930717,
                    -0.002938921330496669,
                    -0.02381194941699505,
                    0.006165219470858574,
                    -0.004244056064635515,
                    -0.0020479008089751005,
                    0.003547235392034054,
                    0.0009739570086821914,
                    0.006070423871278763,
                    -0.0025375690311193466,
                    -0.00021621638734359294,
                    0.0054209292866289616,
                    -0.010376989841461182,
                    0.0051128738559782505,
                    0.009708927944302559,
                    0.0010188812157139182,
                    0.0016446206718683243,
                    0.005669629201292992,
                    -0.005628211423754692,
                    -0.02672298066318035,
                    -0.012256347574293613,
                    0.028073841705918312,
                    0.028273994103074074,
                    0.01818094216287136,
                    0.010528243146836758,
                    0.00892265047878027,
                    -0.0021504401229321957,
                    0.013346354477107525,
                    0.014959758147597313,
                    0.015167421661317348,
                    -0.00042700223275460303,
                    -0.023688822984695435,
                    0.007891912944614887,
                    0.013473961502313614,
                    0.025181392207741737,
                    -0.007205927278846502,
                    -0.002306079724803567,
                    -0.002192359184846282,
                    0.013667392544448376,
                    -0.010730684734880924,
                    -0.001691583194769919,
                    0.00547777209430933,
                    -0.01167401485145092,
                    -0.012254099361598492,
                    -0.017428381368517876,
                    0.024772439152002335,
                    0.0023937609512358904,
                    0.0048171342350542545,
                    0.025132998824119568,
                    -0.008083230815827847,
                    -0.002442125929519534,
                    -0.02244606614112854,
                    0.008874739520251751,
                    0.0020854626782238483,
                    0.015272735618054867,
                    -0.015936192125082016,
                    -0.005962129216641188,
                    -0.009979180060327053,
                    -9.617273462936282e-05,
                    0.07766694575548172,
                    0.05008095130324364,
                    0.0004980296362191439,
                    0.0006377710960805416,
                    -0.0031025863718241453,
                    0.08169601857662201,
                    0.03057899884879589,
                    -0.014966713264584541,
                    -0.008941716514527798,
                    0.050668444484472275,
                    0.04862542822957039,
                    0.03172612190246582,
                    -0.032974973320961,
                    -0.030356645584106445,
                    0.0519830659031868,
                    0.0121826883405447,
                    -0.01819508895277977,
                    4.896651444141753e-05,
                    0.005589980166405439,
                    -0.001873651403002441,
                    0.006541108712553978,
                    0.05226774141192436,
                    0.07374800741672516,
                    0.043319255113601685,
                    -0.011063365265727043,
                    -0.019301846623420715,
                    0.0861528217792511,
                    -0.04407605156302452,
                    -0.03117227554321289,
                    -0.01107985433191061,
                    0.08015122264623642,
                    0.05022571235895157,
                    0.0004938733181916177,
                    -0.02623147703707218,
                    -0.010300769470632076,
                    0.0038324787747114897,
                    0.032280225306749344,
                    0.039073143154382706,
