{
    "layers": [
        {
            "kernel": {
                "cols": 3,
                "data": [
                    0.30235907435417175,
                    0.2881840169429779,
                    0.8107554316520691,
                    0.25060996413230896,
                    0.28840166330337524,
                    0.512151300907135,
                    0.2602674067020416,
                    -0.13606271147727966,
                    0.21374154090881348,
                    0.06373579800128937,
                    -0.0015191157581284642,
                    -0.24880430102348328,
                    -0.0070251282304525375,
                    0.2842133045196533,
                    0.055922139436006546,
                    -0.1392054408788681,
                    0.2002890259027481,
                    -0.06603540480136871,
                    -0.28731098771095276,
                    0.24546290934085846,
                    -0.2835400700569153,
                    0.06131495535373688,
                    0.1617409884929657,
                    0.09305410087108612,
                    0.16973140835762024,
                    0.06842231750488281,
                    -0.16997748613357544,
                    -0.03162570297718048,
                    -0.04142175242304802,
                    -0.014096043072640896,
                    0.29197293519973755,
                    0.21181589365005493,
                    0.3265354633331299,
                    -0.15668168663978577,
                    0.1379002332687378,
                    0.09637529402971268,
                    0.1024395301938057,
                    -0.23060297966003418,
                    0.29263341426849365,
                    0.19167521595954895,
                    0.30113717913627625,
                    -0.11438920348882675,
                    -0.37517619132995605,
                    0.20201045274734497,
                    -0.44366198778152466,
                    -0.15189199149608612,
                    -0.14918498694896698,
                    0.01204759068787098,
                    0.17197315394878387,
                    0.006695508491247892,
                    0.0890830010175705,
                    -0.03278319165110588,
                    0.3679948151111603,
                    -0.12762930989265442
                ],
                "rows": 3,
                "size3D": 6
            },
            "stride": 1,
            "type": "ConvolutionLayer"
        },
        {
            "size": 2,
            "stride": 2,
            "type": "MaxPoolingLayer"
        },
        {
            "kernel": {
                "cols": 3,
                "data": [
                    3.9018213748931885,
                    3.8222899436950684,
                    4.624341011047363,
                    3.2267513275146484,
                    3.0608415603637695,
                    3.5995066165924072,
                    2.003880262374878,
                    1.2647757530212402,
                    1.832607626914978,
                    0.09808146208524704,
                    0.07860760390758514,
                    -0.15498320758342743,
                    0.04845695570111275,
                    0.3327408730983734,
                    0.08666124194860458,
                    -0.06583471596240997,
                    0.2527337372303009,
                    -0.007915029302239418,
                    -0.18359746038913727,
                    0.2584325671195984,
                    -0.17999495565891266,
                    0.0937991514801979,
                    0.213277667760849,
                    0.1076570525765419,
                    0.17775969207286835,
                    0.11943889409303665,
                    -0.09866426140069962,
                    0.16822664439678192,
                    0.16626638174057007,
                    0.19475822150707245,
                    0.7925477027893066,
                    0.7542158365249634,
                    0.8349905014038086,
                    0.05511869117617607,
                    0.2967817485332489,
                    0.26872435212135315,
                    0.2870877683162689,
                    0.03943769633769989,
                    0.4635719656944275,
                    0.501498818397522,
                    0.6086934208869934,
                    0.23739227652549744,
                    -0.186165452003479,
                    0.2720183730125427,
                    -0.24269789457321167,
                    -0.08266441524028778,
                    -0.08221647143363953,
                    0.04228450357913971,
                    0.17591454088687897,
                    0.06171762943267822,
                    0.1205064058303833,
                    0.029548615217208862,
                    0.34033745527267456,
                    -0.04983368143439293,
                    0.806399405002594,
                    0.7804197072982788,
                    0.8130992650985718,
                    0.6234585046768188,
                    0.4810132086277008,
                    0.801160991191864,
                    -0.019696490839123726,
                    -0.03377917408943176,
                    0.19651760160923004,
                    0.1388765275478363,
                    -0.12365312874317169,
                    -0.11171983927488327,
                    -0.10305052250623703,
                    0.09890357404947281,
                    -0.09580349922180176,
                    0.12281224876642227,
                    0.025245418772101402,
                    -0.058117181062698364,
                    0.038480550050735474,
                    -0.22772802412509918,
                    -0.13488471508026123,
                    -0.10575456917285919,
                    0.10553638637065887,
                    -0.04902900382876396,
                    0.39828920364379883,
                    0.12926039099693298,
                    -0.13855136930942535,
                    0.9942858815193176,
                    0.7131060361862183,
                    0.3766564130783081,
                    0.71126389503479,
                    0.4570519030094147,
                    0.5052217841148376,
                    0.7562053799629211,
                    0.42591777443885803,
                    0.5378809571266174,
                    -0.2429066151380539,
                    -0.3482745885848999,
                    -0.06947668641805649,
                    0.5074392557144165,
                    0.4429936408996582,
                    0.503726601600647,
                    -0.16281388700008392,
                    0.17149244248867035,
                    0.28868862986564636,
                    0.4100560247898102,
                    0.4691218435764313,
                    0.43879562616348267,
                    0.1173347532749176,
                    -0.07266455143690109,
                    0.046410080045461655,
                    0.08742602169513702,
                    -0.07175181061029434,
                    0.19185295701026917
                ],
                "rows": 3,
                "size3D": 12
            },
            "stride": 1,
            "type": "ConvolutionLayer"
        },
        {
            "size": 2,
            "stride": 2,
            "type": "MaxPoolingLayer"
        }
    ],
    "learningRate": 0.10000000149011612
}