{
    "layers": [
        {
            "inChannel": 3,
            "kernel": {
                "cols": 3,
                "data": [
                    0.15857826173305511,
                    0.05328509956598282,
                    -0.21294616162776947,
                    0.05350082740187645,
                    0.0048096091486513615,
                    0.10772614181041718,
                    -0.1120866909623146,
                    0.23139794170856476,
                    0.18604914844036102,
                    0.005465152207762003,
                    0.7954668402671814,
                    -0.05689714848995209,
                    -0.018993046134710312,
                    0.33129453659057617,
                    0.30292004346847534,
                    0.27769675850868225,
                    -0.029465438798069954,
                    0.1622123420238495,
                    0.0824013501405716,
                    0.10071451961994171,
                    -0.04896854981780052,
                    0.42728331685066223,
                    -0.08912578225135803,
                    -0.079525887966156,
                    0.037101708352565765,
                    0.1466548591852188,
                    -0.07961329072713852,
                    0.014054376631975174,
                    0.3655894994735718,
                    0.43734481930732727,
                    -0.03387229144573212,
                    0.2658999264240265,
                    0.23599019646644592,
                    0.12473464012145996,
                    0.34839972853660583,
                    0.006600998807698488,
                    -0.18388503789901733,
                    0.17963698506355286,
                    -0.1919449269771576,
                    0.03865579515695572,
                    -0.1595926433801651,
                    -0.08639928698539734,
                    -0.21284815669059753,
                    0.05762745440006256,
                    -0.0778198391199112,
                    -0.14608153700828552,
                    -0.08288920670747757,
                    0.07617948204278946,
                    0.07527647167444229,
                    0.04049229249358177,
                    -0.22853964567184448,
                    -0.17535491287708282,
                    -0.10331393778324127,
                    -0.29840853810310364
                ],
                "rows": 3,
                "size3D": 6
            },
            "kernelSize": 3,
            "outChannel": 6,
            "stride": 2,
            "type": "ConvolutionLayer"
        },
        {
            "size": 2,
            "stride": 2,
            "type": "MaxPoolingLayer"
        },
        {
            "activation": "ReLU",
            "bias": null,
            "dense": 96,
            "isFirst": true,
            "type": "FClayer",
            "weight": null
        },
        {
            "activation": "ReLU",
            "bias": {
                "cols": 16,
                "data": [
                    0.27658477425575256,
                    0.062450356781482697,
                    -0.4216177761554718,
                    0.059501249343156815,
                    -0.02834678441286087,
                    0.1554095298051834,
                    -0.23855915665626526,
                    0.4163602888584137,
                    0.3176470100879669,
                    0.010040124878287315,
                    1.5471689701080322,
                    -0.10452673584222794,
                    -0.034892454743385315,
                    0.6013853549957275,
                    0.5888571739196777,
                    0.5130418539047241
                ],
                "rows": 1,
                "size3D": 1
            },
            "dense": 16,
            "isFirst": false,
            "type": "FClayer",
            "weight": {
                "cols": 96,
                "data": [
                    0.030137579888105392,
                    0.01148232538253069,
                    -0.038399603217840195,
                    0.011141590774059296,
                    0.00024436417152173817,
                    0.02083629183471203,
                    -0.019597817212343216,
                    0.0449177548289299,
                    0.03529895469546318,
                    0.005979983601719141,
                    0.15371032059192657,
                    -0.006281261797994375,
                    0.0009975292487069964,
                    0.06688521802425385,
                    0.06173253804445267,
                    0.05624360591173172,
                    0.006548458244651556,
                    0.04240662232041359,
                    0.029781043529510498,
                    0.03592972457408905,
                    0.002079411642625928,
                    0.0980939194560051,
                    0.00393687654286623,
                    0.004630747716873884,
                    0.026628971099853516,
                    0.046848464757204056,
                    0.005076153203845024,
                    0.021081773564219475,
                    0.08906619995832443,
                    0.1023755744099617,
                    0.016083361580967903,
                    0.06572900712490082,
                    0.04757550731301308,
                    0.026780955493450165,
                    0.06905799359083176,
                    0.0058133481070399284,
                    -0.03189973533153534,
                    0.03771743178367615,
                    -0.02991742081940174,
                    0.01249875221401453,
                    -0.025644278153777122,
                    -0.010894960723817348,
                    -0.03415065258741379,
                    0.016236241906881332,
                    -0.008665606379508972,
                    -0.021691935136914253,
                    -0.00875357910990715,
                    0.019036227837204933,
                    0.027310030534863472,
                    0.02251865155994892,
                    -0.025761617347598076,
                    -0.012226978316903114,
                    -0.006301539950072765,
                    -0.03637494891881943,
                    -0.0338059701025486,
                    0.03564996272325516,
                    0.03195247799158096,
                    0.020383600145578384,
                    0.003876082831993699,
                    0.026674840599298477,
                    0.03711232915520668,
                    0.07824855297803879,
                    -0.008032900281250477,
                    0.0396149717271328,
                    -0.048369716852903366,
                    -0.03711767867207527,
                    -0.05644874647259712,
                    -0.07707314193248749,
                    -0.040865346789360046,
                    0.002746251644566655,
                    -0.005381267983466387,
                    0.04881995916366577,
                    0.04694022983312607,
                    0.009369115345180035,
                    -0.08367171138525009,
                    0.016942407935857773,
                    0.04001522809267044,
                    0.03474254161119461,
                    -0.009963227435946465,
                    0.004792016930878162,
                    -0.012700973078608513,
                    0.027886660769581795,
                    -0.01847114972770214,
                    -0.01109909638762474,
                    -0.0024055170360952616,
                    -0.04655103385448456,
                    -0.011139770969748497,
                    -0.025102708488702774,
                    -0.03667721152305603,
                    -0.005652236752212048,
                    -0.07233191281557083,
                    0.02111303061246872,
                    0.03661273792386055,
                    0.019393768161535263,
                    -0.08373472839593887,
                    -0.010338195599615574,
                    0.021620824933052063,
                    -0.0008923471323214471,
                    -0.0019184108823537827,
                    0.042503707110881805,
                    0.01779109053313732,
                    -0.0020927086006850004,
                    0.021676398813724518,
                    0.038919564336538315,
                    0.0023421740625053644,
                    -0.004717809148132801,
                    -0.007367945741862059,
                    0.0071307942271232605,
                    -0.009526249952614307,
                    0.05048011988401413,
                    -0.0030852360650897026,
                    -0.05890537425875664,
                    0.022676972672343254,
                    -0.021250281482934952,
                    0.0432250015437603,
                    -0.0004319999716244638,
                    0.030849581584334373,
                    0.01280201319605112,
                    -0.03462402895092964,
                    0.03702834993600845,
                    0.004711404908448458,
                    -0.02292843721807003,
                    0.017261018976569176,
                    -0.0107993483543396,
                    -0.03598935157060623,
                    -0.03274320065975189,
                    0.002324562519788742,
                    0.04593788459897041,
                    0.0031643311958760023,
                    -0.052267443388700485,
                    -0.03693492338061333,
                    0.0047205975279212,
                    0.016389261931180954,
                    -0.048295315355062485,
                    -0.0327986404299736,
                    -0.029076071456074715,
                    -0.04182080179452896,
                    0.07286316156387329,
                    0.017390703782439232,
                    0.031428948044776917,
                    0.012197831645607948,
                    -0.04606954753398895,
                    -0.03912308067083359,
                    0.005743497051298618,
                    -0.04837118834257126,
                    -0.0034012983087450266,
                    -0.007450132630765438,
                    0.03481975570321083,
                    -0.02441927045583725,
                    -0.024944540113210678,
                    -0.010135641321539879,
                    0.016477709636092186,
                    -0.0474899597465992,
                    -0.006226196885108948,
                    -0.03745988383889198,
                    0.02113393135368824,
                    -0.026459595188498497,
                    0.05295439437031746,
                    -0.002534656086936593,
                    -0.016778161749243736,
                    0.02428298071026802,
                    -0.010214339010417461,
                    0.014200426638126373,
                    0.018779242411255836,
                    0.04241948574781418,
                    0.017780546098947525,
                    -0.020853692665696144,
                    0.0047696903347969055,
                    -0.025653811171650887,
                    -0.008615058846771717,
                    -0.0787723958492279,
                    -0.001687286072410643,
                    -0.01902254857122898,
                    0.020990727469325066,
                    -0.04872257262468338,
                    0.07036319375038147,
                    0.0424322634935379,
                    -0.0392972007393837,
                    -0.05042710900306702,
                    0.039312850683927536,
                    -0.048971667885780334,
                    -0.000828346295747906,
                    0.011971619911491871,
                    -0.05541018769145012,
                    -0.006449749227613211,
                    0.020770978182554245,
                    -0.0030365120619535446,
                    0.007392850238829851,
                    0.07414788007736206,
                    0.025442879647016525,
                    0.03106553666293621,
                    0.03179046884179115,
                    -0.048512984067201614,
                    -0.05742577090859413,
                    -0.03051271289587021,
                    -0.01003508921712637,
                    0.0681714415550232,
                    -0.041984859853982925,
                    -0.014368215575814247,
                    0.017624840140342712,
                    -0.019374558702111244,
                    0.02678944729268551,
                    0.02077414095401764,
                    0.03887917473912239,
                    -0.01321631483733654,
                    0.008074446581304073,
                    -0.014476103708148003,
                    -0.037438854575157166,
                    -0.037507444620132446,
                    -0.033857617527246475,
                    -0.04011007770895958,
                    0.02457418292760849,
                    -0.03287876397371292,
                    -0.007302834652364254,
                    -0.05940960347652435,
                    -0.029766857624053955,
                    -0.030186105519533157,
                    -0.04018998518586159,
                    -0.03448523208498955,
                    0.1084287017583847,
                    0.031626518815755844,
                    -0.01909051090478897,
                    -0.08775873482227325,
                    -0.033686697483062744,
                    0.059989605098962784,
                    -0.04584144428372383,
                    -0.04096914827823639,
                    -0.04246373847126961,
                    0.029416946694254875,
                    0.05495721101760864,
                    0.017411058768630028,
                    0.00798215065151453,
                    0.03546017035841942,
                    0.01710185967385769,
                    0.024145999923348427,
                    0.03757046163082123,
                    -0.0032035030890256166,
                    -0.012299559079110622,
                    -0.024906329810619354,
                    0.0035038539208471775,
                    -0.043419286608695984,
                    0.005319687072187662,
                    0.056324586272239685,
                    -0.010417643934488297,
                    -0.050766460597515106,
                    -0.008187515661120415,
                    0.025927618145942688,
                    0.039563849568367004,
                    0.0042540947906672955,
                    0.02699402906000614,
                    -0.009587478823959827,
                    0.022884642705321312,
                    -0.03446526080369949,
                    0.05953516066074371,
                    -0.021188875660300255,
                    -0.010888354852795601,
                    0.051676247268915176,
                    -0.012416966259479523,
                    -0.024915505200624466,
                    0.014727306552231312,
                    -0.0012919289292767644,
                    0.060621973127126694,
                    0.013470967300236225,
                    -0.03828725963830948,
                    -0.00778967747464776,
                    0.0068603698164224625,
                    0.019796669483184814,
                    -0.0095081627368927,
                    -0.0011588403722271323,
                    -0.1040244773030281,
                    -0.058575890958309174,
                    -0.00769678084179759,
                    0.029769672080874443,
                    0.013560556806623936,
                    0.04262607544660568,
                    -0.008858644403517246,
                    0.023186827078461647,
                    -0.001088623539544642,
                    -0.0051446775905787945,
                    0.003353848122060299,
                    0.048610445111989975,
                    0.019809527322649956,
                    -0.008437450975179672,
                    -0.009025483392179012,
                    0.06809116899967194,
                    -0.0554673932492733,
                    -0.05495869740843773,
                    0.007519005332142115,
                    -0.010148786008358002,
                    0.058575183153152466,
                    0.017481420189142227,
                    0.04094593599438667,
                    0.026165561750531197,
                    0.04653914272785187,
                    0.0017359021585434675,
                    -0.014659924432635307,
                    -9.25825588637963e-05,
                    -0.0068261572159826756,
                    0.008119394071400166,
                    -0.04156501963734627,
                    0.08764394372701645,
                    0.039608314633369446,
                    0.042226601392030716,
                    -0.07058313488960266,
                    0.010138120502233505,
                    0.017348578199744225,
                    -0.02534080669283867,
                    0.009872586466372013,
                    -0.0799567773938179,
                    -0.007365685421973467,
                    0.008243790827691555,
                    0.003032270586118102,
                    0.06029779464006424,
                    -0.01189405843615532,
                    -0.004391320049762726,
                    0.06276333332061768,
                    0.05293089151382446,
                    0.016756268218159676,
                    -0.027574218809604645,
                    0.020418493077158928,
                    0.03288324549794197,
                    -0.05971452593803406,
                    0.01697748340666294,
                    0.028382757678627968,
                    -0.037197012454271317,
                    -0.06931322813034058,
                    -0.020537961274385452,
                    0.03545007109642029,
                    -0.003211927367374301,
                    -0.026789389550685883,
                    -0.026465872302651405,
                    0.0023595995735377073,
                    -0.00677864532917738,
                    0.08771885931491852,
                    -0.013896916061639786,
                    0.02525053359568119,
                    -0.016784463077783585,
                    0.023299939930438995,
                    -0.0242879968136549,
                    -0.008718965575098991,
                    0.0090636620298028,
                    0.0038803901989012957,
                    -0.07363801449537277,
                    0.04941483959555626,
                    -0.03248118981719017,
                    0.01979682222008705,
                    -0.018092306330800056,
                    -0.04273523390293121,
                    -0.015423446893692017,
                    0.03790515288710594,
                    0.03885604068636894,
                    -0.014442541636526585,
                    0.03333219140768051,
                    -0.00512558501213789,
                    -0.0017720464384183288,
                    0.01375031191855669,
                    -0.030021147802472115,
                    -0.029423518106341362,
                    0.06524407118558884,
                    -0.01007133349776268,
                    -0.011942705139517784,
                    0.00954458862543106,
                    -0.013995612040162086,
                    0.03260258957743645,
                    -0.0274029653519392,
                    -0.015727033838629723,
                    -0.02453995868563652,
                    0.013263710774481297,
                    0.03416122868657112,
                    -0.08865055441856384,
                    -0.010654718615114689,
                    0.003781653009355068,
                    -0.0986698567867279,
                    -0.02163609117269516,
                    0.02461867220699787,
                    0.03448992222547531,
                    -0.012456433847546577,
                    0.0010986118577420712,
                    0.023343762382864952,
                    -0.012944144196808338,
                    0.018351320177316666,
                    -0.023068595677614212,
                    -0.021292611956596375,
                    -0.027463242411613464,
                    -0.07121618837118149,
                    0.045054733753204346,
                    0.019808894023299217,
                    0.05042264983057976,
                    -0.018862150609493256,
                    0.01348413061350584,
                    -0.004461490083485842,
                    -0.04299752414226532,
                    0.019009646028280258,
                    -0.02649405412375927,
                    0.0035160884726792574,
                    -0.03443837910890579,
                    0.007348770275712013,
                    -0.03000260889530182,
                    0.024464832618832588,
                    0.038119591772556305,
                    0.0034280014224350452,
                    -0.0636608749628067,
                    -0.033378489315509796,
                    0.02626635879278183,
                    0.015299986116588116,
                    -0.02656756527721882,
                    0.0073737576603889465,
                    -0.049105145037174225,
                    0.05830705165863037,
                    0.0038927874993532896,
                    -0.015324680134654045,
                    0.011463145725429058,
                    -0.02459748461842537,
                    -0.06880082190036774,
                    -0.02900359034538269,
                    -0.022559866309165955,
                    0.015443331561982632,
                    0.07997724413871765,
                    -0.08676765114068985,
                    0.03176599368453026,
                    -0.07747603952884674,
                    -0.025969240814447403,
                    -0.0011691378895193338,
                    0.004840248730033636,
                    0.02604307048022747,
                    0.016031822189688683,
                    -0.06526412814855576,
                    -0.00985297467559576,
                    -0.04606783390045166,
                    -0.03350044786930084,
                    0.07711014151573181,
                    1.5166124285315163e-05,
                    0.025400690734386444,
                    -0.017909914255142212,
                    -0.0012794558424502611,
                    -0.08817240595817566,
                    0.03948734700679779,
                    0.033214688301086426,
                    -0.037026356905698776,
                    -0.04586019366979599,
                    -0.020550068467855453,
                    -0.033052511513233185,
                    -0.01594586670398712,
                    -0.033479854464530945,
                    -0.0030536071863025427,
                    -0.04969213157892227,
                    0.011924590915441513,
                    0.04651084914803505,
                    -0.05502087250351906,
                    -0.005270250141620636,
                    -0.005783894564956427,
                    0.005911870393902063,
                    -0.0033730538561940193,
                    -0.0542294904589653,
                    0.01619092933833599,
                    0.011179758235812187,
                    0.040076401084661484,
                    -0.0005650360253639519,
                    0.04590139165520668,
                    -0.036070872098207474,
                    -0.0035289842635393143,
                    0.006653341930359602,
                    0.023899244144558907,
                    -0.004148172214627266,
                    0.017035167664289474,
                    0.035173747688531876,
                    -0.07620763033628464,
                    0.07378831505775452,
                    0.022003721445798874,
                    0.0060944021679461,
                    0.040327657014131546,
                    0.05296379327774048,
                    0.03436644375324249,
                    -0.04772855341434479,
                    0.07246318459510803,
                    0.08742508292198181,
                    0.03558795154094696,
                    -0.039388615638017654,
                    -0.0029918046202510595,
                    0.01453580241650343,
                    -0.014877911657094955,
                    -0.01658143661916256,
                    0.003992438316345215,
                    -0.025853751227259636,
                    0.036147743463516235,
                    0.04581967368721962,
                    0.0041614556685090065,
                    -0.03126329183578491,
                    0.009452496655285358,
                    0.0368417464196682,
                    -0.036035701632499695,
                    -0.04498932510614395,
                    0.02692241221666336,
                    -0.0022742280270904303,
                    -0.007533224765211344,
                    -0.007545321248471737,
                    -0.048061616718769073,
                    -0.0005744933732785285,
                    -0.015025785192847252,
                    -0.012654682621359825,
                    0.02744930237531662,
                    -0.004345212131738663,
                    -0.024785444140434265,
                    0.023984329774975777,
                    0.012940678745508194,
                    -0.05755123868584633,
                    0.01084252167493105,
                    -0.0047218347899615765,
                    -0.0022102619986981153,
                    -0.018061961978673935,
                    0.0026625937316566706,
                    0.0032058877404779196,
                    0.07390417903661728,
                    0.07188686728477478,
                    0.03820100799202919,
                    -0.031756434589624405,
                    -0.00989794172346592,
                    0.0029548178426921368,
                    0.04960909113287926,
                    -0.0007309376378543675,
                    -0.021984072402119637,
                    0.07596971839666367,
                    0.009594542905688286,
                    0.06954826414585114,
                    0.01835489086806774,
                    0.05513782054185867,
                    -0.013114848174154758,
                    -0.011279410682618618,
                    0.03437059000134468,
                    0.013238687068223953,
                    0.03688705712556839,
                    -0.01869833841919899,
                    -0.04859723150730133,
                    -0.06484896689653397,
                    -0.030876463279128075,
                    -0.028619572520256042,
                    0.010577280074357986,
                    -0.0917205736041069,
                    0.014875229448080063,
                    0.004506176337599754,
                    -0.009787775576114655,
                    -0.012898516841232777,
                    0.00733185326680541,
                    -0.007799647282809019,
                    0.0022140545770525932,
                    0.04412105679512024,
                    0.015012304298579693,
                    -0.011716365814208984,
                    -0.010250074788928032,
                    0.023499581962823868,
                    0.01488816924393177,
                    -0.03853056952357292,
                    0.0005029480089433491,
                    0.03703206405043602,
                    0.016624873504042625,
                    -0.006335743237286806,
                    0.05042463541030884,
                    -0.0030433526262640953,
                    0.06041685864329338,
                    0.03301651403307915,
                    -0.013821140863001347,
                    0.02486583963036537,
                    0.016876811161637306,
                    -0.02920021302998066,
                    0.034421518445014954,
                    0.0034756504464894533,
                    -0.003929306287318468,
                    -0.07709304988384247,
                    -0.013621781021356583,
                    -0.021063655614852905,
                    0.013783247210085392,
                    0.030241934582591057,
                    0.0677131935954094,
                    -0.04336774721741676,
                    0.07826067507266998,
                    0.020866073668003082,
                    0.006527294870465994,
                    0.006264169234782457,
                    -0.023130027577280998,
                    0.008716474287211895,
                    0.03177564591169357,
                    -0.03626447543501854,
                    0.00363278784789145,
                    0.01685350015759468,
                    0.046547386795282364,
                    -0.05345837026834488,
                    0.08919249475002289,
                    0.00885156262665987,
                    -0.030883779749274254,
                    0.02353353053331375,
                    0.016830308362841606,
                    0.00765254907310009,
                    0.022070156410336494,
                    0.023039136081933975,
                    0.05025217682123184,
                    0.0027897662948817015,
                    -0.03404531627893448,
                    0.023215308785438538,
                    0.05852800980210304,
                    -0.011538905091583729,
                    0.01961246319115162,
                    0.04971162602305412,
                    0.0023849562276154757,
                    0.03922721743583679,
                    0.003952473402023315,
                    -0.05126526206731796,
                    0.036464378237724304,
                    -0.04107720032334328,
                    -0.01910470798611641,
                    -0.007459152489900589,
                    0.004876743070781231,
                    0.06629154831171036,
                    -0.02634483575820923,
                    -0.05775747448205948,
                    0.03930229693651199,
                    -0.014428229071199894,
                    -0.00730392849072814,
                    0.0009185434901155531,
                    -0.04716270789504051,
                    -0.0023767072707414627,
                    0.0014738825848326087,
                    -0.06660541146993637,
                    0.01598288118839264,
                    0.06177902594208717,
                    0.016769390553236008,
                    -0.015624615363776684,
                    -0.012211186811327934,
                    0.02335025928914547,
                    -0.03304341435432434,
                    0.04349088668823242,
                    0.03957851603627205,
                    -0.0026373756118118763,
                    -0.03130523860454559,
                    0.02790953405201435,
                    -0.002496836706995964,
                    -0.017630375921726227,
                    -0.023032646626234055,
                    -0.04832736775279045,
                    -0.02090025320649147,
                    0.005307076498866081,
                    -0.004400992766022682,
                    0.01855590008199215,
                    -0.02460474707186222,
                    -0.05057593435049057,
                    -0.027021462097764015,
                    0.042811211198568344,
                    0.023394977673888206,
                    0.03768926486372948,
                    -0.035112179815769196,
                    0.05884475260972977,
                    0.0007024759543128312,
                    -0.020784903317689896,
                    -0.019070595502853394,
                    -0.011610261164605618,
                    -0.005511553026735783,
                    0.00681866891682148,
                    0.029739592224359512,
                    -0.0586865209043026,
                    0.04932452738285065,
                    0.00539519265294075,
                    -0.0023503638803958893,
                    -0.010112694464623928,
                    -0.01946927234530449,
                    -0.022854413837194443,
                    0.048309821635484695,
                    0.03907037898898125,
                    -0.00359905231744051,
                    -0.02489033155143261,
                    0.026412883773446083,
                    0.009711082093417645,
                    -0.05018522962927818,
                    0.042638491839170456,
                    0.05704116448760033,
                    0.043918829411268234,
                    0.02908291667699814,
                    -0.005491842515766621,
                    0.08742406219244003,
                    0.06908570975065231,
                    0.01322404108941555,
                    0.021645499393343925,
                    -0.009958983398973942,
                    0.06262527406215668,
                    0.010220603086054325,
                    -0.02444102056324482,
                    -0.03664582595229149,
                    0.006787776947021484,
                    0.012516815215349197,
                    -0.014102906920015812,
                    0.03524443134665489,
                    -0.03570515662431717,
                    0.02023887261748314,
                    -0.009744716808199883,
                    -0.00034728131140582263,
                    0.06953554600477219,
                    0.03654266893863678,
                    -0.039034403860569,
                    0.07160710543394089,
                    0.10527710616588593,
                    0.07607294619083405,
                    0.006501348689198494,
                    0.04467830806970596,
                    0.07761090993881226,
                    -0.031690455973148346,
                    0.03676704317331314,
                    0.011318031698465347,
                    0.06622978299856186,
                    0.023787813261151314,
                    0.006392742972820997,
                    -0.05189651623368263,
                    0.03654453158378601,
                    0.035575613379478455,
                    0.08570723235607147,
                    0.0019501784117892385,
                    0.015014443546533585,
                    0.018416326493024826,
                    0.07477595657110214,
                    0.08512551337480545,
                    0.04321359843015671,
                    -0.00584591506049037,
                    0.009239209815859795,
                    -0.03797796741127968,
                    0.056325823068618774,
                    0.011244487948715687,
                    0.03561800345778465,
                    -0.018402596935629845,
                    0.009661944583058357,
                    0.004845638293772936,
                    0.031225914135575294,
                    0.04124629497528076,
                    0.03967075049877167,
                    0.051127828657627106,
                    0.10939987748861313,
                    0.039364516735076904,
                    -0.04301483556628227,
                    0.02209407277405262,
                    0.0450386144220829,
                    -0.00013511917495634407,
                    -0.0001593022607266903,
                    -0.03385324776172638,
                    -0.012871145270764828,
                    -0.008370802737772465,
                    -0.037405241280794144,
                    0.023627212271094322,
                    -0.022479387000203133,
                    -0.023066328838467598,
                    0.006909147836267948,
                    0.020937466993927956,
                    0.07500394433736801,
                    -0.010543744079768658,
                    0.03777559846639633,
                    -0.03547501191496849,
                    -0.011707999743521214,
                    0.015395560301840305,
                    -0.01177935115993023,
                    -0.012283305637538433,
                    -0.046972766518592834,
                    -0.004840889014303684,
                    0.04624795541167259,
                    0.01664317399263382,
                    0.07143296301364899,
                    0.03494567796587944,
                    -0.02585029974579811,
                    0.011143304407596588,
                    -0.03544263914227486,
                    -0.018746955320239067,
                    -0.03889406472444534,
                    -0.010758769698441029,
                    -0.017354492098093033,
                    0.02606217935681343,
                    -0.020269624888896942,
                    -0.0559065043926239,
                    -0.00989204365760088,
                    -0.03391647711396217,
                    -0.0277096014469862,
                    0.02259734272956848,
                    -0.009801480919122696,
                    -0.06115458905696869,
                    0.03317384794354439,
                    -0.06674877554178238,
                    -0.06434964388608932,
                    -0.001607075915671885,
                    -0.02992270514369011,
                    0.021236279979348183,
                    0.008874135091900826,
                    0.0501512847840786,
                    -0.008083163760602474,
                    0.012105290777981281,
                    0.012425582855939865,
                    0.04327280446887016,
                    -0.046542469412088394,
                    0.05043797940015793,
                    0.01585548184812069,
                    0.04689791798591614,
                    0.0740378275513649,
                    0.07068610936403275,
                    0.04112447425723076,
                    0.036942485719919205,
                    -0.02939346246421337,
                    0.06986841559410095,
                    0.06048942357301712,
                    0.034887704998254776,
                    0.05211856961250305,
                    -0.03558230772614479,
                    -0.0036798513028770685,
                    -0.029242292046546936,
                    0.00532757630571723,
                    -0.035584378987550735,
                    0.04021400958299637,
                    0.004550083540380001,
                    -0.059289176017045975,
                    -0.0012967227958142757,
                    -0.05371193587779999,
                    -0.0027821948751807213,
                    -0.0644272118806839,
                    -0.026830969378352165,
                    0.00021098775323480368,
                    0.04063637927174568,
                    -0.005307997576892376,
                    0.033253904432058334,
                    -8.232986147049814e-05,
                    0.015376180410385132,
                    0.061914753168821335,
                    -0.04470792040228844,
                    -0.007128475233912468,
                    -0.049398697912693024,
                    -0.024568263441324234,
                    0.032621998339891434,
                    0.01174028031527996,
                    0.047477588057518005,
                    -0.013916213065385818,
                    0.027573486790060997,
                    0.07779733836650848,
                    0.03805052489042282,
                    0.01690153032541275,
                    -0.039355095475912094,
                    0.0014909363817423582,
                    -0.017511235550045967,
                    0.040059156715869904,
                    0.005365867633372545,
                    0.0027860919944941998,
                    -0.04174184426665306,
                    -0.011711842380464077,
                    0.025931717827916145,
                    0.0371682345867157,
                    -0.006481870077550411,
                    0.08719378709793091,
                    -0.017124662175774574,
                    -0.07926856726408005,
                    -0.054786138236522675,
                    -0.035467762500047684,
                    0.018898017704486847,
                    0.020931586623191833,
                    0.0032768722157925367,
                    -0.011221285909414291,
                    -0.01952694170176983,
                    0.02551361545920372,
                    0.08682084083557129,
                    0.060869812965393066,
                    0.027452554553747177,
                    0.06255653500556946,
                    0.06626702100038528,
                    0.014469332061707973,
                    0.023713989183306694,
                    -0.015786467120051384,
                    0.0734926387667656,
                    0.022041892632842064,
                    -0.043431758880615234,
                    0.008275006897747517,
                    0.038992784917354584,
                    -0.050095342099666595,
                    0.04609105363488197,
                    -0.06660223007202148,
                    0.10166100412607193,
                    -0.037205200642347336,
                    0.004925214685499668,
                    0.06437600404024124,
                    0.04582758620381355,
                    0.042987000197172165,
                    -0.006250671576708555,
                    -0.021866779774427414,
                    -0.042706407606601715,
                    -0.004614448174834251,
                    -0.03961146995425224,
                    -0.06461900472640991,
                    -0.007768396753817797,
                    -0.005114670842885971,
                    -0.033940646797418594,
                    0.013231621123850346,
                    -0.004014843143522739,
                    -0.05691668763756752,
                    0.0647355392575264,
                    -0.010320145636796951,
                    -0.04052916169166565,
                    0.10305474698543549,
                    0.03342640399932861,
                    0.027653969824314117,
                    0.041463229805231094,
                    0.0007931409636512399,
                    -0.016028881072998047,
                    -0.044255584478378296,
                    -0.03699278458952904,
                    -0.011401931755244732,
                    0.05813125520944595,
                    0.04613440856337547,
                    0.07906711846590042,
                    0.04957808181643486,
                    0.09204976260662079,
                    0.049168895930051804,
                    -0.03550920635461807,
                    -0.0005532574723474681,
                    0.07129181921482086,
                    -0.05868842080235481,
                    -0.022629648447036743,
                    -0.05083363875746727,
                    -0.04508461803197861,
                    -0.0041619110852479935,
                    -0.01955774985253811,
                    -0.024192895740270615,
                    -0.00765187805518508,
                    -0.013849781826138496,
                    0.01699777878820896,
                    0.027018917724490166,
                    -0.041420336812734604,
                    0.012540407478809357,
                    -0.030125167220830917,
                    -0.0785227045416832,
                    -0.040719904005527496,
                    0.024518407881259918,
                    -0.040726128965616226,
                    -0.016766896471381187,
                    0.0020778372418135405,
                    0.03901001065969467,
                    0.007208381779491901,
                    -0.016672944650053978,
                    0.008038979023694992,
                    0.05173369497060776,
                    0.01562632992863655,
                    -0.06392994523048401,
                    0.01993832364678383,
                    -0.005756509490311146,
                    0.019280875101685524,
                    0.009634515270590782,
                    0.02941727079451084,
                    -0.001939931302331388,
                    -0.06426431238651276,
                    -0.07266988605260849,
                    0.04497509449720383,
                    0.0037660778034478426,
                    0.025984225794672966,
                    0.03171181678771973,
                    -0.03698594495654106,
                    -0.0007369921659119427,
                    -0.008973589166998863,
                    -0.08521959185600281,
                    -0.027776900678873062,
                    0.008817805908620358,
                    -0.0276875589042902,
                    -0.018977869302034378,
                    0.006842394825071096,
                    -0.06506171077489853,
                    0.0050325822085142136,
                    0.028440475463867188,
                    -0.033818360418081284,
                    0.05215797945857048,
                    0.05691589042544365,
                    0.05777609348297119,
                    0.031807541847229004,
                    0.10407886654138565,
                    0.018534453585743904,
                    -0.024194180965423584,
                    0.09023056924343109,
                    -0.039357636123895645,
                    0.06772918999195099,
                    0.050468094646930695,
                    -0.06836018711328506,
                    -0.006930866744369268,
                    0.07635973393917084,
                    0.040533460676670074,
                    0.10913920402526855,
                    0.11590616405010223,
                    -0.013801965862512589,
                    0.05542038381099701,
                    0.089645616710186,
                    0.05925995483994484,
                    0.11649572104215622,
                    0.09031964093446732,
                    0.06862954795360565,
                    0.053829025477170944,
                    0.12439785152673721,
                    0.10180874913930893,
                    0.055975541472435,
                    0.06510035693645477,
                    0.027876844629645348,
                    0.05099527910351753,
                    0.03526705875992775,
                    0.04720562696456909,
                    0.049171920865774155,
                    0.019074851647019386,
                    0.06594499945640564,
                    0.022125734016299248,
                    -0.02778191864490509,
                    0.12315796315670013,
                    0.005929628852754831,
                    0.019852448254823685,
                    -0.022993644699454308,
                    0.03496156260371208,
                    0.002155421068891883,
                    0.049560315907001495,
                    0.07206512242555618,
                    0.08112476021051407,
                    0.07815103232860565,
                    0.15077994763851166,
                    0.08067569881677628,
                    0.10818873345851898,
                    0.09900427609682083,
                    0.10014285892248154,
                    0.11330101639032364,
                    0.04151250049471855,
                    0.09794701635837555,
                    0.09057236462831497,
                    0.12443508207798004,
                    0.08433785289525986,
                    0.13400429487228394,
                    0.11728224903345108,
                    -0.07607857137918472,
                    -0.043001074343919754,
                    -0.050507690757513046,
                    -0.008020286448299885,
                    -0.015273721888661385,
                    -0.029599318280816078,
                    0.010669023729860783,
                    -0.03502679616212845,
                    0.02241511456668377,
                    0.027620190754532814,
                    0.0004030400887131691,
                    -0.03670462220907211,
                    0.02393144927918911,
                    -0.0397212877869606,
                    0.039076272398233414,
                    -0.02783779613673687,
                    0.023830987513065338,
                    0.0036200915928930044,
                    0.02282637357711792,
                    -0.01655007153749466,
                    -0.06239650398492813,
                    -0.038079917430877686,
                    -0.02808765135705471,
                    0.038610655814409256,
                    0.0012594275176525116,
                    -0.018411386758089066,
                    -0.006768529769033194,
                    -0.06416650116443634,
                    -0.02420717291533947,
                    0.016855251044034958,
                    -0.05090989172458649,
                    2.915812365245074e-05,
                    -0.0684513971209526,
                    -0.03571407496929169,
                    -0.026778830215334892,
                    -0.007214904297143221,
                    -0.0005182056338526309,
                    -0.035648975521326065,
                    0.011101865209639072,
                    0.06945798546075821,
                    -0.004478482063859701,
                    -0.012497415766119957,
                    0.00013262388529255986,
                    -0.012856187298893929,
                    0.04777400195598602,
                    -0.008310988545417786,
                    0.030659733340144157,
                    -0.058059606701135635,
                    -0.04173644259572029,
                    -0.04333828389644623,
                    -0.002867123344913125,
                    0.007544065359979868,
                    -0.013021123595535755,
                    0.04088312014937401,
                    -0.00011761349742300808,
                    0.0021011768840253353,
                    0.0013607924338430166,
                    0.01753879338502884,
                    0.013170920312404633,
                    0.01554566528648138,
                    0.047551557421684265,
                    -0.046340398490428925,
                    -0.04120736941695213,
                    -0.004400632344186306,
                    -0.0015513127436861396,
                    -0.026420973241329193,
                    -0.026999538764357567,
                    -0.009834932163357735,
                    0.04699504002928734,
                    0.05991578847169876,
                    0.016078654676675797,
                    0.033821363002061844,
                    0.07531637698411942,
                    0.044079579412937164,
                    -0.02455889992415905,
                    -0.0145108038559556,
                    0.06368003785610199,
                    -0.029923783615231514,
                    -0.02248779498040676,
                    -0.03229527920484543,
                    -0.10129313915967941,
                    -0.06865445524454117,
                    0.012759308330714703,
                    -0.02857774868607521,
                    0.018020614981651306,
                    -0.00013009434042032808,
                    -0.025315240025520325,
                    -0.03204576298594475,
                    -0.02721368335187435,
                    0.024325592443346977,
                    0.0007905309903435409,
                    -0.0155535489320755,
                    -0.03125925362110138,
                    0.055211666971445084,
                    -0.034415245056152344,
                    0.0031265586148947477,
                    -0.045328058302402496,
                    -0.03296997770667076,
                    -0.021783877164125443,
                    -0.07678195089101791,
                    0.02568848244845867,
                    -0.003119830507785082,
                    -0.057851701974868774,
                    -0.007315223570913076,
                    0.03866124153137207,
                    0.04947259649634361,
                    0.018250808119773865,
                    -0.058884527534246445,
                    -0.037295594811439514,
                    -0.01326440554112196,
                    -0.0014102878049015999,
                    0.05944018438458443,
                    0.018550964072346687,
                    0.10683981329202652,
                    -0.0054917894303798676,
                    0.04682297632098198,
                    -0.06615904718637466,
                    -0.048944052308797836,
                    -0.023323090746998787,
                    -0.02584085799753666,
                    0.07038058340549469,
                    0.035219285637140274,
                    0.0294821634888649,
                    0.0023567399475723505,
                    0.006285853683948517,
                    -0.024262048304080963,
                    0.0054237511940300465,
                    -0.039464596658945084,
                    -0.006598364096134901,
                    0.02806650474667549,
                    0.022084571421146393,
                    0.004389512352645397,
                    0.012087839655578136,
                    -0.017393769696354866,
                    -0.0005601474549621344,
                    -0.020663229748606682,
                    0.025967484340071678,
                    -0.016371404752135277,
                    -0.008237632922828197,
                    -0.011021201498806477,
                    0.014099137857556343,
                    -0.012281779199838638,
                    0.008720990270376205,
                    0.02061625011265278,
                    -0.026122665032744408,
                    0.008779254741966724,
                    -0.03174253925681114,
                    0.007960713468492031,
                    -0.011335158720612526,
                    0.035232409834861755,
                    -0.033554572612047195,
                    0.06268366426229477,
                    0.03774663060903549,
                    0.015960082411766052,
                    0.022801363840699196,
                    -0.020191943272948265,
                    -0.00025223687407560647,
                    -0.050293631851673126,
                    -0.031766895204782486,
                    0.027351103723049164,
                    -0.011613773182034492,
                    0.04948387295007706,
                    -0.035744260996580124,
                    -0.0583491325378418,
                    -0.009483893401920795,
                    -0.038568612188100815,
                    -0.005764594301581383,
                    -0.040539246052503586,
                    -0.03363702818751335,
                    -0.010210441425442696,
                    0.026211431249976158,
                    0.005522421095520258,
                    0.03939149156212807,
                    -0.05139259621500969,
                    0.049972761422395706,
                    -0.032422248274087906,
                    0.027211304754018784,
                    0.015154239721596241,
                    0.0035419100895524025,
                    0.032628171145915985,
                    0.014212984591722488,
                    -0.04173961281776428,
                    0.06340259313583374,
                    -0.06310458481311798,
                    -0.017845207825303078,
                    -0.028508635237812996,
                    0.018166380003094673,
                    -0.061371974647045135,
                    -0.023769889026880264,
                    0.04489749297499657,
                    0.0017459406517446041,
                    -0.00949982088059187,
                    0.028797686100006104,
                    -0.049992095679044724,
                    0.0074365511536598206,
                    0.014224250800907612,
                    0.05767490342259407,
                    -0.034761056303977966,
                    -0.045104410499334335,
                    -0.009503524750471115,
                    -0.04755052924156189,
                    -0.03107530251145363,
                    -0.044852323830127716,
                    0.04325176030397415,
                    -0.007216788362711668,
                    0.03438015282154083,
                    -0.052012741565704346,
                    -0.0012746133143082261,
                    0.04113566502928734,
                    0.019917361438274384,
                    0.046294067054986954,
                    0.029842523857951164,
                    -0.036127910017967224,
                    -0.014549954794347286,
                    0.09949372708797455,
                    0.011220154352486134,
                    0.021162381395697594,
                    -0.03335348516702652,
                    0.10554533451795578,
                    0.009133524261415005,
                    0.01851365715265274,
                    -0.021541409194469452,
                    -0.001154016936197877,
                    -0.04854796826839447,
                    -0.05016665533185005,
                    -0.03980235010385513,
                    -0.05027538537979126,
                    -0.04909732565283775,
                    0.008578910492360592,
                    -0.027661466971039772,
                    -0.0386795736849308,
                    0.06216774880886078,
                    0.02883400022983551,
                    0.08950035274028778,
                    4.5510932977776974e-05,
                    -0.04665731266140938,
                    0.04595782607793808,
                    0.0429471880197525,
                    0.009307227097451687,
                    0.012108998373150826,
                    0.004755537956953049,
                    0.004795937333256006,
                    -0.04669307544827461,
                    0.025416763499379158,
                    0.009062315337359905,
                    -0.014746824279427528,
                    -0.06512130051851273,
                    -0.0131729356944561,
                    0.010464413091540337,
                    -0.09423555433750153,
                    -0.0053621334955096245,
                    0.007436566986143589,
                    0.019010327756404877,
                    -0.00325633492320776,
                    -0.019741922616958618,
                    0.07284694164991379,
                    -0.025657981634140015,
                    0.054462142288684845,
                    -0.0200042761862278,
                    -0.005563315004110336,
                    0.061783481389284134,
                    0.07090727984905243,
                    -0.0009018395212478936,
                    -0.049140796065330505,
                    -0.038177091628313065,
                    -0.02019064500927925,
                    -0.022604675963521004,
                    -0.03877677023410797,
                    -6.198544724611565e-05,
                    -0.001254542963579297,
                    -0.022871123626828194,
                    0.0017343130894005299,
                    0.022897806018590927,
                    -0.0009038847056217492,
                    0.03468548506498337,
                    -0.015585501678287983,
                    0.006151513662189245,
                    0.012015849351882935,
                    0.03281287103891373,
                    0.049165286123752594,
                    -0.053814597427845,
                    -0.025869661942124367,
                    -0.02975950948894024,
                    -0.014126085676252842,
                    -0.04277346283197403,
                    -0.006035504397004843,
                    -0.09290282428264618,
                    0.00476823840290308,
                    -0.024335114285349846,
                    0.005142685491591692,
                    -0.015693066641688347,
                    0.01776871457695961,
                    0.01001154538244009,
                    -0.04261079058051109,
                    -0.02930295653641224,
                    0.01921103708446026,
                    0.023166649043560028,
                    0.02137073315680027,
                    -0.0073632048442959785,
                    -0.003384081181138754,
                    0.015439477749168873,
                    -0.020385168492794037,
                    -0.028684282675385475,
                    -0.053448233753442764,
                    0.032778967171907425,
                    0.012256721965968609,
                    -0.00821638759225607,
                    -0.034837353974580765,
                    -0.01387531217187643,
                    -0.05249302461743355,
                    0.04125053435564041,
                    0.02509870007634163,
                    0.029178589582443237,
                    0.011971781961619854,
                    -0.03789563849568367,
                    0.026479071006178856,
                    0.06490176916122437,
                    0.0401143953204155,
                    -0.0353550910949707,
                    0.025817126035690308,
                    0.008809228427708149,
                    -0.015498878434300423,
                    0.010430998168885708,
                    0.060503650456666946,
                    0.03628857061266899,
                    0.0009126748773269355,
                    0.04508015513420105,
                    0.07256105542182922,
                    0.014772266149520874,
                    0.024373734369874,
                    -0.042930904775857925,
                    0.007293653208762407,
                    0.01746845804154873,
                    0.01146393921226263,
                    0.04104207456111908,
                    0.06065841019153595,
                    -0.008666617795825005,
                    0.03237372264266014,
                    -0.009512273594737053,
                    -0.023939136415719986,
                    0.007875354029238224,
                    0.033848535269498825,
                    0.0705932006239891,
                    0.05031900852918625,
                    0.03566349670290947,
                    0.0653582289814949,
                    0.03185472637414932,
                    -0.01929415389895439,
                    -0.027999436482787132,
                    -0.0095195472240448,
                    0.017977731302380562,
                    0.028756767511367798,
                    0.002294151810929179,
                    0.03834524750709534,
                    0.06750597059726715,
                    0.01116117276251316,
                    0.028816133737564087,
                    0.02259092964231968,
                    0.0172452162951231,
                    0.04794104024767876,
                    -0.012652479112148285,
                    -0.02276010997593403,
                    -0.02589789405465126,
                    -0.004399677738547325,
                    -0.0042900159023702145,
                    0.03402189165353775,
                    -0.02899107336997986,
                    -0.03364028409123421,
                    0.06696557998657227,
                    0.052182719111442566,
                    0.06617184728384018,
                    0.027855265885591507,
                    0.019040875136852264,
                    0.03746406361460686,
                    0.039922840893268585,
                    0.030169596895575523,
                    0.030581995844841003,
                    0.0715477243065834,
                    0.04126323014497757,
                    0.06893223524093628,
                    0.03242172300815582,
                    0.002390181180089712,
                    0.027043389156460762,
                    0.04850497841835022,
                    0.02707982435822487,
                    -0.017066486179828644,
                    0.022533580660820007,
                    -0.05611720308661461,
                    -0.06780467182397842,
                    -0.03489740565419197,
                    -0.05295660346746445,
                    0.002897256286814809,
                    -0.016000213101506233,
                    -0.05727133899927139,
                    0.020728860050439835,
                    -0.0030520509462803602,
                    -0.0282136257737875,
                    0.0043086460791528225,
                    0.07450279593467712,
                    -0.005290599539875984,
                    0.011251830495893955,
                    -0.03280838206410408,
                    -0.041562359780073166,
                    -0.021754121407866478,
                    -0.03247329592704773,
                    0.01889716275036335,
                    0.02626175433397293,
                    0.05611235648393631,
                    0.01774638332426548,
                    0.01569947600364685,
                    0.008871547877788544,
                    -0.010845483280718327,
                    0.00042462401324883103,
                    -0.03752754628658295,
                    -0.057458214461803436,
                    0.03801504522562027,
                    -0.04272713512182236,
                    -0.022446366026997566,
                    0.03836450353264809,
                    -0.019939392805099487,
                    0.0518467053771019,
                    -0.05206558480858803,
                    0.055656760931015015,
                    0.04316969960927963,
                    0.01737666130065918,
                    0.03213313966989517,
                    0.047126080840826035,
                    -0.007807014975696802,
                    0.027120836079120636,
                    0.025720369070768356,
                    -0.04279690980911255,
                    0.009552194736897945,
                    0.01920967735350132,
                    0.04204896092414856,
                    0.026169108226895332,
                    0.06846647709608078,
                    0.021395327523350716,
                    0.0750291645526886,
                    -0.05212892219424248,
                    -0.0097885113209486,
                    -0.016185851767659187,
                    -0.09811196476221085,
                    -0.0007026256062090397,
                    -0.019505098462104797,
                    -0.027932900935411453,
                    0.0324295312166214,
                    0.07211775332689285,
                    -0.008881174959242344,
                    0.02991156466305256,
                    0.06574827432632446,
                    -0.0479949451982975,
                    0.007280262187123299,
                    0.0072937048971652985,
                    0.040540650486946106,
                    0.019599368795752525,
                    0.003074009669944644,
                    -0.032877366989851,
                    -0.012703285552561283,
                    -0.0226457342505455,
                    0.033329159021377563,
                    -0.0415886715054512,
                    0.06238739192485809,
                    0.014785202220082283,
                    0.0009454714017920196,
                    -0.02031923271715641,
                    0.031208503991365433,
                    -0.021467164158821106,
                    0.024451933801174164,
                    -0.020424803718924522,
                    -0.005757381673902273,
                    -0.009873266331851482,
                    0.016735434532165527,
                    0.010689952410757542,
                    0.009932282380759716,
                    -0.042350467294454575,
                    0.022072872146964073,
                    -0.03468475863337517,
                    -0.04425826296210289,
                    -0.014622081071138382,
                    -0.016230350360274315,
                    -0.047458499670028687,
                    0.05345579609274864,
                    -0.06576485931873322,
                    -0.0809057354927063,
                    0.04560866951942444,
                    -0.06512599438428879,
                    0.013083997182548046,
                    0.0007194262580014765,
                    0.004734853282570839,
                    -0.05312654748558998,
                    0.026472195982933044,
                    0.0502801276743412,
                    0.0378190353512764,
                    0.05312301963567734,
                    -0.0737101212143898,
                    0.016933271661400795,
                    -0.013885035179555416,
                    -0.05906838923692703,
                    0.017789706587791443,
                    0.04263686016201973,
                    -0.03078506514430046,
                    -0.030818572267889977,
                    -0.07509496808052063,
                    0.03601326048374176,
                    -0.03848347067832947,
                    0.008542641066014767,
                    0.02112480252981186,
                    -0.10191108286380768,
                    0.017482057213783264,
                    0.022389845922589302,
                    -0.06748128682374954,
                    -0.03587045893073082
                ],
                "rows": 16,
                "size3D": 1
            }
        },
        {
            "activation": "softMax",
            "bias": {
                "cols": 2,
                "data": [
                    0.7978655099868774,
                    0.12118048965930939
                ],
                "rows": 1,
                "size3D": 1
            },
            "dense": 2,
            "isFirst": false,
            "type": "FClayer",
            "weight": {
                "cols": 16,
                "data": [
                    0.23934097588062286,
                    0.04791386052966118,
                    -0.29812878370285034,
                    0.06274164468050003,
                    -0.020044203847646713,
                    0.11652903258800507,
                    -0.1685929149389267,
                    0.3402877449989319,
                    0.25594550371170044,
                    0.007099440786987543,
                    1.232042908668518,
                    -0.07391156256198883,
                    -0.02467269077897072,
                    0.4560348391532898,
                    0.4617712199687958,
                    0.39188456535339355,
                    -0.09461396187543869,
                    0.20956458151340485,
                    0.10704249143600464,
                    0.11319153755903244,
                    -0.06361201405525208,
                    0.5538129210472107,
                    -0.11581691354513168,
                    -0.16933859884738922,
                    0.007475685328245163,
                    0.19051025807857513,
                    -0.30201882123947144,
                    0.018257170915603638,
                    0.47491469979286194,
                    0.5424345135688782,
                    -0.11226721853017807,
                    0.31427010893821716
                ],
                "rows": 2,
                "size3D": 1
            }
        }
    ],
    "learningRate": 0.009999999776482582
}