{
    "layers": [
        {
            "inChannel": 3,
            "kernel": {
                "cols": 3,
                "data": [
                    0.11585143953561783,
                    0.012780779041349888,
                    -0.25136446952819824,
                    0.016542617231607437,
                    -0.03556544706225395,
                    0.06421123445034027,
                    -0.1505604237318039,
                    0.1967335343360901,
                    0.150582417845726,
                    0.005465152207762003,
                    0.7954668402671814,
                    -0.05689714848995209,
                    -0.018993046134710312,
                    0.33129453659057617,
                    0.30292004346847534,
                    0.27769675850868225,
                    -0.029465438798069954,
                    0.1622123420238495,
                    0.0824013501405716,
                    0.10071451961994171,
                    -0.04896854981780052,
                    0.42728331685066223,
                    -0.08912578225135803,
                    -0.079525887966156,
                    0.037101708352565765,
                    0.1466548591852188,
                    -0.07961329072713852,
                    0.014054376631975174,
                    0.3655894994735718,
                    0.43734481930732727,
                    -0.03387229144573212,
                    0.2658999264240265,
                    0.23599019646644592,
                    0.12473464012145996,
                    0.34839972853660583,
                    0.006600998807698488,
                    -0.18388503789901733,
                    0.17963698506355286,
                    -0.1919449269771576,
                    0.03865579515695572,
                    -0.1595926433801651,
                    -0.08639928698539734,
                    -0.21284815669059753,
                    0.05762745440006256,
                    -0.0778198391199112,
                    -0.14608153700828552,
                    -0.08288920670747757,
                    0.07617948204278946,
                    0.07527647167444229,
                    0.04049229249358177,
                    -0.22853964567184448,
                    -0.17535491287708282,
                    -0.10331393778324127,
                    -0.29840853810310364
                ],
                "rows": 3,
                "size3D": 6
            },
            "kernelSize": 3,
            "outChannel": 6,
            "stride": 2,
            "type": "ConvolutionLayer"
        },
        {
            "size": 2,
            "stride": 2,
            "type": "MaxPoolingLayer"
        },
        {
            "activation": "ReLU",
            "bias": {
                "cols": 96,
                "data": [
                    0.0,
                    0.0,
                    0.0,
                    0.0,
                    0.0,
                    0.0,
                    0.0,
                    0.0,
                    0.0,
                    0.0,
                    0.0,
                    0.0,
                    0.0,
                    0.0,
                    0.0,
                    0.0,
                    0.0,
                    0.0,
                    0.0,
                    0.0,
                    0.0,
                    0.0,
                    0.0,
                    0.0,
                    0.0,
                    0.0,
                    0.0,
                    0.0,
                    0.0,
                    0.0,
                    0.0,
                    0.0,
                    0.0,
                    0.0,
                    0.0,
                    0.0,
                    0.0,
                    0.0,
                    0.0,
                    0.0,
                    0.0,
                    0.0,
                    0.0,
                    0.0,
                    0.0,
                    0.0,
                    0.0,
                    0.0,
                    0.0,
                    0.0,
                    0.0,
                    0.0,
                    0.0,
                    0.0,
                    0.0,
                    0.0,
                    0.0,
                    0.0,
                    0.0,
                    0.0,
                    0.0,
                    0.0,
                    0.0,
                    0.0,
                    0.0,
                    0.0,
                    0.0,
                    0.0,
                    0.0,
                    0.0,
                    0.0,
                    0.0,
                    0.0,
                    0.0,
                    0.0,
                    0.0,
                    0.0,
                    0.0,
                    0.0,
                    0.0,
                    0.0,
                    0.0,
                    0.0,
                    0.0,
                    0.0,
                    0.0,
                    0.0,
                    0.0,
                    0.0,
                    0.0,
                    0.0,
                    0.0,
                    0.0,
                    0.0,
                    0.0,
                    0.0
                ],
                "rows": 1,
                "size3D": 1
            },
            "dense": 96,
            "isFirst": true,
            "type": "FClayer",
            "weight": null
        },
        {
            "activation": "ReLU",
            "bias": {
                "cols": 16,
                "data": [
                    -0.016460372135043144,
                    0.13718311488628387,
                    0.0001943001407198608,
                    0.0,
                    0.01773039996623993,
                    0.0,
                    -0.0038989728782325983,
                    0.0,
                    -0.0013489426346495748,
                    0.0038113126065582037,
                    0.013383889570832253,
                    -0.011549390852451324,
                    0.0,
                    0.0,
                    -0.01747128553688526,
                    -0.009284501895308495
                ],
                "rows": 1,
                "size3D": 1
            },
            "dense": 16,
            "isFirst": false,
            "type": "FClayer",
            "weight": {
                "cols": 96,
                "data": [
                    0.039856936782598495,
                    0.011053977534174919,
                    0.3642633557319641,
                    -0.0021770878229290247,
                    0.01719900220632553,
                    0.1536828726530075,
                    0.07546386867761612,
                    -0.21924732625484467,
                    0.016981713473796844,
                    0.04113878682255745,
                    -0.008221273310482502,
                    -0.18879522383213043,
                    -0.012124177068471909,
                    0.20297576487064362,
                    0.037621233612298965,
                    -0.11029332876205444,
                    0.13402321934700012,
                    -0.06014993414282799,
                    -0.22934813797473907,
                    0.16295339167118073,
                    -0.21999527513980865,
                    0.023917336016893387,
                    0.09382656961679459,
                    0.0493282712996006,
                    0.10259753465652466,
                    0.02751261554658413,
                    -0.1460523009300232,
                    -0.07025039196014404,
                    -0.08102352172136307,
                    -0.06462786346673965,
                    0.13848914206027985,
                    0.0799269899725914,
                    0.17343513667583466,
                    -0.1442483365535736,
                    0.06645270437002182,
                    0.031311288475990295,
                    0.07290888577699661,
                    -0.17922858893871307,
                    0.21067826449871063,
                    0.13349881768226624,
                    0.21553391218185425,
                    -0.08879946917295456,
                    -0.258803129196167,
                    0.1710226684808731,
                    -0.3071463406085968,
                    -0.12314008921384811,
                    -0.12265841662883759,
                    3.106815029241261e-06,
                    0.10961991548538208,
                    -0.016849039122462273,
                    0.04356186464428902,
                    -0.055107466876506805,
                    0.253206342458725,
                    -0.12154590338468552,
                    0.0364198237657547,
                    0.02609291858971119,
                    0.003319708164781332,
                    0.01345188170671463,
                    -0.09661804139614105,
                    0.1206241250038147,
                    -0.17286768555641174,
                    -0.17459090054035187,
                    -0.027353838086128235,
                    0.09999079257249832,
                    -0.13722927868366241,
                    -0.12160831689834595,
                    -0.1328081488609314,
                    0.09294581413269043,
                    -0.10530619323253632,
                    0.09961961209774017,
                    0.012361377477645874,
                    -0.06656265258789063,
                    -0.002478270558640361,
                    -0.25399115681648254,
                    -0.15176250040531158,
                    -0.16109438240528107,
                    0.08474148064851761,
                    -0.06815233081579208,
                    0.32098516821861267,
                    0.08700782805681229,
                    -0.16477829217910767,
                    0.21485020220279694,
                    0.08825712651014328,
                    -0.1629527509212494,
                    0.06505963951349258,
                    -0.04676821455359459,
                    0.0235101617872715,
                    0.13699379563331604,
                    -0.05086497589945793,
                    0.06746461987495422,
                    -0.27890369296073914,
                    -0.389938086271286,
                    -0.11215662211179733,
                    0.1592922955751419,
                    0.0871080756187439,
                    0.11748799681663513,
                    -0.19686397910118103,
                    0.12024807929992676,
                    0.2157665491104126,
                    0.11089956760406494,
                    0.16129638254642487,
                    0.1349543184041977,
                    0.053979866206645966,
                    -0.10494571179151535,
                    0.000785029202234,
                    0.020982777699828148,
                    -0.1248699277639389,
                    0.1143144816160202,
                    -0.10379315167665482,
                    -0.16248391568660736,
                    -0.05552460998296738,
                    -0.24545958638191223,
                    0.21790547668933868,
                    -0.10198231786489487,
                    0.37638598680496216,
                    0.180108904838562,
                    0.3263106048107147,
                    0.07201654464006424,
                    0.24418917298316956,
                    0.46518316864967346,
                    0.14527690410614014,
                    0.10792838782072067,
                    0.20142285525798798,
                    0.16082541644573212,
                    0.129292830824852,
                    0.22080592811107635,
                    0.3413407504558563,
                    0.030403777956962585,
                    0.13576091825962067,
                    0.11407806724309921,
                    -0.09734085947275162,
                    0.029894502833485603,
                    0.14888785779476166,
                    0.02179109677672386,
                    -0.07187578827142715,
                    0.15165776014328003,
                    0.3387773334980011,
                    0.0377102792263031,
                    0.2807804346084595,
                    0.08840610831975937,
                    0.2480999231338501,
                    0.030529145151376724,
                    0.18883338570594788,
                    0.1574142575263977,
                    -0.05104803293943405,
                    0.07769567519426346,
                    -0.042487237602472305,
                    0.2557597756385803,
                    -0.03665315732359886,
                    -0.08844268321990967,
                    0.29344141483306885,
                    0.37376490235328674,
                    0.25522398948669434,
                    -0.04914063960313797,
                    0.13116706907749176,
                    0.38172289729118347,
                    0.3717828392982483,
                    0.10531453043222427,
                    0.4604450762271881,
                    -0.06158297508955002,
                    -0.12312913686037064,
                    -0.058176469057798386,
                    0.09365785121917725,
                    0.11180516332387924,
                    -0.054966721683740616,
                    -0.26191872358322144,
                    -0.1645709127187729,
                    0.14198455214500427,
                    0.16634754836559296,
                    0.06016546115279198,
                    0.1274501085281372,
                    0.17441579699516296,
                    -0.08959174901247025,
                    -0.06537532806396484,
                    -0.09089304506778717,
                    0.19589708745479584,
                    -0.15119729936122894,
                    0.031231407076120377,
                    0.1279529482126236,
                    -0.06573441624641418,
                    0.07755313068628311,
                    -0.045625537633895874,
                    0.04337330535054207,
                    -0.011885922402143478,
                    -0.1476363092660904,
                    0.04384889453649521,
                    0.003049397375434637,
                    -0.03801979497075081,
                    -0.05562404915690422,
                    0.015926172956824303,
                    -0.04832625761628151,
                    -0.029725944623351097,
                    0.06031455099582672,
                    -0.09314654022455215,
                    -0.061203137040138245,
                    0.1318226307630539,
                    -0.02480354905128479,
                    -0.009694854728877544,
                    -0.24698321521282196,
                    0.06088847294449806,
                    0.04811522364616394,
                    -0.1329222470521927,
                    -0.11547031253576279,
                    0.03304130584001541,
                    -0.04811523109674454,
                    0.00640870863571763,
                    -0.15050692856311798,
                    -0.12309172749519348,
                    -0.13617369532585144,
                    -0.07174767553806305,
                    0.0690753385424614,
                    0.23534993827342987,
                    -0.07336760312318802,
                    -0.06229472905397415,
                    -0.17644955217838287,
                    0.21159859001636505,
                    -0.1258954554796219,
                    -0.22144003212451935,
                    0.06757426261901855,
                    0.001277277828194201,
                    -0.09374722838401794,
                    -0.01657266914844513,
                    0.1435602307319641,
                    -0.17203426361083984,
                    0.2546907961368561,
                    -0.15292668342590332,
                    -0.14421314001083374,
                    0.020085245370864868,
                    -0.055428653955459595,
                    -0.048988405615091324,
                    0.04263874143362045,
                    -0.1385413110256195,
                    -0.02489359676837921,
                    0.028904536738991737,
                    -0.16683563590049744,
                    -0.018297839909791946,
                    0.1871638149023056,
                    0.0026145598385483027,
                    0.0019724646117538214,
                    0.03560083732008934,
                    -0.07148022204637527,
                    0.12135224789381027,
                    0.06972853094339371,
                    0.21303582191467285,
                    0.08752894401550293,
                    0.07629130780696869,
                    -0.07858452200889587,
                    -0.20806032419204712,
                    0.11188776046037674,
                    0.2917020320892334,
                    0.028502296656370163,
                    0.01705840975046158,
                    0.19654007256031036,
                    -0.33334586024284363,
                    -0.09199784696102142,
                    -0.22127097845077515,
                    0.12271837890148163,
                    -0.03498407453298569,
                    0.13811905682086945,
                    0.11971224844455719,
                    -0.008021320216357708,
                    0.39725133776664734,
                    -0.2125694304704666,
                    0.00167649588547647,
                    0.21596242487430573,
                    -0.07053844630718231,
                    -0.004314946476370096,
                    -0.031760647892951965,
                    0.10676649212837219,
                    0.09487684816122055,
                    -0.12719042599201202,
                    -0.07925489544868469,
                    -0.009574063122272491,
                    -0.019347168505191803,
                    0.0016707858303561807,
                    0.009545759297907352,
                    -0.16068264842033386,
                    0.04418502375483513,
                    0.0822802409529686,
                    -0.19824948906898499,
                    -0.0017326193628832698,
                    -0.06852132081985474,
                    0.1161745935678482,
                    0.2464757263660431,
                    -0.48857831954956055,
                    -0.17556720972061157,
                    -0.17183920741081238,
                    0.11739511787891388,
                    -0.12644930183887482,
                    0.03081248328089714,
                    -0.10840056091547012,
                    0.14697308838367462,
                    -0.032327186316251755,
                    -0.08644240349531174,
                    0.3019871413707733,
                    -0.034297578036785126,
                    -9.995916479965672e-05,
                    0.33343514800071716,
                    0.08691948652267456,
                    -0.1595049649477005,
                    -0.002957569435238838,
                    0.31393885612487793,
                    0.08059310168027878,
                    0.09240686148405075,
                    -0.06557980924844742,
                    -0.24184143543243408,
                    -0.05442160740494728,
                    -0.07202843576669693,
                    -0.08238287270069122,
                    -0.0648430660367012,
                    -0.037225767970085144,
                    -0.20565417408943176,
                    -0.1486208587884903,
                    0.03759845718741417,
                    -0.1429673433303833,
                    -0.10480441898107529,
                    -0.3909580707550049,
                    0.1120372861623764,
                    -0.00024453565129078925,
                    -0.08248849958181381,
                    -0.022056253626942635,
                    0.05554213374853134,
                    0.08339603245258331,
                    -0.16916489601135254,
                    -0.018357135355472565,
                    -0.04224633425474167,
                    0.0832248106598854,
                    0.07288361340761185,
                    0.15405218303203583,
                    -0.09394621104001999,
                    0.11854871362447739,
                    -0.19520185887813568,
                    0.006285994779318571,
                    0.05506826192140579,
                    0.07268700748682022,
                    -0.04633638635277748,
                    0.04292181506752968,
                    0.017000403255224228,
                    0.12204549461603165,
                    0.13562466204166412,
                    0.30441293120384216,
                    0.0483405664563179,
                    -0.029240807518363,
                    0.08793944120407104,
                    0.060448646545410156,
                    0.006071000825613737,
                    0.015605373308062553,
                    -0.10882075130939484,
                    -0.16325019299983978,
                    0.00969763658940792,
                    -0.020841842517256737,
                    0.052653927356004715,
                    -0.019478188827633858,
                    -0.04673204571008682,
                    -0.12051700800657272,
                    -0.16472043097019196,
                    -0.27238795161247253,
                    0.33129891753196716,
                    -0.19315692782402039,
                    0.16157303750514984,
                    -0.18099957704544067,
                    0.027511153370141983,
                    -0.009579332545399666,
                    0.12809698283672333,
                    -0.1470654010772705,
                    0.008260372094810009,
                    0.024793215095996857,
                    0.07011298090219498,
                    -0.1070905476808548,
                    0.010477966628968716,
                    -0.12018895149230957,
                    0.07296109944581985,
                    -0.11682924628257751,
                    0.06792068481445313,
                    0.022665048018097878,
                    0.14895178377628326,
                    -0.0486595593392849,
                    -0.09104586392641068,
                    -0.022732624784111977,
                    -0.07921206951141357,
                    -0.27108410000801086,
                    -0.048220835626125336,
                    0.3420778512954712,
                    -0.005837355740368366,
                    0.007596260402351618,
                    0.22630268335342407,
                    -0.019935207441449165,
                    -0.11884545534849167,
                    0.12958069145679474,
                    0.08778682351112366,
                    0.28062134981155396,
                    -0.08298838138580322,
                    0.11848942935466766,
                    0.14859478175640106,
                    0.08365727216005325,
                    0.36934420466423035,
                    -0.04450887069106102,
                    0.22974121570587158,
                    -0.27014344930648804,
                    0.06355135142803192,
                    -0.1838071495294571,
                    0.1115407794713974,
                    0.23949408531188965,
                    -0.08713572472333908,
                    0.15327395498752594,
                    -0.27279606461524963,
                    -0.1516319066286087,
                    -0.09014928340911865,
                    0.1538303643465042,
                    0.02898922562599182,
                    -0.09023065865039825,
                    0.21731364727020264,
                    0.014436106197535992,
                    0.2187136709690094,
                    -0.022046038880944252,
                    0.2211817055940628,
                    -0.10121233016252518,
                    -0.03403536230325699,
                    0.11248241364955902,
                    0.040957026183605194,
                    0.0037744874134659767,
                    0.12947136163711548,
                    -0.053427524864673615,
                    0.024454066529870033,
                    0.04520057886838913,
                    -0.1512308120727539,
                    -0.13967730104923248,
                    -0.029493136331439018,
                    -0.03333168849349022,
                    -0.12588874995708466,
                    0.012746571563184261,
                    -0.02449025772511959,
                    0.07821386307477951,
                    0.06341183185577393,
                    -0.12337621301412582,
                    -0.01837444119155407,
                    0.11064083874225616,
                    -0.0068750567734241486,
                    0.014384339563548565,
                    -0.10196854174137115,
                    0.052607979625463486,
                    0.14372918009757996,
                    -0.09992329031229019,
                    0.012422538362443447,
                    -0.08716153353452682,
                    -0.1532382071018219,
                    0.12065599858760834,
                    0.035218361765146255,
                    0.11647740751504898,
                    -0.1564902812242508,
                    -0.14527300000190735,
                    -0.10201309621334076,
                    0.13904410600662231,
                    -0.23747499287128448,
                    -0.08286597579717636,
                    0.15392173826694489,
                    -0.11763178557157516,
                    0.04701736196875572,
                    -0.01921899802982807,
                    -0.1479903906583786,
                    -0.32588037848472595,
                    -0.012204091064631939,
                    -0.10673186928033829,
                    0.005241418723016977,
                    0.14971597492694855,
                    0.065378837287426,
                    0.08234919607639313,
                    -0.04670421779155731,
                    -0.03552468121051788,
                    -0.12315633893013,
                    0.0340726263821125,
                    -0.04340216517448425,
                    -0.5453005433082581,
                    -0.05274438112974167,
                    -0.04878219589591026,
                    0.0769217237830162,
                    -0.020806018263101578,
                    0.16975069046020508,
                    -0.2546008229255676,
                    -0.02738025039434433,
                    0.1355971097946167,
                    0.209370419383049,
                    -0.03296681120991707,
                    -0.1597221940755844,
                    -0.08163882791996002,
                    -0.2321690320968628,
                    0.07455521076917648,
                    0.010453800670802593,
                    -0.03650509566068649,
                    0.15859383344650269,
                    0.09511399269104004,
                    -0.034052640199661255,
                    0.0889861211180687,
                    -0.17606106400489807,
                    0.038811925798654556,
                    -0.14485055208206177,
                    0.20874133706092834,
                    0.21837419271469116,
                    -0.42765167355537415,
                    -0.116239532828331,
                    0.17701901495456696,
                    0.1477898806333542,
                    0.02171294018626213,
                    0.10045527666807175,
                    -0.10739054530858994,
                    -0.17946337163448334,
                    -0.17294812202453613,
                    0.04538958519697189,
                    -0.1972961127758026,
                    -0.1691167652606964,
                    0.09435790777206421,
                    0.1606885939836502,
                    -0.2060680240392685,
                    -0.07691572606563568,
                    -0.030363930389285088,
                    -0.04247232526540756,
                    0.12335115671157837,
                    -0.06666728854179382,
                    -0.28502267599105835,
                    0.09224900603294373,
                    0.054364435374736786,
                    -0.07929284870624542,
                    -0.14114004373550415,
                    0.12664894759655,
                    -0.1952555924654007,
                    0.11630429327487946,
                    -0.04702457785606384,
                    0.04003074765205383,
                    -0.14842958748340607,
                    -0.1206967905163765,
                    0.23896381258964539,
                    -0.03869866952300072,
                    0.13366839289665222,
                    -0.23903286457061768,
                    -0.24783699214458466,
                    -0.09402148425579071,
                    -0.023178033530712128,
                    -0.008179361931979656,
                    0.0901685282588005,
                    0.1394595503807068,
                    0.18689200282096863,
                    -0.10429871082305908,
                    -0.07247283309698105,
                    -0.015178426168859005,
                    0.08729524165391922,
                    0.3057902157306671,
                    -0.2407274842262268,
                    0.02923821471631527,
                    -0.08524006605148315,
                    -0.0023177338298410177,
                    -0.22213596105575562,
                    0.13512399792671204,
                    -0.00833932962268591,
                    -0.07147805392742157,
                    0.02142942324280739,
                    0.275117427110672,
                    -0.1923345923423767,
                    0.058903396129608154,
                    -0.16505500674247742,
                    -0.0265972800552845,
                    -0.01385827362537384,
                    0.18648096919059753,
                    -0.1679738163948059,
                    0.22845280170440674,
                    -0.07923617959022522,
                    0.30866381525993347,
                    0.16059811413288116,
                    0.04770476743578911,
                    0.11835769563913345,
                    0.11307445913553238,
                    -0.21309544146060944,
                    -0.1537330150604248,
                    -0.1871638000011444,
                    -0.1428290754556656,
                    0.2784390449523926,
                    0.014022608287632465,
                    0.03832158446311951,
                    0.19135646522045135,
                    -0.18060101568698883,
                    -0.08302122354507446,
                    0.3836834728717804,
                    0.04473560303449631,
                    0.09672315418720245,
                    -0.17894764244556427,
                    0.07715441286563873,
                    0.14867015182971954,
                    0.15011870861053467,
                    0.0651765689253807,
                    -0.17452940344810486,
                    -0.15357190370559692,
                    -0.1591321974992752,
                    -0.012868346646428108,
                    0.010315715335309505,
                    0.19137731194496155,
                    -0.16785608232021332,
                    -0.003969392739236355,
                    -0.04978374391794205,
                    -0.09076475352048874,
                    -0.21919535100460052,
                    0.13856370747089386,
                    -0.12221015989780426,
                    -0.058440156280994415,
                    0.04820855334401131,
                    0.11741285026073456,
                    -0.1680172234773636,
                    0.00822447519749403,
                    0.0978616327047348,
                    0.19717180728912354,
                    -0.23433218896389008,
                    0.025681104511022568,
                    -0.1815105825662613,
                    -0.06541851162910461,
                    0.0075339050963521,
                    -0.12316198647022247,
                    0.10730554908514023,
                    -0.13357412815093994,
                    0.06080929562449455,
                    0.07383531332015991,
                    0.06938205659389496,
                    -0.1462296098470688,
                    0.09311685711145401,
                    0.05601375550031662,
                    0.15462473034858704,
                    0.01496607344597578,
                    0.0978010818362236,
                    -0.12455900013446808,
                    -0.2833612263202667,
                    0.2659301161766052,
                    -0.1626276671886444,
                    0.17066748440265656,
                    0.057923294603824615,
                    -0.02154967375099659,
                    -0.1428496539592743,
                    0.0013755012769252062,
                    -0.2743816077709198,
                    0.2783021330833435,
                    0.1245223730802536,
                    -0.05680947005748749,
                    0.09893389046192169,
                    -0.16907592117786407,
                    -0.07321666181087494,
                    -0.011536416597664356,
                    -0.09474502503871918,
                    -0.3526858985424042,
                    -0.15628957748413086,
                    0.07659075409173965,
                    0.26783400774002075,
                    0.22975876927375793,
                    0.0706586018204689,
                    -0.13332992792129517,
                    -0.07935397326946259,
                    -0.1932206153869629,
                    0.03215228021144867,
                    -0.22808514535427094,
                    0.045977961272001266,
                    -0.2811356484889984,
                    -0.04143965616822243,
                    -0.08210036158561707,
                    -0.219846710562706,
                    0.13381755352020264,
                    0.16354244947433472,
                    -0.2390875667333603,
                    0.08454074710607529,
                    0.1659497618675232,
                    -0.0907709002494812,
                    -0.07036494463682175,
                    -0.1487969011068344,
                    -0.034416601061820984,
                    -0.021225223317742348,
                    0.0791044682264328,
                    0.07185915857553482,
                    0.17039240896701813,
                    0.022147325798869133,
                    -0.049376700073480606,
                    0.09472128748893738,
                    -0.17202384769916534,
                    -0.19506621360778809,
                    -0.08351784944534302,
                    0.08271987736225128,
                    -0.11233772337436676,
                    -0.16449905931949615,
                    0.0688522607088089,
                    0.17134281992912292,
                    -0.09666236490011215,
                    -0.004307834431529045,
                    -0.14609289169311523,
                    -0.00031898432644084096,
                    0.16623656451702118,
                    0.14729058742523193,
                    -0.11367695778608322,
                    -0.19093076884746552,
                    0.18474218249320984,
                    0.08940208703279495,
                    0.14506471157073975,
                    0.1618458479642868,
                    -0.06116485223174095,
                    -0.03129468858242035,
                    -0.09684224426746368,
                    0.2031666338443756,
                    -0.26564502716064453,
                    0.09364264458417892,
                    0.11425646394491196,
                    0.03814467415213585,
                    -0.04384163022041321,
                    -0.012328064069151878,
                    -0.07977014780044556,
                    -0.015735140070319176,
                    0.263962060213089,
                    0.0007148962467908859,
                    -0.005420230329036713,
                    -0.2531984746456146,
                    -0.03165295720100403,
                    0.03836305812001228,
                    -0.1295139491558075,
                    -0.2854512631893158,
                    -0.10828344523906708,
                    -0.15476712584495544,
                    0.09710890054702759,
                    -0.03964615613222122,
                    -0.054969485849142075,
                    -0.192903533577919,
                    -0.10533962398767471,
                    0.12466403096914291,
                    -0.028179077431559563,
                    0.20903757214546204,
                    -0.09650728851556778,
                    -0.24229362607002258,
                    0.07812816649675369,
                    -0.12510702013969421,
                    -0.03121543489396572,
                    -0.02377425506711006,
                    0.029758848249912262,
                    -0.11157578229904175,
                    -0.03551263362169266,
                    -0.10629776865243912,
                    -0.0463501438498497,
                    -0.29713258147239685,
                    -0.07570154964923859,
                    -0.010754278860986233,
                    -0.2684144079685211,
                    0.06030435115098953,
                    0.19393636286258698,
                    0.012786999344825745,
                    0.20850549638271332,
                    0.1629704385995865,
                    0.08350261300802231,
                    0.11552038043737411,
                    0.23360297083854675,
                    -0.013509645126760006,
                    0.07597088813781738,
                    0.06748251616954803,
                    0.10323944687843323,
                    0.14560577273368835,
                    -0.1656530648469925,
                    -0.01819392666220665,
                    0.03206542134284973,
                    -0.08980771899223328,
                    -0.13551770150661469,
                    -0.07790758460760117,
                    0.17602579295635223,
                    -0.028634479269385338,
                    0.04694178327918053,
                    -0.09252836555242538,
                    0.0939992368221283,
                    -0.0019277525134384632,
                    -0.02310941554605961,
                    0.1203027069568634,
                    -0.10665293782949448,
                    0.15301230549812317,
                    -0.1726561039686203,
                    -0.21983711421489716,
                    0.18810850381851196,
                    0.06538685411214828,
                    -0.33375248312950134,
                    -0.31325531005859375,
                    0.19893211126327515,
                    -0.06255690008401871,
                    -0.05181480571627617,
                    0.027357902377843857,
                    0.033972159028053284,
                    -0.006636110600084066,
                    -0.03303495794534683,
                    0.25355619192123413,
                    -0.22833488881587982,
                    -0.06719700992107391,
                    0.20910824835300446,
                    0.09708679467439651,
                    -0.12578046321868896,
                    -0.2476908564567566,
                    0.1403486430644989,
                    0.032663002610206604,
                    -0.09038099646568298,
                    0.07353857159614563,
                    0.04532347619533539,
                    -0.24569708108901978,
                    -0.09461688995361328,
                    0.06350383162498474,
                    -0.06968753039836884,
                    -0.02089798077940941,
                    -0.08308551460504532,
                    0.03824364021420479,
                    0.044364750385284424,
                    -0.08932182937860489,
                    0.016774840652942657,
                    -0.06961394846439362,
                    0.14068150520324707,
                    0.1550465077161789,
                    0.2853315472602844,
                    0.0873655453324318,
                    -0.10821972042322159,
                    -0.05266203731298447,
                    0.0956389382481575,
                    -0.15132616460323334,
                    0.09740728884935379,
                    0.025839338079094887,
                    0.034433234483003616,
                    -0.28983402252197266,
                    -0.14824824035167694,
                    -0.20681264996528625,
                    0.1792835146188736,
                    -0.21814711391925812,
                    0.22273072600364685,
                    0.12499724328517914,
                    -0.021949246525764465,
                    0.042216356843709946,
                    -0.05368509516119957,
                    0.08188895881175995,
                    -0.03898495063185692,
                    0.0075273350812494755,
                    0.02333468571305275,
                    -0.013453289866447449,
                    0.004797058179974556,
                    -0.04387456551194191,
                    -0.12895356118679047,
                    -0.1424931138753891,
                    0.056184496730566025,
                    0.052115872502326965,
                    0.33503958582878113,
                    0.04222525656223297,
                    -0.03573555499315262,
                    0.10041694343090057,
                    -0.1815597265958786,
                    0.0039849840104579926,
                    -0.24563069641590118,
                    -0.17649169266223907,
                    -0.0917426198720932,
                    -0.07372641563415527,
                    0.042975421994924545,
                    0.14345310628414154,
                    0.1294468194246292,
                    -0.12437563389539719,
                    -0.36869990825653076,
                    -0.03635865077376366,
                    -0.03250529244542122,
                    0.21120794117450714,
                    0.10091003030538559,
                    -0.08917707949876785,
                    0.40756937861442566,
                    0.07212934643030167,
                    -0.1355079859495163,
                    -0.15347404778003693,
                    0.19910690188407898,
                    0.29535219073295593,
                    -0.022097313776612282,
                    -0.346903920173645,
                    0.08490593731403351,
                    0.041201550513505936,
                    0.0714198648929596,
                    0.1315416842699051,
                    -0.1534680277109146,
                    -0.24924607574939728,
                    -0.017060494050383568,
                    -0.10302085429430008,
                    -0.17947101593017578,
                    -0.37696242332458496,
                    0.18527886271476746,
                    -0.10736636817455292,
                    -0.09004449844360352,
                    0.056528449058532715,
                    -0.08087905496358871,
                    -0.08425237983465195,
                    -0.07766932249069214,
                    -0.11326106637716293,
                    0.029106270521879196,
                    -0.26442447304725647,
                    -0.19911359250545502,
                    0.03890788182616234,
                    0.2523655593395233,
                    -0.09489361941814423,
                    -0.08014140278100967,
                    0.28472816944122314,
                    -0.009783136658370495,
                    -0.10492268949747086,
                    -0.028111794963479042,
                    0.33146730065345764,
                    0.21171428263187408,
                    0.223160982131958,
                    -0.14220768213272095,
                    -0.2736433446407318,
                    0.2171269804239273,
                    0.09462787210941315,
                    -0.12922361493110657,
                    0.07266904413700104,
                    0.07887055724859238,
                    0.23614074289798737,
                    0.13906459510326385,
                    -0.16542068123817444,
                    0.05284963548183441,
                    0.05520448461174965,
                    -0.11669155955314636,
                    0.1532437950372696,
                    0.1309342384338379,
                    0.1797667294740677,
                    -0.16073442995548248,
                    0.15872055292129517,
                    -0.05046367645263672,
                    -0.005092276260256767,
                    0.0663859024643898,
                    -0.09880338609218597,
                    0.07872167229652405,
                    -0.1471293419599533,
                    0.1651773601770401,
                    0.21076974272727966,
                    0.06483431905508041,
                    -0.15443433821201324,
                    -0.17375381290912628,
                    -0.19789470732212067,
                    0.07290349900722504,
                    -0.2754940986633301,
                    -0.21839626133441925,
                    -0.10805845260620117,
                    -0.007933498360216618,
                    0.1601049154996872,
                    0.00011566243483684957,
                    0.08178321272134781,
                    -0.08100085705518723,
                    -0.23646479845046997,
                    -0.249228373169899,
                    -0.053765103220939636,
                    -0.1331816166639328,
                    -0.026762695983052254,
                    -0.0748995915055275,
                    -0.12478134781122208,
                    0.1230427697300911,
                    -0.03816671296954155,
                    -0.1622494012117386,
                    0.06746415048837662,
                    -0.0859505832195282,
                    0.11813181638717651,
                    0.17921923100948334,
                    0.030652083456516266,
                    0.009128161706030369,
                    0.07600009441375732,
                    -0.2373436987400055,
                    -0.17755581438541412,
                    0.05064583942294121,
                    -0.02483203448355198,
                    0.03826875239610672,
                    -0.0050412630662322044,
                    0.11542636156082153,
                    -0.25214430689811707,
                    0.014329671859741211,
                    -0.16346409916877747,
                    0.23724177479743958,
                    0.24559859931468964,
                    -0.11292608082294464,
                    0.0010215607471764088,
                    -0.1262335628271103,
                    0.07417821139097214,
                    -0.24272215366363525,
                    -0.021891025826334953,
                    0.053636226803064346,
                    0.2803800404071808,
                    -0.2306351214647293,
                    -0.04833533987402916,
                    -0.03252105042338371,
                    -0.1116582378745079,
                    0.056924015283584595,
                    0.21008779108524323,
                    -0.2857630252838135,
                    0.1955588161945343,
                    0.14614269137382507,
                    -0.19540037214756012,
                    0.2485993355512619,
                    0.010129494592547417,
                    -0.22798605263233185,
                    0.058096807450056076,
                    -0.14968065917491913,
                    0.08847562968730927,
                    0.15200018882751465,
                    -0.05917476490139961,
                    -0.1145978718996048,
                    0.21319402754306793,
                    0.07557854801416397,
                    -0.0953078418970108,
                    -0.17996369302272797,
                    0.007310215849429369,
                    -0.013377034105360508,
                    0.05885418877005577,
                    0.25566351413726807,
                    0.09992757439613342,
                    0.11901183426380157,
                    -0.1873658299446106,
                    0.28872931003570557,
                    -0.09454815834760666,
                    -0.3012341558933258,
                    0.09624873846769333,
                    -0.03398110717535019,
                    -0.02751893922686577,
                    0.05888672545552254,
                    -0.06948385387659073,
                    -0.3118380606174469,
                    0.14635562896728516,
                    -0.06202792748808861,
                    0.023007415235042572,
                    0.10012466460466385,
                    -0.09366467595100403,
                    0.3238545060157776,
                    -0.07142092287540436,
                    0.20811057090759277,
                    -0.023388996720314026,
                    -0.03977995738387108,
                    -0.05686108395457268,
                    0.28721845149993896,
                    0.10087265074253082,
                    -0.031081026419997215,
                    0.26656949520111084,
                    0.012669014744460583,
                    0.042496923357248306,
                    0.041491370648145676,
                    -0.06902773678302765,
                    -0.11307958513498306,
                    -0.06618238240480423,
                    -0.15913331508636475,
                    0.03772859275341034,
                    -0.2679239511489868,
                    -0.1078052669763565,
                    0.1191512942314148,
                    -0.03256021440029144,
                    0.03678251430392265,
                    -0.26787224411964417,
                    0.15432234108448029,
                    -0.13858942687511444,
                    0.022833451628684998,
                    0.14175818860530853,
                    0.0017861134838312864,
                    -0.05547464266419411,
                    -0.07669388502836227,
                    -0.10634264349937439,
                    -0.11888787150382996,
                    0.004302721470594406,
                    0.0009179292828775942,
                    -0.10813838988542557,
                    0.0782553181052208,
                    0.12616227567195892,
                    -0.07830391079187393,
                    0.025768017396330833,
                    -0.14865358173847198,
                    0.0166285689920187,
                    0.26975217461586,
                    -0.053743284195661545,
                    0.2975805997848511,
                    -0.06117266044020653,
                    -0.07519711554050446,
                    0.03384707495570183,
                    0.02754277177155018,
                    -0.04433129355311394,
                    0.07375963032245636,
                    -0.20018912851810455,
                    0.18879109621047974,
                    -0.007283372804522514,
                    -0.08747033774852753,
                    0.09357387572526932,
                    0.046143610030412674,
                    -0.23232659697532654,
                    -0.1951349675655365,
                    0.037368156015872955,
                    -0.16928139328956604,
                    -0.055811405181884766,
                    0.19984829425811768,
                    -0.015735464170575142,
                    -0.06918562948703766,
                    0.07195349782705307,
                    -0.16453123092651367,
                    -0.023258373141288757,
                    0.023236922919750214,
                    -0.07349982857704163,
                    -0.2668350338935852,
                    0.014939176850020885,
                    0.2230149656534195,
                    -0.08804429322481155,
                    -0.08555679023265839,
                    0.03001364879310131,
                    0.13803322613239288,
                    -0.32726114988327026,
                    0.07907173782587051,
                    -0.04693964868783951,
                    0.22275422513484955,
                    -0.07777096331119537,
                    -0.023016273975372314,
                    0.23305237293243408,
                    -0.03998040780425072,
                    -0.1078808531165123,
                    -0.05139805004000664,
                    -0.08653149753808975,
                    -0.13089482486248016,
                    0.13927379250526428,
                    0.07876019924879074,
                    0.10647422820329666,
                    -0.03996695950627327,
                    0.20434045791625977,
                    -0.16497761011123657,
                    0.07379228621721268,
                    -0.10215679556131363,
                    0.11062859743833542,
                    -0.16609176993370056,
                    0.26705342531204224,
                    0.058277156203985214,
                    0.15695758163928986,
                    -0.10535623878240585,
                    -0.11621878296136856,
                    -0.05040935054421425,
                    0.19348488748073578,
                    -0.023939894512295723,
                    -0.15046826004981995,
                    0.1620234102010727,
                    -0.09081345796585083,
                    -0.009272504597902298,
                    0.010764788836240768,
                    -0.05527644604444504,
                    0.023673443123698235,
                    -0.07262609153985977,
                    -0.004768122918903828,
                    0.2258986532688141,
                    -0.016122108325362206,
                    -0.15062011778354645,
                    0.3162740468978882,
                    -0.17349110543727875,
                    0.0697488933801651,
                    -0.022880565375089645,
                    0.4686306416988373,
                    0.1079423651099205,
                    0.20381681621074677,
                    0.08890995383262634,
                    0.14978934824466705,
                    -0.17389439046382904,
                    -0.17389507591724396,
                    -0.27511805295944214,
                    -0.23645798861980438,
                    -0.11614656448364258,
                    -0.003638083813712001,
                    0.0972636491060257,
                    -0.0588819719851017,
                    -0.09092677384614944,
                    0.10728931427001953,
                    0.1931869387626648,
                    0.1313919723033905,
                    0.06779512017965317,
                    0.28227144479751587,
                    -0.11006063967943192,
                    0.0913575068116188,
                    0.016585756093263626,
                    0.0925634577870369,
                    -0.055413369089365005,
                    0.03033464588224888,
                    -0.07135496288537979,
                    -0.16006724536418915,
                    0.029108868911862373,
                    -0.21491312980651855,
                    -0.16517780721187592,
                    0.15469025075435638,
                    0.27665311098098755,
                    -0.024763982743024826,
                    -0.00252145784907043,
                    0.020785735920071602,
                    0.14592446386814117,
                    -0.030687659978866577,
                    0.016414357349276543,
                    0.07968131452798843,
                    -0.09170281887054443,
                    0.006713258568197489,
                    -0.1482323855161667,
                    -0.0668841302394867,
                    0.05123785510659218,
                    -0.14405083656311035,
                    -0.13540944457054138,
                    -0.08604677766561508,
                    -0.08564306795597076,
                    -0.045360513031482697,
                    0.07757093757390976,
                    0.0715838149189949,
                    0.024266982451081276,
                    0.08742741495370865,
                    -0.3783365786075592,
                    -0.19954174757003784,
                    -0.0384490005671978,
                    -0.02225864864885807,
                    -0.02098158933222294,
                    -0.0005043562850914896,
                    -0.36720627546310425,
                    -0.00257287104614079,
                    -0.1619138866662979,
                    -0.03621351718902588,
                    -0.1222745031118393,
                    0.013652187772095203,
                    -0.22613629698753357,
                    -0.12702657282352448,
                    0.08616925776004791,
                    -0.30578532814979553,
                    0.10172679275274277,
                    0.09303086996078491,
                    0.09337225556373596,
                    0.023390602320432663,
                    -0.17212629318237305,
                    0.15631873905658722,
                    -0.05466602370142937,
                    -0.10425013303756714,
                    0.07083996385335922,
                    -0.07634760439395905,
                    0.05891786515712738,
                    0.15671363472938538,
                    -0.20330330729484558,
                    0.023504381999373436,
                    -0.14236675202846527,
                    -0.0759478285908699,
                    0.04143768176436424,
                    0.45406410098075867,
                    0.16338488459587097,
                    -0.04574526101350784,
                    -0.2556481957435608,
                    -0.008851435966789722,
                    0.11121587455272675,
                    -0.13720263540744781,
                    0.17334187030792236,
                    -0.1738235205411911,
                    0.10090431571006775,
                    -0.24440854787826538,
                    -0.08696282655000687,
                    0.1730193942785263,
                    -0.011361820623278618,
                    -0.22362934052944183,
                    0.06802600622177124,
                    -0.021553311496973038,
                    0.1840851902961731,
                    0.18804529309272766,
                    -0.07581227272748947,
                    -0.07978858053684235,
                    0.04966142028570175,
                    -0.03075863979756832,
                    -0.193843275308609,
                    -0.018564701080322266,
                    -0.12948903441429138,
                    0.12579096853733063,
                    -0.1013830304145813,
                    -0.06941783428192139,
                    -0.5041127800941467,
                    0.04264005273580551,
                    0.005276671145111322,
                    -0.015257970429956913,
                    -0.01868363656103611,
                    -0.04252083972096443,
                    -0.21555262804031372,
                    -0.13603447377681732,
                    -0.19224222004413605,
                    0.021130267530679703,
                    0.23313921689987183,
                    -0.19530417025089264,
                    0.11899913847446442,
                    0.1794571727514267,
                    -0.017020072788000107,
                    0.18899911642074585,
                    -0.10639351606369019,
                    -0.07151942700147629,
                    0.06476720422506332,
                    0.3051084876060486,
                    0.08943276107311249,
                    -0.15471528470516205,
                    -0.038463860750198364,
                    -0.14443489909172058,
                    -0.10981439799070358,
                    0.1927482783794403,
                    -0.05732259526848793,
                    -0.07135803997516632,
                    0.10533801466226578,
                    0.23963209986686707,
                    -0.13568463921546936,
                    0.04967673495411873,
                    -0.07164742797613144,
                    -0.027975566685199738,
                    0.05065673589706421,
                    -0.05164073780179024,
                    -0.3211110830307007,
                    -0.2909736633300781,
                    0.06785053759813309,
                    -0.00898235384374857,
                    0.24515892565250397,
                    -0.11146941035985947,
                    -0.041641827672719955,
                    -0.17432594299316406,
                    -0.08127979189157486,
                    -0.02616795338690281,
                    -0.1855144053697586,
                    0.0869029089808464,
                    -0.3193070590496063,
                    0.12073314189910889,
                    -0.07294639945030212,
                    0.04880557581782341,
                    -0.005710761994123459,
                    0.15834783017635345,
                    0.336515873670578,
                    -0.3337269723415375,
                    -0.00749419117346406,
                    0.06315980106592178,
                    0.018902355805039406,
                    -0.1481669694185257,
                    -0.049067381769418716,
                    0.07118404656648636,
                    0.029476216062903404,
                    0.14938189089298248,
                    0.2377735674381256,
                    -0.24679113924503326,
                    -0.14116935431957245,
                    0.1095132902264595,
                    -0.054605551064014435,
                    -0.05599656328558922,
                    0.21325460076332092,
                    0.14880691468715668,
                    0.04028765857219696,
                    -0.06511329114437103,
                    0.007974174804985523,
                    0.44409820437431335,
                    -0.13567496836185455,
                    -0.07458283752202988,
                    -0.08779487013816833,
                    -0.19329820573329926,
                    -0.06609275937080383,
                    0.010278737172484398,
                    0.039515890181064606,
                    -0.11208368837833405,
                    -0.21157437562942505,
                    0.24043504893779755,
                    0.1654076874256134,
                    0.0625508576631546,
                    -0.18308183550834656,
                    0.0035323742777109146,
                    0.016210246831178665,
                    -0.10220757126808167,
                    0.17018888890743256,
                    -0.19301795959472656,
                    -0.0805823877453804,
                    -0.04092257469892502,
                    -0.2224309742450714,
                    0.09670557826757431,
                    -0.1344156116247177,
                    0.19238904118537903,
                    -0.23412665724754333,
                    0.035631127655506134,
                    0.045268263667821884,
                    0.19407077133655548,
                    -0.156173437833786,
                    0.1906542181968689,
                    0.11690020561218262,
                    -0.15967625379562378,
                    0.3096805512905121,
                    -0.13837137818336487,
                    0.16127769649028778,
                    -0.163506880402565,
                    -0.13655419647693634,
                    0.11619119346141815,
                    0.12340807169675827,
                    -0.19353200495243073,
                    -0.176890030503273,
                    -0.025855667889118195,
                    -0.08593949675559998,
                    0.031683266162872314,
                    -0.20520536601543427,
                    -0.13368794322013855,
                    0.022339437156915665,
                    -0.18463926017284393,
                    0.06849190592765808,
                    0.04148231819272041,
                    0.2803272008895874,
                    -0.10426986962556839,
                    0.16159723699092865,
                    0.09106093645095825,
                    -0.1501428782939911,
                    -0.18839865922927856,
                    -0.01995576173067093,
                    -0.019843842834234238,
                    -0.08560239523649216,
                    0.08783135563135147,
                    -0.1625945121049881,
                    0.2531004846096039,
                    0.09206479787826538,
                    0.01762811467051506,
                    -0.05176537111401558,
                    0.1426762491464615,
                    -0.14822596311569214,
                    0.08385299146175385,
                    0.24923989176750183,
                    0.12760956585407257,
                    0.06482900679111481,
                    -0.11846014112234116,
                    -0.05810380354523659,
                    -0.3032718300819397,
                    0.1876372992992401,
                    0.017513912171125412,
                    -0.16372041404247284,
                    -0.06948167830705643,
                    0.1591639369726181,
                    -0.008849955163896084,
                    0.11983689665794373,
                    0.04976323992013931,
                    -0.27004823088645935,
                    0.03708028793334961,
                    -0.2367994338274002,
                    0.10947862267494202,
                    -0.0771321952342987,
                    -0.11161287873983383,
                    -0.16139443218708038,
                    -0.09121613949537277,
                    -0.05905334651470184,
                    0.2757377326488495,
                    -0.06446818262338638,
                    0.16256481409072876,
                    -0.17251932621002197,
                    -0.22062748670578003,
                    -0.10022997111082077,
                    0.11894132941961288,
                    -0.015460864640772343,
                    0.11510574817657471,
                    0.26631611585617065,
                    -0.16572503745555878,
                    0.03258553147315979,
                    -0.10132007300853729,
                    -0.016745219007134438,
                    -0.10124000906944275,
                    -0.1221073716878891,
                    0.04238835722208023,
                    0.04793328791856766,
                    -0.1414722055196762,
                    -0.10875176638364792,
                    -0.02937791869044304,
                    -0.023033443838357925,
                    -0.007449584547430277,
                    0.11110945791006088,
                    0.15800458192825317,
                    0.053220540285110474,
                    0.017945194616913795,
                    0.151490718126297,
                    0.4085025489330292,
                    0.02463368885219097,
                    0.07106778770685196,
                    -0.08573199063539505,
                    -0.09002213925123215,
                    -0.05985909700393677,
                    -0.17072100937366486,
                    -0.17072531580924988,
                    0.10158976167440414,
                    0.02907729148864746,
                    0.09792742133140564,
                    -0.11219031363725662,
                    0.051053017377853394,
                    -0.12399841845035553,
                    -0.1722366362810135,
                    0.19430439174175262,
                    -0.022467361763119698,
                    -0.26708224415779114,
                    -0.21670682728290558,
                    -0.1781594157218933,
                    0.07250246405601501,
                    0.15509305894374847,
                    0.0384567454457283,
                    0.03037630207836628,
                    -0.028003163635730743,
                    0.1869826316833496,
                    0.0943329930305481,
                    -0.052173927426338196,
                    -0.1902637928724289,
                    -0.08129037916660309,
                    0.20694762468338013,
                    0.01100362278521061,
                    -0.24231141805648804,
                    -0.028170792385935783,
                    0.207999587059021,
                    0.15380574762821198,
                    -0.07357356697320938,
                    -0.0924627035856247,
                    0.07716050744056702,
                    0.2284395843744278,
                    0.0022324456367641687,
                    0.04871751740574837,
                    0.22953931987285614,
                    0.025152532383799553,
                    -0.18020649254322052,
                    -0.0700213760137558,
                    0.059017933905124664,
                    0.16196651756763458,
                    0.09822679311037064,
                    -0.2682703733444214,
                    -0.08957237005233765,
                    -0.10431286692619324,
                    0.03058077022433281,
                    0.18274416029453278,
                    -0.04922067001461983,
                    0.0026566339656710625,
                    -0.10748585313558578,
                    0.06955740600824356,
                    0.10495740920305252,
                    0.21973799169063568,
                    -0.3543294072151184,
                    -0.04393339902162552,
                    0.026755962520837784,
                    -0.04126496985554695,
                    -0.011847509071230888,
                    -0.019823504611849785,
                    0.26421910524368286,
                    0.05076824501156807,
                    -0.10686547309160233,
                    -0.11249860376119614,
                    -0.23279280960559845,
                    0.12690399587154388,
                    0.1077134758234024,
                    0.10070723295211792,
                    -0.0479300357401371,
                    -0.15197806060314178,
                    -0.047408778220415115,
                    0.23271940648555756,
                    0.05183912441134453,
                    0.06776022911071777,
                    -0.033966220915317535,
                    -0.21057440340518951,
                    0.14593209326267242,
                    0.21513597667217255,
                    0.15005089342594147,
                    -0.07895398885011673
                ],
                "rows": 16,
                "size3D": 1
            }
        },
        {
            "activation": "softMax",
            "bias": {
                "cols": 2,
                "data": [
                    0.19528521597385406,
                    -0.19528597593307495
                ],
                "rows": 1,
                "size3D": 1
            },
            "dense": 2,
            "isFirst": false,
            "type": "FClayer",
            "weight": {
                "cols": 16,
                "data": [
                    0.11855931580066681,
                    0.7097175717353821,
                    0.900508463382721,
                    0.00293177948333323,
                    0.05614735186100006,
                    0.38259997963905334,
                    0.19430872797966003,
                    -0.5272611975669861,
                    0.04874024540185928,
                    0.13883328437805176,
                    -0.0004001435008831322,
                    -0.45029929280281067,
                    -0.02295891009271145,
                    0.5043714046478271,
                    0.11583569645881653,
                    -0.2621108293533325,
                    0.33673179149627686,
                    -0.7991788387298584,
                    -0.531251072883606,
                    0.4399399161338806,
                    -0.5304405689239502,
                    0.09870121628046036,
                    0.2754175066947937,
                    0.165029838681221,
                    0.2953471541404724,
                    0.08026370406150818,
                    -0.32674333453178406,
                    -0.13498981297016144,
                    -0.15440472960472107,
                    -0.11284706741571426,
                    0.3737713694572449,
                    0.2278655618429184
                ],
                "rows": 2,
                "size3D": 1
            }
        }
    ],
    "learningRate": 0.009999999776482582
}